tree
version=v4
num_class=1
num_tree_per_iteration=1
label_index=0
max_feature_idx=31
objective=regression_l1
feature_names=Temperature_t-1 Humidity_t-1 Pressure_t-1 Rainfall_t-1 Temperature_t-2 Humidity_t-2 Pressure_t-2 Rainfall_t-2 Temperature_t-3 Humidity_t-3 Pressure_t-3 Rainfall_t-3 Temperature_t-4 Humidity_t-4 Pressure_t-4 Rainfall_t-4 Temperature_t-5 Humidity_t-5 Pressure_t-5 Rainfall_t-5 Temperature_t-6 Humidity_t-6 Pressure_t-6 Rainfall_t-6 Temperature_t-7 Humidity_t-7 Pressure_t-7 Rainfall_t-7 Temperature_t-8 Humidity_t-8 Pressure_t-8 Rainfall_t-8
feature_infos=[19:38] [50:93] [1001:1018] [0:3.1484533605716551] [19:38] [50:93] [1001:1018] [0:3.1484533605716551] [19:38] [50:93] [1001:1018] [0:3.1484533605716551] [19:38] [50:93] [1001:1018] [0:3.1484533605716551] [19:38] [50:93] [1001:1018] [0:3.1484533605716551] [19:38] [50:93] [1001:1018] [0:3.1484533605716551] [19:38] [50:93] [1001:1018] [0:3.1484533605716551] [19:38] [50:93] [1001:1018] [0:3.1484533605716551]
tree_sizes=2454 2529 2614 2615 2678 2697 2655 2698 2548 2768 2709 2688 2663 2758 2785 2815 2682 2719 2722 2675 2644 2757 2669 2749 2689 2747 2646 2753 2750 2727 2769 2783 2633 2681 2664 2735 2743 2693

Tree=0
num_leaves=31
num_cat=0
split_feature=31 26 1 27 25 26 8 16 12 16 1 19 14 11 21 0 27 23 16 11 0 27 12 24 24 2 21 14 30 19
split_gain=310.131 40.418 40.2594 20.041 15.2545 14.8806 14.8424 10.8055 8.5953 8.51851 8.34558 6.94041 6.65717 5.50962 5.04384 4.83545 4.50853 3.8988 3.89444 3.61192 5.07969 4.39608 3.41111 3.09976 3.00095 2.66727 2.63011 2.6227 2.58685 2.56021
threshold=1.0000000180025095e-35 1008.5000000000001 71.500000000000014 0.22234291063072287 69.500000000000014 1007.5000000000001 27.500000000000004 27.500000000000004 29.500000000000004 25.500000000000004 71.500000000000014 1.0000000180025095e-35 1009.5000000000001 1.0000000180025095e-35 70.500000000000014 26.500000000000004 0.13881586829913978 1.011435595095721 29.500000000000004 1.0000000180025095e-35 25.500000000000004 0.29941825054435206 25.500000000000004 31.500000000000004 24.500000000000004 1008.5000000000001 69.500000000000014 1008.5000000000001 1007.5000000000001 1.0000000180025095e-35
decision_type=2 2 2 2 2 2 2 2 2 2 2 2 2 2 2 2 2 2 2 2 2 2 2 2 2 2 2 2 2 2
left_child=1 3 5 8 16 9 12 11 10 -2 13 27 15 17 -12 -4 -3 28 24 20 -7 -22 -21 -5 -11 29 -10 -6 -1 -8
right_child=2 4 6 23 7 19 25 -9 26 18 14 -13 -14 -15 -16 -17 -18 -19 -20 22 21 -23 -24 -25 -26 -27 -28 -29 -30 -31
leaf_value=0 0.013118213415145874 0 0 0.0047655090689659122 0.0023827545344829561 0 0.0047655090689659122 0 0 0 0 0 0.0047655090689659122 0 0.0047655090689659122 0.013118213415145874 0 0 0 0.0091160781681537632 0 0.0047655090689659122 0 0 0.0047655090689659122 0 0 0 0 0.016823612153530121
leaf_weight=243 123 2101 22 187 32 145 263 1084 251 28 102 176 160 249 211 705 50 47 49 57 269 61 336 45 349 42 391 812 386 68
leaf_count=243 123 2101 22 187 32 145 263 1084 251 28 102 176 160 249 211 705 50 47 49 57 269 61 336 45 349 42 391 812 386 68
internal_value=0.0149326 0.00892885 0.0292118 0.0145833 0.00612221 0.0234298 0.0357143 0.00914924 0.0128723 0.0298725 0.0153069 0.0128431 0.0392334 0.0129189 0.0223642 0.0412655 0.00316132 0.0105769 0.0265258 0.0193548 0.0164211 0.0198485 0.0229008 0.0284483 0.0282493 0.0273458 0.00817757 0.0109597 0.00953895 0.028852
internal_weight=9044 6367 2677 2112 4255 1417 1260 2104 1880 549 1238 1020 887 925 313 727 2151 676 426 868 475 330 393 232 377 373 642 844 629 331
internal_count=9044 6367 2677 2112 4255 1417 1260 2104 1880 549 1238 1020 887 925 313 727 2151 676 426 868 475 330 393 232 377 373 642 844 629 331
is_linear=0
shrinkage=0.05


Tree=1
num_leaves=31
num_cat=0
split_feature=3 8 30 23 19 4 3 25 28 22 5 6 12 4 3 28 11 31 12 18 22 27 5 27 26 15 27 19 7 8
split_gain=325.367 51.589 13.7972 13.6345 12.9266 9.79914 7.89717 6.41054 6.39292 8.54993 10.0274 5.32521 5.27573 5.24284 4.98239 4.7747 6.10146 4.23601 4.1868 4.17521 4.07818 4.04289 3.77804 3.71554 4.47932 5.363 4.46327 3.8573 3.65981 3.48832
threshold=1.0000000180025095e-35 27.500000000000004 1007.5000000000001 0.22234291063072287 1.0000000180025095e-35 29.500000000000004 0.22234291063072287 70.500000000000014 28.500000000000004 1007.5000000000001 69.500000000000014 1004.5000000000001 29.500000000000004 29.500000000000004 0.97438160901886006 27.500000000000004 0.29941825054435206 0.85418893014450203 26.500000000000004 1005.5000000000001 1010.5000000000001 0.93590108845079589 72.500000000000014 1.1785366391390579 1006.5000000000001 1.0000000180025095e-35 0.50031594015395309 0.22234291063072287 0.13881586829913978 27.500000000000004
decision_type=2 2 2 2 2 2 2 2 2 2 2 2 2 2 2 2 2 2 2 2 2 2 2 2 2 2 2 2 2 2
left_child=3 2 7 8 5 -3 18 13 11 10 -10 12 -1 -2 -7 -5 23 -11 -6 -9 -21 -4 -12 24 25 26 -17 -26 -13 -30
right_child=1 4 21 15 6 14 -8 19 9 17 22 28 -14 -15 -16 16 -18 -19 -20 20 -22 -23 -24 -25 27 -27 -28 -29 29 -31
leaf_value=-0.00023827545344829563 0.0091160781681537632 0 0.0045272336155176163 0 0.0089969404414296152 0 0.0091160781681537632 0.0047655090689659122 0 0 0.0041095983982086179 0 0 0.0041095983982086179 0.0045272336155176163 0 0.0047655090689659122 0.0045272336155176163 0 0.028733423054218294 0.02123080760240555 0.0088778027147054673 0 0 0 0.0084601674973964688 0.0047655090689659122 0 0 0
leaf_weight=33 164 344 547 328 28 472 233 67 307 1266 208 3132 40 46 153 49 57 45 110 461 24 75 37 60 209 21 21 89 98 329
leaf_count=33 164 344 547 328 28 472 233 67 307 1266 208 3132 40 46 153 49 57 45 110 461 24 75 37 60 209 21 21 89 98 329
internal_value=0.0107533 0.0252019 0.0319725 0.00453468 0.018209 0.0151703 0.0261456 0.0364829 0.00363057 0.00601181 0.0112319 0.00240914 -0.0109589 0.0290476 0.01144 0.0104916 0.0135375 0.00381388 0.0166667 0.0393116 0.0409278 0.0264469 0.0187755 0.0115813 0.0133676 0.0230769 0.0164286 0.0104027 0.00268334 0.00702576
internal_weight=9053 2724 1384 6329 1340 969 371 762 5495 1863 552 3632 73 210 625 834 506 1311 138 552 485 622 245 449 389 91 70 298 3559 427
internal_count=9053 2724 1384 6329 1340 969 371 762 5495 1863 552 3632 73 210 625 834 506 1311 138 552 485 622 245 449 389 91 70 298 3559 427
is_linear=0
shrinkage=0.05


Tree=2
num_leaves=31
num_cat=0
split_feature=3 30 8 31 19 15 23 31 3 2 3 19 4 21 22 23 15 8 23 4 8 8 12 29 7 3 6 7 24 13
split_gain=206.21 58.1309 39.9854 17.3768 12.2714 11.1399 11.1351 8.02673 8.64093 10.1283 8.00362 9.9556 7.2072 6.6757 6.42659 6.14095 6.59372 5.26725 5.20123 10.2544 7.51611 4.94246 4.79262 5.00354 4.78982 4.77859 6.03589 4.53202 4.29026 4.21326
threshold=1.0000000180025095e-35 1007.5000000000001 28.500000000000004 1.0000000180025095e-35 1.5368094061055315 0.37096867236468872 0.22234291063072287 1.0000000180025095e-35 0.71754226264466137 1008.5000000000001 1.0471650770867935 0.50031594015395309 30.500000000000004 72.500000000000014 1006.5000000000001 1.0000000180025095e-35 0.13881586829913978 30.500000000000004 1.0000000180025095e-35 28.500000000000004 27.500000000000004 25.500000000000004 25.500000000000004 72.500000000000014 1.3479888099339705 0.93590108845079589 1008.5000000000001 1.0000000180025095e-35 27.500000000000004 70.500000000000014
decision_type=2 2 2 2 2 2 2 2 2 2 2 2 2 2 2 2 2 2 2 2 2 2 2 2 2 2 2 2 2 2
left_child=6 2 3 10 5 7 -1 13 9 -9 11 14 24 18 -2 28 -17 -10 20 -20 -3 -15 -16 27 -5 -22 -27 -24 -4 -14
right_child=1 4 15 12 -6 -7 -8 8 17 -11 -12 -13 29 21 22 16 -18 -19 19 -21 25 -23 23 -25 -26 26 -28 -29 -30 -31
leaf_value=0 0.01287993796169758 -0.00022636168077588083 0.0045272336155176163 0.022388467155396941 -0.00022636168077588083 0.0047655090689659122 0 0 0.0090028973277658225 0.0043008719347417358 0.023153142053633932 -0.00023827545344829563 0.0040714297071099284 -0.00022636168077588083 0.0047655090689659122 0.029157015157863498 0 0 0.0047655090689659122 0 0 0 0 0.020034979358315469 0.009514997590333224 0.0045391473881900317 -0.00022636168077588083 0.0047655090689659122 0 0.021805398564785722
leaf_weight=5571 45 105 148 612 34 201 850 148 92 228 32 41 29 23 47 52 21 29 74 48 350 62 23 25 34 33 24 35 112 26
leaf_count=5571 45 105 148 612 34 201 850 148 92 228 32 41 29 23 47 52 21 29 74 48 350 62 23 25 34 33 24 35 112 26
internal_value=0.00885951 0.0203622 0.0281201 0.0333509 0.0135079 0.0142202 0.00396356 0.0124178 0.0173038 0.0135638 0.0219758 0.0185185 0.0373752 0.00904033 0.0237143 0.0132132 0.0260274 0.0289256 0.0108044 0.020082 0.00859375 -0.00411765 0.0180769 0.0253012 0.0388545 0.0116708 -0.00175439 0.0172414 0.00961538 0.02
internal_weight=9154 2733 1282 949 1451 1417 6421 1216 497 376 248 216 701 719 175 333 73 121 634 122 512 85 130 83 646 407 57 58 260 55
internal_count=9154 2733 1282 949 1451 1417 6421 1216 497 376 248 216 701 719 175 333 73 121 634 122 512 85 130 83 646 407 57 58 260 55
is_linear=0
shrinkage=0.05


Tree=3
num_leaves=31
num_cat=0
split_feature=3 26 8 1 31 3 8 31 23 12 1 27 27 5 19 7 22 8 3 31 23 24 8 10 30 0 3 21 12 3
split_gain=144.546 82.0351 37.535 22.9062 16.1871 12.8888 13.5363 10.8324 10.5628 9.94649 9.69302 8.84773 8.65475 7.67081 7.88982 7.52575 7.40447 6.90476 6.39257 7.06841 6.33603 8.9651 5.8629 7.20398 6.91026 6.40252 5.79755 5.72492 5.51559 5.363
threshold=1.0000000180025095e-35 1007.5000000000001 28.500000000000004 71.500000000000014 1.0000000180025095e-35 1.8484238118815568 29.500000000000004 1.0000000180025095e-35 0.22234291063072287 26.500000000000004 71.500000000000014 0.55920745798214477 0.22234291063072287 72.500000000000014 0.13881586829913978 1.0000000180025095e-35 1011.5000000000001 27.500000000000004 0.29941825054435206 0.43773436867695004 0.29941825054435206 30.500000000000004 27.500000000000004 1009.5000000000001 1007.5000000000001 28.500000000000004 0.93590108845079589 72.500000000000014 24.500000000000004 0.22234291063072287
decision_type=2 2 2 2 2 2 2 2 2 2 2 2 2 2 2 2 2 2 2 2 2 2 2 2 2 2 2 2 2 2
left_child=8 2 3 7 11 6 10 20 -1 -9 16 15 26 -12 -15 17 27 -3 -8 -20 21 -2 23 25 -24 -10 -4 29 -19 -6
right_child=1 4 12 -5 5 -7 18 9 22 -11 13 -13 -14 14 -16 -17 -18 28 19 -21 -22 -23 24 -25 -26 -27 -28 -29 -30 -31
leaf_value=0 0.0045331905018538236 -0.00021504359673708679 0 0.019376045625843108 0.0040858283380046491 0.019596748264599593 -0.00021504359673708679 0.01535941641223617 0 0.0042039706998504697 0.014255280450545253 0.0085367199201136831 0.015711897574365138 0.0043008719347417358 0.025080420476477596 0 -0.0003398403654806316 0 0 0.013118213415145874 0.0043008719347417358 -0.00021504359673708679 0 0 0 0.0045272336155176163 0.0085382601935416469 -0.00021504359673708679 0 0.015074754574382676
leaf_weight=5576 64 145 135 489 104 33 59 132 391 98 159 44 37 102 24 535 22 23 55 41 36 35 39 249 104 77 28 27 180 120
leaf_count=5576 64 145 135 489 104 33 59 132 391 98 159 44 37 102 24 535 22 23 55 41 36 35 39 249 104 77 28 27 180 120
internal_value=0.00817418 0.0178218 0.0287476 0.0333138 0.0109384 0.0164209 0.015007 0.0238356 0.00408639 0.0304348 0.018638 0.00652643 0.00925 0.0250877 0.015873 0.00543601 0.0119048 -0.000287356 0.00193548 0.00989583 0.0125926 0.00606061 0.00924419 0.0110879 0 0.0147436 0.00429448 0.0143426 0.00566502 0.0169643
internal_weight=9163 2727 1054 854 1673 746 713 365 6436 230 558 927 200 285 126 883 273 348 155 96 135 99 860 717 143 468 163 251 203 224
internal_count=9163 2727 1054 854 1673 746 713 365 6436 230 558 927 200 285 126 883 273 348 155 96 135 99 860 717 143 468 163 251 203 224
is_linear=0
shrinkage=0.05


Tree=4
num_leaves=31
num_cat=0
split_feature=3 26 8 1 3 31 31 31 23 14 27 21 3 7 9 19 12 28 13 17 15 20 1 12 2 26 0 31 0 27
split_gain=144.355 83.6276 27.7636 19.782 17.9379 15.1297 11.5628 11.5575 10.0319 9.96395 8.56022 8.01248 7.69472 7.64223 7.42398 6.75 6.74479 6.66558 6.41977 7.46606 6.06411 7.11636 5.89206 5.87313 10.3621 5.76086 5.72347 6.44566 7.7772 5.56907
threshold=1.0000000180025095e-35 1007.5000000000001 28.500000000000004 71.500000000000014 0.37096867236468872 0.29941825054435206 1.0000000180025095e-35 0.85418893014450203 0.22234291063072287 1009.5000000000001 0.55920745798214477 73.500000000000014 0.81068324164968719 1.6955735229043272 74.500000000000014 1.0000000180025095e-35 26.500000000000004 26.500000000000004 58.500000000000007 72.500000000000014 0.29941825054435206 27.500000000000004 68.500000000000014 24.500000000000004 1007.5000000000001 1004.5000000000001 24.500000000000004 0.22234291063072287 26.500000000000004 0.61482027553725704
decision_type=2 2 2 2 2 2 2 2 2 2 2 2 2 2 2 2 2 2 2 2 2 2 2 2 2 2 2 2 2 2
left_child=8 2 3 6 7 9 12 18 25 10 11 13 -2 -6 -5 -7 -8 -9 -3 20 23 -22 -11 24 -20 -1 -25 29 -29 -28
right_child=1 4 -4 14 5 15 16 17 -10 22 -12 -13 -14 -15 -16 -17 -18 -19 19 -21 21 -23 -24 26 -26 -27 27 28 -30 -31
leaf_value=0.0039041184782981873 0.0036491087751463051 0 0.0036946179905440663 0.01931937427203171 0.0045612176520656795 0.011722521398540121 0.013824503395983484 0.0028126138821244241 0 0.0044310447934037076 0.017096138838571497 -0.00022098559085745366 0.022115865106787536 -0.00022100048307329421 0.0014759123254474251 0.02773401701589814 0.0040851170271029693 0.014796003727773205 -0.00023827545344829563 0 0.0086514410339295876 0.0037005177290865689 0 -0.00020429141690023246 0 0 0 -0.00041933501363731926 1.075217983685434e-05 0.0084722900245757776
leaf_weight=67 118 38 194 467 285 112 129 39 858 36 32 26 21 20 28 84 92 59 34 109 45 38 174 30 74 5460 350 23 55 22
leaf_count=67 118 38 194 467 285 112 129 39 858 36 32 26 21 20 28 84 92 59 34 109 45 38 174 30 74 5460 350 23 55 22
internal_value=0.00823555 0.0178493 0.0289323 0.032807 0.0109496 0.01658 0.0238889 0.00622271 0.00411903 0.0124782 0.0174931 0.0151057 0.0125899 0.017377 0.0392929 0.0285714 0.0309955 0.022449 0.00427873 0.00525641 0.00722802 0.0198795 0.00380952 0.00544218 -0.00509259 0.00333816 0.0078125 0.00922222 -0.00384615 0.0119624
internal_weight=9119 2734 1049 855 1685 769 360 916 6385 573 363 331 139 305 495 196 221 98 818 780 671 83 210 588 108 5527 480 450 78 372
internal_count=9119 2734 1049 855 1685 769 360 916 6385 573 363 331 139 305 495 196 221 98 818 780 671 83 210 588 108 5527 480 450 78 372
is_linear=0
shrinkage=0.05


Tree=5
num_leaves=31
num_cat=0
split_feature=3 27 26 29 3 3 21 14 0 4 7 23 8 10 8 9 8 3 7 27 2 14 4 9 8 3 29 23 7 21
split_gain=91.2829 79.642 22.4557 20.5605 17.9598 15.1922 14.5988 14.3115 13.2151 10.8079 10.221 10.1612 9.48291 8.46892 8.31771 11.5592 7.5214 7.14491 9.39188 8.41558 6.84298 6.54111 5.8281 5.73936 9.34404 6.34528 5.70897 5.51571 5.3709 5.65068
threshold=1.0000000180025095e-35 1.0000000180025095e-35 1006.5000000000001 72.500000000000014 0.89587973461402759 0.93590108845079589 71.500000000000014 1007.5000000000001 26.500000000000004 32.500000000000007 0.93590108845079589 0.22234291063072287 26.500000000000004 1010.5000000000001 28.500000000000004 69.500000000000014 30.500000000000004 0.22234291063072287 0.97438160901886006 0.66750053336617021 1008.5000000000001 1007.5000000000001 26.500000000000004 60.500000000000007 25.500000000000004 0.13881586829913978 73.500000000000014 1.0000000180025095e-35 0.61482027553725704 70.500000000000014
decision_type=2 2 2 2 2 2 2 2 2 2 2 2 2 2 2 2 2 2 2 2 2 2 2 2 2 2 2 2 2 2
left_child=11 3 12 4 6 8 9 -6 17 23 13 -1 26 -10 15 -5 -7 19 -19 -4 -15 -8 -17 25 -25 -2 -3 28 29 -9
right_child=1 2 5 14 7 16 21 27 10 -11 -12 -13 -14 20 -16 22 -18 18 -20 -21 -22 -23 -24 24 -26 -27 -28 -29 -30 -31
leaf_value=0 -0.00020429141690023246 0.020359454912059476 -0.00021560950093902649 0.0033352647930826062 0.011643883546904196 0.017260425025856122 -0.00010214570845011623 1.1318084038794042e-05 0.0090728743473489307 0 0 0 0.0048623636690159336 -0.00022806088260328398 0 0.0027928117908120622 0.0022990461076016658 0.0030280622226239646 0.015034547434926849 0.0035706410029706318 0.0084571444356814039 -0.00020429141690023246 0.032485400396325158 0.019551801257692743 0 0.0089117867512535313 0.0079714372390140772 0.0056507019152194264 -0.00022695736940950159 0.004435302477912512
leaf_weight=5534 41 212 77 37 80 161 112 75 296 113 48 846 131 31 66 26 22 77 24 22 39 63 111 57 592 21 73 34 33 38
leaf_count=5534 41 212 77 37 80 161 112 75 296 113 48 846 131 31 66 26 22 77 24 22 39 63 111 57 592 21 73 34 33 38
internal_value=0.00702816 0.0147124 0.0242374 0.00700467 0.00444797 0.0193225 0.0014014 0.0161538 0.0155537 0.00418689 0.0206522 0.00376176 0.0336538 0.0234973 0.0204167 0.0261494 0.0319672 0.005 0.0143564 -0.00454545 0.00785714 -0.0117143 0.0328467 0.00646976 0.00785824 -0.00806452 0.0387719 0.00833333 0.00410959 0.00929204
internal_weight=9092 2712 1213 1499 1259 797 999 260 614 824 414 6380 416 366 240 174 183 200 101 99 70 175 137 711 649 62 285 180 146 113
internal_count=9092 2712 1213 1499 1259 797 999 260 614 824 414 6380 416 366 240 174 183 200 101 99 70 175 137 711 649 62 285 180 146 113
is_linear=0
shrinkage=0.05


Tree=6
num_leaves=31
num_cat=0
split_feature=31 3 8 10 28 24 28 3 28 27 23 16 16 23 1 10 21 3 28 20 29 29 22 15 7 15 27 3 21 8
split_gain=83.446 60.9025 29.3998 14.568 13.5646 11.8347 11.0472 16.5791 14.1705 13.5661 10.7479 9.89104 8.26025 8.49602 8.2478 7.2973 7.23811 7.11758 6.93824 7.2576 6.85307 6.35062 6.31257 10.0284 5.84413 5.65218 5.61232 10.7764 5.52535 6.52801
threshold=1.0000000180025095e-35 1.0000000180025095e-35 26.500000000000004 1010.5000000000001 33.500000000000007 27.500000000000004 30.500000000000004 0.37096867236468872 26.500000000000004 0.22234291063072287 0.22234291063072287 25.500000000000004 25.500000000000004 1.0000000180025095e-35 70.500000000000014 1009.5000000000001 68.500000000000014 1.8640500836336089 26.500000000000004 30.500000000000004 67.500000000000014 71.500000000000014 1009.5000000000001 0.13881586829913978 1.0000000180025095e-35 0.22234291063072287 0.29941825054435206 0.13881586829913978 70.500000000000014 30.500000000000004
decision_type=2 2 2 2 2 2 2 2 2 2 2 2 2 2 2 2 2 2 2 2 2 2 2 2 2 2 2 2 2 2
left_child=10 4 3 16 5 28 7 8 12 17 24 -5 13 -4 -7 -16 -3 -9 -12 -20 -10 -11 23 -22 -1 -14 -26 -28 -2 -30
right_child=1 2 6 11 -6 14 -8 9 20 21 18 -13 25 -15 15 -17 -18 -19 19 -21 22 -23 -24 -25 26 -27 27 -29 29 -31
leaf_value=0 0 0.0020839082456249628 0.0020798297212878242 0.0045512198743398536 -0.00019520592391490937 0 0.0041198123745527114 0.0034997022680776425 0.0042404315731360111 0.021115085398684098 0 -0.00063548212356818838 -0.00044864290284983002 -0.00057690031310398489 0.0043217536956071858 0 0.01512815725541124 0.007175499910171238 0.0026050719826799873 0 0.0045379857953544702 0.01235120693504517 -0.00022752327361144129 -0.00044310447934037077 0 -0.00042300635297549895 0 0.016369968436162674 0 -0.00023827545344829563
leaf_weight=4459 326 41 35 40 57 308 100 223 32 80 224 27 40 31 307 70 573 25 304 133 76 35 23 21 1229 33 38 29 179 24
leaf_count=4459 326 41 35 40 57 308 100 223 32 80 224 27 40 31 307 70 573 25 304 133 76 35 23 21 1229 33 38 29 179 24
internal_value=0.0069009 0.0142646 0.021324 0.0288546 0.00629426 0.00741351 0.0145225 0.012156 0.0032646 0.0192837 0.0037952 0.00671642 -0.00827338 0.00454545 0.0117518 0.0167109 0.0312704 0.0127016 0.00983359 0.0135011 0.0138158 0.0334783 0.00833333 0.0139175 0.00310165 -0.019863 0.0060571 0.0201493 0.00179584 -0.0046798
internal_weight=9122 2706 1435 681 1271 1214 754 654 291 363 6416 67 139 66 685 377 614 248 661 437 152 115 120 97 5755 73 1296 67 529 203
internal_count=9122 2706 1435 681 1271 1214 754 654 291 363 6416 67 139 66 685 377 614 248 661 437 152 115 120 97 5755 73 1296 67 529 203
is_linear=0
shrinkage=0.05


Tree=7
num_leaves=31
num_cat=0
split_feature=3 31 26 29 26 19 24 4 3 18 26 6 6 4 28 23 3 3 26 24 31 3 21 20 26 13 12 23 14 26
split_gain=77.3533 36.192 19.1739 16.9842 15.427 11.0237 8.6362 9.46726 8.32315 8.1487 7.76042 11.8843 9.80927 7.43949 10.5444 9.51712 7.2113 6.80856 5.84471 5.78123 5.72625 5.22293 4.8 4.71641 4.66685 10.1246 4.61553 5.70127 4.40069 4.24496
threshold=0.13881586829913978 1.0000000180025095e-35 1006.5000000000001 71.500000000000014 1007.5000000000001 0.22234291063072287 26.500000000000004 23.500000000000004 0.93590108845079589 1005.5000000000001 1009.5000000000001 1009.5000000000001 1007.5000000000001 33.500000000000007 26.500000000000004 1.0000000180025095e-35 0.93590108845079589 0.29941825054435206 1011.5000000000001 30.500000000000004 0.13881586829913978 0.93590108845079589 71.500000000000014 28.500000000000004 1007.5000000000001 70.500000000000014 24.500000000000004 1.0000000180025095e-35 1010.5000000000001 1005.5000000000001
decision_type=2 2 2 2 2 2 2 2 2 2 2 2 2 2 2 2 2 2 2 2 2 2 2 2 2 2 2 2 2 2
left_child=2 13 3 -1 9 8 -5 -8 10 22 11 12 -6 14 -2 18 24 -7 -16 -9 -21 23 -3 29 -17 -26 -12 -28 -10 -11
right_child=1 4 -4 6 5 17 7 19 28 21 26 -13 -14 -15 15 16 -18 -19 -20 20 -22 -23 -24 -25 25 -27 27 -29 -30 -31
leaf_value=0 0 0.010384378049291237 0 -0.00022636168077588083 0.0058814577169014259 0.0022950088502297658 0 0.0078433939687907704 0.007811267457400327 0.022468176940470253 0.0043554513323001628 0.012736311249854216 -0.00052659070368047398 0 0.0036842531108290198 0.015647836697152369 0.015625445456242983 0.014690213971186868 -9.703842302761042e-05 0.0027551465545103604 0.0036880307935178284 0.02846736712557156 -0.001043862063130719 0.0031098844574706922 0.0072130706793912692 -0.00023316816802578983 -0.00042760172667849396 0.0026625550888320503 0.0018104490146544764 0.014116282761972659
leaf_weight=440 354 49 6299 25 74 29 24 286 121 75 32 44 64 54 284 34 41 89 28 145 36 95 21 43 31 29 38 35 23 174
leaf_count=440 354 49 6299 25 74 29 24 286 121 75 32 44 64 54 284 34 41 89 28 145 36 95 21 43 31 29 38 35 23 174
internal_value=0.00624726 0.0153412 0.00391454 0.0105126 0.0217694 0.0161202 0.0166667 0.0181263 0.012413 0.0285558 0.00749129 0.0137363 0.00652174 0.00777778 0.00898876 0.014094 0.0251852 0.029661 0.00929487 0.0197002 0.0127072 0.0313953 0.0128571 0.0280822 0.0175532 0.00916667 -0.00333333 -0.010274 0.0222222 0.0307229
internal_weight=9116 1861 7255 956 1006 549 516 491 431 457 287 182 138 855 801 447 135 118 312 467 181 387 70 292 94 60 105 73 144 249
internal_count=9116 1861 7255 956 1006 549 516 491 431 457 287 182 138 855 801 447 135 118 312 467 181 387 70 292 94 60 105 73 144 249
is_linear=0
shrinkage=0.05


Tree=8
num_leaves=31
num_cat=0
split_feature=31 8 30 27 0 12 0 7 18 26 18 10 23 20 7 8 15 30 12 0 5 0 12 9 20 27 27 2 8 7
split_gain=66.1245 24.9168 24.1007 13.134 10.9588 9.60102 9.34957 9.31347 8.94844 7.28376 5.98322 7.10201 5.89081 7.55433 5.68208 6.1586 7.04591 6.62022 6.43012 5.87785 5.67056 5.51388 5.48066 5.6729 7.49048 5.35692 5.21983 5.10191 6.01424 7.57726
threshold=0.13881586829913978 28.500000000000004 1007.5000000000001 1.0000000180025095e-35 26.500000000000004 26.500000000000004 33.500000000000007 1.011435595095721 1005.5000000000001 1010.5000000000001 1007.5000000000001 1010.5000000000001 0.43773436867695004 27.500000000000004 1.0000000180025095e-35 27.500000000000004 1.0000000180025095e-35 1006.5000000000001 26.500000000000004 30.500000000000004 72.500000000000014 25.500000000000004 25.500000000000004 69.500000000000014 26.500000000000004 0.13881586829913978 0.13881586829913978 1005.5000000000001 28.500000000000004 0.13881586829913978
decision_type=2 2 2 2 2 2 2 2 2 2 2 2 2 2 2 2 2 2 2 2 2 2 2 2 2 2 2 2 2 2
left_child=3 2 6 27 7 -3 8 22 12 14 -4 21 13 -2 15 16 17 -6 -19 -16 -10 -12 23 -5 -25 -26 -7 28 29 -1
right_child=1 5 10 4 9 26 -8 -9 20 -11 11 -13 -14 -15 19 -17 -18 18 -20 -21 -22 -23 -24 24 25 -27 -28 -29 -30 -31
leaf_value=0 0.0072468730693854098 0.0035231540170353234 0 0 0.0067613856588760683 0 -0.00011318084038794041 0.0041773605565950042 0.014343492281541262 0 0 0 0.0041267443910613655 -0.00023827545344829563 0.0034967892542497369 0 0.0043667088760336098 0 0.0032958610950782896 0.019401256456226111 0.0055787822795857044 0.0038935107134282589 0 0.0047655090689659122 0.0046352554698319125 0 0 0 0 0.017437984560066382
leaf_weight=51 40 112 124 33 49 174 38 43 566 65 96 180 23 22 171 146 60 186 101 35 102 248 551 27 35 43 106 5404 257 23
leaf_count=51 40 112 124 33 49 174 38 43 566 65 96 180 23 22 171 146 60 186 101 35 102 248 551 27 35 43 106 5404 257 23
internal_value=0.00548787 0.0139814 0.0170257 0.00335165 0.00744337 0.00280612 0.0228824 0.00300546 0.0241036 0.0114391 0.00987654 0.0122137 0.00882353 0.000806452 0.0128342 0.0101476 0.0133838 0.0105655 0.00766551 0.0199029 0.0260479 0.0164244 0.00159652 0.0105072 0.0161905 0.00833333 -0.00214286 0.00224935 -0.00377644 0.00878378
internal_weight=9111 1831 1439 7280 1545 392 791 732 753 813 648 524 85 62 748 542 396 336 287 206 668 344 689 138 105 78 280 5735 331 74
internal_count=9111 1831 1439 7280 1545 392 791 732 753 813 648 524 85 62 748 542 396 336 287 206 668 344 689 138 105 78 280 5735 331 74
is_linear=0
shrinkage=0.05


Tree=9
num_leaves=31
num_cat=0
split_feature=3 27 8 26 3 29 30 26 17 30 25 19 6 7 12 3 19 27 3 14 3 23 7 26 23 14 17 16 28 8
split_gain=67.7122 77.1292 26.9957 18.1317 13.6267 13.7128 11.746 9.20129 8.33364 9.52927 9.30968 7.47855 7.21004 7.97249 7.14657 8.76239 7.08272 6.88183 6.61235 9.91185 7.42189 6.07404 5.52822 5.39103 5.97335 6.51808 5.34438 5.27964 5.86703 5.8924
threshold=1.0000000180025095e-35 1.0000000180025095e-35 30.500000000000004 1007.5000000000001 0.71754226264466137 72.500000000000014 1006.5000000000001 1007.5000000000001 71.500000000000014 1009.5000000000001 63.500000000000007 1.4468497739944199 1009.5000000000001 1.7316163862908043 27.500000000000004 0.50031594015395309 1.0000000180025095e-35 0.50031594015395309 0.13881586829913978 1008.5000000000001 1.2088489500472754 1.0000000180025095e-35 0.93590108845079589 1010.5000000000001 1.0000000180025095e-35 1009.5000000000001 71.500000000000014 30.500000000000004 28.500000000000004 28.500000000000004
decision_type=2 2 2 2 2 2 2 2 2 2 2 2 2 2 2 2 2 2 2 2 2 2 2 2 2 2 2 2 2 2
left_child=-1 2 4 14 5 8 -7 -6 10 -10 -2 16 13 18 -3 26 23 -18 19 -4 -20 -8 -19 24 25 -5 -16 28 -9 -30
right_child=1 3 12 11 7 6 21 27 9 -11 -12 -13 -14 -15 15 -17 17 22 20 -21 -22 -23 -24 -25 -26 -27 -28 -29 29 -31
leaf_value=0 -0.00022636168077588083 0.01167784817482897 -0.00018473089952720332 -0.00017454243705993197 0.027026829394885002 0.016491966295190775 -0.00018421265554145099 0.0020527426599533842 -0.00018473089952720332 -0.00020511197799304498 0.0015654444213407115 -0.00020992216370953245 0 0.0021829923784011224 -0.00051206722293665791 0.023129869931118444 0.0039428296907013652 0.016172528685706095 -0.00018473089952720332 0 0.0030836557999631455 0.0036301549011400502 0.0027201551379709647 -0.00042285722178407023 0.0078586884544806293 0.0045612459472757763 0.0038242647442584101 0.010222819068306807 0.015613946114830846 0.0041314704069255513
leaf_weight=6357 68 518 29 94 76 82 69 167 153 38 391 26 29 20 44 24 177 69 176 64 24 22 20 43 108 49 38 28 20 33
leaf_count=6357 68 518 29 94 76 82 69 167 153 38 391 26 29 20 44 24 177 69 176 64 24 22 20 43 108 49 38 28 20 33
internal_value=0.00498012 0.0116154 0.00399597 0.0209917 0.00767219 0.00425273 0.016763 0.016358 0.000923077 -0.0078534 0.00457516 0.0146758 -0.00833333 -0.0105431 0.0269231 0.0150943 0.0158929 0.0218045 -0.012628 -0.0016129 -0.01775 0.0043956 0.0331461 0.0105442 0.0133466 0.00664336 0.00731707 0.0116935 0.00909091 0.0235849
internal_weight=9056 2699 1489 1210 1147 823 173 324 650 191 459 586 342 313 624 106 560 266 293 93 200 91 89 294 251 143 82 248 220 53
internal_count=9056 2699 1489 1210 1147 823 173 324 650 191 459 586 342 313 624 106 560 266 293 93 200 91 89 294 251 143 82 248 220 53
is_linear=0
shrinkage=0.05


Tree=10
num_leaves=31
num_cat=0
split_feature=31 3 30 3 9 8 9 3 27 18 14 27 7 21 5 26 26 0 0 6 24 12 31 28 6 30 8 8 7 29
split_gain=58.1888 32.831 27.2389 14.8752 14.7385 13.0039 11.1881 10.574 10.2105 11.2192 9.79936 9.09105 9.02495 8.29442 8.18877 12.32 11.8381 9.61286 8.08857 7.37571 7.01829 6.75454 6.6432 6.01077 5.9645 5.89575 7.41627 10.7997 5.4415 6.21247
threshold=1.0000000180025095e-35 1.0000000180025095e-35 1006.5000000000001 1.2382692000587421 73.500000000000014 27.500000000000004 71.500000000000014 1.011435595095721 0.13881586829913978 1009.5000000000001 1007.5000000000001 0.13881586829913978 1.011435595095721 67.500000000000014 65.500000000000014 1006.5000000000001 1007.5000000000001 25.500000000000004 25.500000000000004 1005.5000000000001 32.500000000000007 27.500000000000004 1.4230357494997927 28.500000000000004 1008.5000000000001 1007.5000000000001 29.500000000000004 31.500000000000004 0.61482027553725704 71.500000000000014
decision_type=2 2 2 2 2 2 2 2 2 2 2 2 2 2 2 2 2 2 2 2 2 2 2 2 2 2 2 2 2 2
left_child=7 6 4 5 13 12 14 -1 25 -10 -9 23 18 24 16 17 21 -16 -4 -8 -19 -2 -17 -12 -3 -7 -27 -28 -15 -30
right_child=1 2 3 -5 -6 8 19 10 9 -11 11 -13 -14 28 15 22 -18 20 -20 -21 -22 -23 -24 -25 -26 26 27 -29 29 -31
leaf_value=0 -0.00023827545344829563 -0.00096165196130190353 6.4491314848749709e-05 0.0112339275917668 -0.0013343355046434636 -0.00089006952979601625 -0.00022636168077588083 0.0097116781148914675 0.0039372129216431878 -0.00058132149560640844 -0.00031824663393669573 0.019859528809911806 -0.00090916557964142413 0.020045708160844319 -0.00022636168077588083 0 0 0.0038967884636297821 0.0030093308012172602 0 -0.00029094944919459524 0 0.0047655090689659122 0.0082708694288868689 0.011640068402883071 0.0037389234393539251 -0.00038264393554189282 0.004560141019321489 0.0098454564016011801 -0.00019137237398638915
leaf_weight=6178 43 20 91 117 21 62 41 54 80 36 68 21 34 404 32 535 120 207 357 209 24 23 38 31 22 79 47 23 41 31
leaf_count=6178 43 20 91 117 21 62 41 54 80 36 68 21 34 404 32 535 120 207 357 209 24 23 38 31 22 79 47 23 41 31
internal_value=0.0042634 0.0103581 0.0154608 0.0102592 0.024397 0.0078492 0.00448113 0.00163728 0.000152905 0.012069 0.0137931 0.00583333 0.0130705 0.0260618 0.00680039 0.00891148 -0.00268817 0.0178707 0.0149554 -0.005 0.0214286 -0.019697 0.0047993 -0.000505051 0.0047619 -0.0063981 -0.00100671 -0.0128571 0.0279412 0.0152778
internal_weight=9089 2737 1465 926 539 809 1272 6352 327 116 174 120 482 518 1022 836 186 263 448 250 231 66 573 99 42 211 149 70 476 72
internal_count=9089 2737 1465 926 539 809 1272 6352 327 116 174 120 482 518 1022 836 186 263 448 250 231 66 573 99 42 211 149 70 476 72
is_linear=0
shrinkage=0.05


Tree=11
num_leaves=31
num_cat=0
split_feature=3 27 3 14 5 28 27 27 8 30 26 8 3 0 7 0 25 16 12 5 23 13 14 7 26 14 2 3 7 7
split_gain=42.303 28.4346 21.8675 13.3223 12.4479 13.2702 10.7008 9.75137 8.66321 8.58736 8.01952 7.97574 23.9664 19.6896 10.9198 9.46272 9.19104 8.99518 8.28683 7.61047 7.37593 7.29969 7.16347 7.10962 7.06086 6.61956 5.90994 5.83411 5.44478 5.37784
threshold=1.011435595095721 0.22234291063072287 1.0000000180025095e-35 1007.5000000000001 69.500000000000014 28.500000000000004 1.4928409688502451 0.50031594015395309 30.500000000000004 1009.5000000000001 1008.5000000000001 27.500000000000004 0.13881586829913978 25.500000000000004 1.0000000180025095e-35 26.500000000000004 71.500000000000014 24.500000000000004 27.500000000000004 73.500000000000014 0.13881586829913978 71.500000000000014 1010.5000000000001 0.43773436867695004 1007.5000000000001 1010.5000000000001 1007.5000000000001 0.22234291063072287 1.0000000180025095e-35 0.22234291063072287
decision_type=2 2 2 2 2 2 2 2 2 2 2 2 2 2 2 2 2 2 2 2 2 2 2 2 2 2 2 2 2 2
left_child=1 11 4 19 20 6 21 8 25 -7 -11 12 14 16 -1 -16 -14 -17 29 -2 -3 24 23 -4 -6 -5 -23 -25 -26 -15
right_child=3 2 22 7 5 9 -8 -9 -10 10 -12 -13 13 18 15 17 -18 -19 -20 -21 -22 26 -24 27 28 -27 -28 -29 -30 -31
leaf_value=0 0.017398535631558472 -0.0001647930547539145 0.0075891536096828697 0.0062916939527272245 0.0045272336155176163 0.0036988351777568458 -0.00023827545344829563 0.018510502666152156 -0.00059270716928553583 -0.00023827545344829563 0.0021608768478035929 0 0.0034393341013686518 0.013958934811488945 0 0 -0.00050871945836020247 0.0074658347636667099 0.0021385023826127822 0.0077428470335698723 0 -0.00022695736940950159 -1.0881640788805436e-05 -0.00066183575891185604 0 -0.00029748238108848039 0 0.0025712703131075695 0.0043969800163836175 0.0029290153688132192
leaf_weight=2722 143 91 444 170 37 227 25 48 46 28 34 3799 95 195 235 25 47 136 42 21 60 26 51 40 66 31 56 95 29 43
leaf_count=2722 143 91 444 170 37 227 25 48 46 28 34 3799 95 195 235 25 47 136 42 21 60 26 51 40 66 31 56 95 29 43
internal_value=0.00427144 0.00348636 0.010275 0.0190632 0.00405007 0.00767045 -0.00104603 0.0127119 0.00870445 0.0148789 -0.0016129 0.00227551 0.00398305 0.0151659 0.00246953 0.0102273 0 0.0195652 0.0228571 0.0304878 -0.00860927 0.00257009 0.0169841 0.0185665 0.00984848 0.0131841 -0.00914634 0.00851852 0.00263158 0.0264706
internal_weight=9107 8648 1309 459 679 528 239 295 247 289 62 7339 3540 422 3118 396 142 161 280 164 151 214 630 579 132 201 82 135 95 238
internal_count=9107 8648 1309 459 679 528 239 295 247 289 62 7339 3540 422 3118 396 142 161 280 164 151 214 630 579 132 201 82 135 95 238
is_linear=0
shrinkage=0.05


Tree=12
num_leaves=31
num_cat=0
split_feature=27 30 29 30 28 27 16 29 6 9 7 8 23 9 15 13 17 25 16 2 27 1 23 28 16 6 27 7 25 20
split_gain=37.3617 18.5798 12.1207 10.3246 9.39423 8.56873 7.71683 7.38285 10.4646 5.86432 7.77162 5.69245 5.59868 5.36914 5.15557 5.30847 4.87271 6.03194 7.78459 9.88356 5.55771 5.20551 5.17347 4.59914 4.38826 7.00968 5.12003 5.28098 4.00739 4.89542
threshold=0.22234291063072287 1007.5000000000001 72.500000000000014 1005.5000000000001 24.500000000000004 0.66750053336617021 29.500000000000004 70.500000000000014 1010.5000000000001 84.500000000000014 1.0000000180025095e-35 27.500000000000004 1.3216669431912595 69.500000000000014 0.29941825054435206 70.500000000000014 62.500000000000007 72.500000000000014 25.500000000000004 1009.5000000000001 1.2382692000587421 70.500000000000014 0.37096867236468872 28.500000000000004 25.500000000000004 1009.5000000000001 0.71754226264466137 0.43773436867695004 72.500000000000014 27.500000000000004
decision_type=2 2 2 2 2 2 2 2 2 2 2 2 2 2 2 2 2 2 2 2 2 2 2 2 2 2 2 2 2 2
left_child=2 4 28 13 -2 7 24 -3 -9 10 12 -12 -5 -4 16 -16 -7 18 23 21 -19 -20 -22 -18 25 -6 -26 -28 -1 -30
right_child=1 5 3 9 6 14 -8 8 -10 -11 11 -13 -14 -15 15 -17 17 20 19 -21 22 -23 -24 -25 26 -27 27 -29 29 -31
leaf_value=0 -0.00033881640830917849 8.2396527376957258e-06 0 0 0.015433029603309903 0.004308898171715936 -0.00023827545344829563 0 -0.00023827545344829563 0 0.0063635375692336245 0 0.0047003822693989124 0.026531316013641129 0.0052126888148340839 1.1913772672414782e-05 0.00035931861852192049 0.0039523661445787298 -0.00019734423176583386 -0.00022310534079753085 0.004451985306665302 0.003503089034629986 -0.00028039459600891231 0.0045391473881900317 0.0081685159047751778 0.0089595374425436528 0.0038883817684383678 -0.00095545006752535862 0 0
leaf_weight=6125 26 146 21 624 133 25 25 211 36 34 99 74 20 109 39 37 66 62 22 76 25 37 24 25 179 48 178 21 49 428
leaf_count=6125 26 146 21 624 133 25 25 211 36 34 99 74 20 109 39 37 66 62 22 76 25 37 24 25 179 48 178 21 49 428
internal_value=0.00386192 0.0112422 0.00245945 0.00764526 0.0178689 0.00637786 0.0191781 0.00101781 -0.00425101 0.00564042 0.00648715 0.015896 0.00395963 0.0207692 0.0111872 0.0230263 0.00870166 0.00712166 0.00243363 -0.00518519 0.0166667 0.0101695 0.00408163 0.0137363 0.0203936 0.0267956 0.017328 0.011809 0.00168888 -0.00272537
internal_weight=9024 1441 7583 981 610 831 584 393 247 851 817 173 644 130 438 76 362 337 226 135 111 59 49 91 559 181 378 199 6602 477
internal_count=9024 1441 7583 981 610 831 584 393 247 851 817 173 644 130 438 76 362 337 226 135 111 59 49 91 559 181 378 199 6602 477
is_linear=0
shrinkage=0.05


Tree=13
num_leaves=31
num_cat=0
split_feature=3 31 8 1 8 12 3 3 27 30 0 15 15 30 11 30 29 7 31 6 31 18 3 24 8 19 16 7 18 30
split_gain=44.7138 18.1146 19.5942 22.3057 17.3291 12.3708 11.1481 9.46953 12.7793 9.2232 8.78316 10.7753 10.4207 8.75879 8.53054 8.46775 8.33392 8.2308 7.67497 7.51641 6.74129 6.67739 6.643 6.475 6.40823 6.38501 5.94829 5.8203 5.79307 5.70015
threshold=0.76519735254682386 1.0000000180025095e-35 27.500000000000004 70.500000000000014 29.500000000000004 23.500000000000004 1.0000000180025095e-35 0.13881586829913978 0.13881586829913978 1006.5000000000001 27.500000000000004 1.0000000180025095e-35 0.85418893014450203 1006.5000000000001 0.13881586829913978 1005.5000000000001 70.500000000000014 0.37096867236468872 0.43773436867695004 1006.5000000000001 0.50031594015395309 1009.5000000000001 0.22234291063072287 31.500000000000004 24.500000000000004 1.0000000180025095e-35 25.500000000000004 0.61482027553725704 1009.5000000000001 1009.5000000000001
decision_type=2 2 2 2 2 2 2 2 2 2 2 2 2 2 2 2 2 2 2 2 2 2 2 2 2 2 2 2 2 2
left_child=1 -1 3 6 13 -5 15 14 9 -9 12 17 24 -2 -4 -3 28 23 21 26 27 22 -8 -12 -7 -20 -16 29 -15 -6
right_child=4 2 7 5 20 10 18 8 -10 -11 11 -13 -14 16 19 -17 -18 -19 25 -21 -22 -23 -24 -25 -26 -27 -28 -29 -30 -31
leaf_value=0 0.014158982593871317 -0.00022665952509269118 0 -0.00023827545344829563 0.0036603467917622201 0.0069781704469172564 0.0063604340324196918 0.0056303628755068925 0.0066053282846242761 -0.00056989762905772408 0.0054881771424611925 0.012655550359642219 -0.0003802684351213617 0.011237702520603934 -7.9568593075625416e-06 0 0.0025894201357453198 -0.0010182543242265643 -0.0016865028539954975 0 0.01555148215695288 0.0014894006526868454 0.0012264815925186062 -0.00021710485640927219 0.0027091918193303836 0.0020682856318318507 -0.00023827545344829563 -0.00061884705849101255 0.0022776730807248361 -0.00028633625332123144
leaf_weight=6126 201 26 320 39 84 41 54 34 85 99 529 167 32 98 24 387 171 21 23 94 23 39 34 50 167 35 46 51 29 34
leaf_count=6126 201 26 320 39 84 41 54 34 85 99 529 167 32 98 24 387 171 21 23 94 23 39 34 50 167 35 46 51 29 34
internal_value=0.00339954 0.00240203 0.00613811 0.00912409 0.0156295 0.0135277 0.0014214 -0.000854701 0.00779817 -0.0018797 0.0145978 0.0172099 0.00625 0.0205411 -0.00475207 -0.0031477 0.0151007 0.0140833 0.0116216 -0.0140244 0.00286458 0.0185039 0.0261364 0.0151986 0.0103365 -0.00344828 -0.0264286 -0.000591716 0.0248031 0.00550847
internal_weight=9163 8472 2346 1644 691 1046 598 702 218 133 1007 767 240 499 484 413 298 600 185 164 192 127 88 579 208 58 70 169 127 118
internal_count=9163 8472 2346 1644 691 1046 598 702 218 133 1007 767 240 499 484 413 298 600 185 164 192 127 88 579 208 58 70 169 127 118
is_linear=0
shrinkage=0.05


Tree=14
num_leaves=31
num_cat=0
split_feature=3 27 10 3 12 26 1 31 15 12 21 18 27 27 18 7 31 2 3 31 10 19 29 19 16 18 29 21 19 1
split_gain=33.2654 35.5139 15.9482 11.549 9.97131 9.94621 20.6677 9.82676 14.5444 9.25584 8.50426 11.0133 10.954 8.36048 7.86395 7.39005 7.18229 6.98031 6.10039 5.57488 5.15903 5.15809 7.26263 5.91037 5.12529 5.1118 6.21969 6.1965 5.57613 5.51011
threshold=0.13881586829913978 1.0000000180025095e-35 1011.5000000000001 1.3479888099339705 27.500000000000004 1006.5000000000001 71.500000000000014 1.0000000180025095e-35 0.29941825054435206 26.500000000000004 73.500000000000014 1009.5000000000001 0.85418893014450203 1.0000000180025095e-35 1006.5000000000001 1.1472764606483909 1.0000000180025095e-35 1006.5000000000001 0.22234291063072287 0.97438160901886006 1006.5000000000001 0.13881586829913978 70.500000000000014 0.71754226264466137 26.500000000000004 1007.5000000000001 62.500000000000007 67.500000000000014 0.13881586829913978 71.500000000000014
decision_type=2 2 2 2 2 2 2 2 2 2 2 2 2 2 2 2 2 2 2 2 2 2 2 2 2 2 2 2 2 2
left_child=5 2 3 4 7 6 19 8 17 16 11 -3 -13 20 -12 -7 -4 -2 -9 21 -8 -1 23 -23 -20 -6 -27 -28 29 -29
right_child=1 10 9 -5 25 15 13 18 -10 -11 14 12 -14 -15 -16 -17 -18 -19 24 -21 -22 22 -24 -25 -26 26 27 28 -30 -31
leaf_value=0 -0.00040185603532672394 0.0090593553555891708 -0.00023891366128481323 0.0075633624357584195 0.0019607643220843568 0 -0.00018811138196340299 0.021482594129878147 0.0074920041470101124 0.0027606333933742986 -0.0012133524291533069 -0.0004337588966456835 0.010815586674577099 0.0032258316497302628 0.0070573163465752391 0 0.00074904633343534234 0.0013205660751591727 0.0084674214936201631 -0.00076495178162310916 0.0032187825132132795 -0.00017187322689546272 0.0039912981574525734 0 -0.00034639573426793659 0.0042568351378821888 -0.00021674279856448994 9.2365449763601661e-06 -0.00061904579918562342 -0.00017497611056509083
leaf_weight=404 93 611 62 119 127 6219 40 42 38 20 21 105 38 263 28 129 21 79 124 23 97 26 76 20 39 27 33 126 40 58
leaf_count=404 93 611 62 119 127 6219 40 42 38 20 21 105 38 263 28 129 21 79 124 23 97 26 76 20 39 27 33 126 40 58
internal_value=0.00322475 0.00921124 0.00314885 0.00518519 0.00308717 0.00170618 0.00648051 0.00855422 0.000952381 -0.015534 0.0171233 0.018435 0.00594406 0.015125 -0.00306122 0.000992439 -0.0228916 -0.00523256 0.0163415 0.000182149 0.00510949 0.00123574 0.0102459 -0.00543478 0.0119632 -0.00243309 -0.00616197 -0.00856031 -0.00558036 -0.00190217
internal_weight=9148 1851 1048 945 826 7297 949 415 210 103 803 754 143 400 49 6348 83 172 205 549 137 526 122 46 163 411 284 257 224 184
internal_count=9148 1851 1048 945 826 7297 949 415 210 103 803 754 143 400 49 6348 83 172 205 549 137 526 122 46 163 411 284 257 224 184
is_linear=0
shrinkage=0.05


Tree=15
num_leaves=31
num_cat=0
split_feature=3 27 8 10 31 21 26 18 27 30 27 20 12 27 18 27 11 2 11 25 15 20 3 2 2 8 2 27 17 25
split_gain=35.0269 33.6927 19.7083 17.6653 12.3105 10.6051 9.57329 11.4091 8.31867 15.2797 9.69739 7.88182 7.68518 6.4303 6.3532 7.03193 6.14792 6.10564 5.46339 8.15905 5.39912 6.26113 11.7361 5.63387 5.06472 5.02518 5.74459 4.86605 5.52655 6.92308
threshold=0.13881586829913978 1.0000000180025095e-35 30.500000000000004 1011.5000000000001 1.0000000180025095e-35 73.500000000000014 1007.5000000000001 1006.5000000000001 0.81068324164968719 1009.5000000000001 1.3479888099339705 30.500000000000004 26.500000000000004 0.93590108845079589 1009.5000000000001 0.85418893014450203 1.0000000180025095e-35 1010.5000000000001 0.13881586829913978 62.500000000000007 1.0000000180025095e-35 27.500000000000004 0.37096867236468872 1010.5000000000001 1008.5000000000001 29.500000000000004 1008.5000000000001 1.1785366391390579 70.500000000000014 72.500000000000014
decision_type=2 2 2 2 2 2 2 2 2 2 2 2 2 2 2 2 2 2 2 2 2 2 2 2 2 2 2 2 2 2
left_child=8 2 3 6 -5 14 7 -2 -1 12 -11 -7 16 -14 -3 -16 17 27 19 -4 23 -22 -23 25 -9 26 -8 -10 -29 -30
right_child=1 5 18 4 -6 11 20 24 9 10 -12 -13 13 -15 15 -17 -18 -19 -20 -21 21 22 -24 -25 -26 -27 -28 28 29 -31
leaf_value=0 0.0030686801192368941 0.0081719928402738569 -0.00042673169240546534 -0.0002163038907357505 0.00143190545742106 0.0043015189776967775 0.0011502752262917465 0.026363404120049699 0.0060939408138617713 1.1155267039876544e-05 -0.00022477831737138335 -0.001145670564388034 -0.00037168941267061786 0.00098833985872520311 0.0017701658797211084 0.0080533522684369425 0.0042806978155146228 -0.00041189912829734391 1.7985350504614707e-05 -0.00015977026171068665 0.0069084597209990873 -0.00041105473659324462 0.0042155043556254337 -0.0003495828701136919 0.0026500318026584425 -0.00019147489560578242 0.0064244504311688037 0.016485074400386709 -0.00057023788410460834 0.0039040423420786973
leaf_weight=6914 80 613 27 65 32 24 151 101 52 60 38 20 28 96 102 39 58 37 53 154 103 36 60 22 33 67 45 22 32 20
leaf_count=6914 80 613 27 65 32 24 151 101 52 60 38 20 28 96 102 39 58 37 53 154 103 36 60 22 33 67 45 22 32 20
internal_value=0.00313589 0.00933224 0.00335277 0.00710692 -0.0128866 0.0170426 0.00988539 0.0186916 0.00159712 0.00823928 -0.00918367 -0.00681818 0.0131884 0.00322581 0.018435 0.00886525 0.0187783 0.0138037 -0.00940171 -0.0135359 0.00599174 0.0123116 0.003125 0.00157895 0.0276119 0.00361217 0.00765306 0.0190476 0.0108108 0.00192308
internal_weight=9184 1827 1029 795 97 798 698 214 7357 443 98 44 345 124 754 141 221 163 234 181 484 199 96 285 134 263 196 126 74 52
internal_count=9184 1827 1029 795 97 798 698 214 7357 443 98 44 345 124 754 141 221 163 234 181 484 199 96 285 134 263 196 126 74 52
is_linear=0
shrinkage=0.05


Tree=16
num_leaves=31
num_cat=0
split_feature=31 30 8 3 28 3 3 9 9 0 12 15 25 8 6 3 30 31 23 27 3 7 11 16 17 10 6 30 25 27
split_gain=30.1398 22.8999 22.2613 17.3621 15.5615 19.3716 11.2162 11.3362 9.74234 9.07403 8.53672 8.37753 8.30114 7.6857 6.92178 6.80421 6.72 6.34399 6.1786 7.2812 12.144 5.90758 7.21996 5.17973 4.97313 5.06455 4.92308 4.60909 4.57874 4.51707
threshold=1.0000000180025095e-35 1007.5000000000001 27.500000000000004 1.1472764606483909 26.500000000000004 0.29941825054435206 0.61482027553725704 76.500000000000014 71.500000000000014 33.500000000000007 23.500000000000004 0.55920745798214477 71.500000000000014 28.500000000000004 1010.5000000000001 0.13881586829913978 1008.5000000000001 0.29941825054435206 0.61482027553725704 0.13881586829913978 1.0000000180025095e-35 0.61482027553725704 0.22234291063072287 27.500000000000004 69.500000000000014 1009.5000000000001 1007.5000000000001 1005.5000000000001 62.500000000000007 0.55920745798214477
decision_type=2 2 2 2 2 2 2 2 2 2 2 2 2 2 2 2 2 2 2 2 2 2 2 2 2 2 2 2 2 2
left_child=3 2 4 -1 5 11 7 8 10 21 14 26 18 -5 -3 -14 -8 -18 19 -4 -21 22 24 -15 28 -26 -2 -11 -6 -22
right_child=1 6 12 13 9 -7 16 -9 -10 27 -12 -13 15 23 -16 -17 17 -19 -20 20 29 -23 -24 -25 25 -27 -28 -29 -30 -31
leaf_value=0 -0.0002705428481967152 0 0 0.018972720322903248 0.00670233221339522 0.015282153730152638 0.019608978090221121 0.0041538593076219229 0 -0.00021327592174988244 0 -0.00062577772139653333 -0.00041529449507342369 0.00068000297645648281 -0.00022636168077588083 -0.00045964711179211066 -0.00080912589397429179 0.012683280328580931 -0.00097279755972627115 -0.00033624258313342002 0.018855826487946134 0.0055231576776899154 0.021769775403081556 0.015251385205133184 0.011757041902983933 0.0025246473728818947 0.0031960193221844627 9.7602961957454697e-06 0 0.0061332232088543402
leaf_weight=6337 26 22 185 67 20 54 70 21 302 20 929 43 21 63 23 38 48 57 23 24 38 40 85 20 433 63 26 24 47 22
leaf_count=6337 26 22 185 67 20 54 70 21 302 20 929 43 21 63 23 38 48 57 23 24 38 40 85 20 433 63 26 24 47 22
internal_value=0.00303558 0.00747041 0.0125 0.00118699 0.0167423 0.00201342 0.00326087 0.00165767 0.00105799 0.0197404 0.00349076 -0.0115789 0.00185185 0.018 -0.0177778 -0.0152542 0.0151429 0.00714286 0.00530822 0.00743494 0.0196429 0.0211483 0.0222994 0.00783133 0.0202487 0.0219758 0.00192308 -0.00227273 0.00746269 0.0316667
internal_weight=9191 2704 1232 6487 881 149 1472 1297 1276 732 974 95 351 150 45 59 175 105 292 269 84 688 648 83 563 496 52 44 67 60
internal_count=9191 2704 1232 6487 881 149 1472 1297 1276 732 974 95 351 150 45 59 175 105 292 269 84 688 648 83 563 496 52 44 67 60
is_linear=0
shrinkage=0.05


Tree=17
num_leaves=31
num_cat=0
split_feature=31 3 24 8 30 18 8 3 8 26 5 19 26 18 6 26 0 7 31 11 19 9 11 14 29 8 7 17 30 4
split_gain=26.2393 22.1115 17.6555 14.2198 12.0042 10.9675 10.3502 10.3153 10.2273 7.46524 14.3535 6.72409 5.53504 8.27475 5.11719 6.15417 5.45233 6.13668 5.71713 5.36981 4.9991 4.72739 10.2161 7.31209 8.1257 10.1385 6.85887 8.76731 6.35817 5.78566
threshold=1.0000000180025095e-35 0.13881586829913978 26.500000000000004 26.500000000000004 1008.5000000000001 1005.5000000000001 24.500000000000004 1.2088489500472754 23.500000000000004 1006.5000000000001 65.500000000000014 1.1150072000796054 1010.5000000000001 1007.5000000000001 1007.5000000000001 1009.5000000000001 25.500000000000004 1.2088489500472754 1.0816615128302691 0.29941825054435206 0.29941825054435206 70.500000000000014 0.22234291063072287 1006.5000000000001 71.500000000000014 27.500000000000004 1.0000000180025095e-35 71.500000000000014 1008.5000000000001 27.500000000000004
decision_type=2 2 2 2 2 2 2 2 2 2 2 2 2 2 2 2 2 2 2 2 2 2 2 2 2 2 2 2 2 2
left_child=7 2 6 4 -3 -5 8 -1 -2 10 -4 20 13 -9 15 19 -16 18 -18 -7 -8 22 -11 -23 29 26 27 -26 -24 -25
right_child=1 3 9 5 -6 14 11 12 -10 21 -12 -13 -14 -15 16 -17 17 -19 -20 -21 -22 23 28 24 25 -27 -28 -29 -30 -31
leaf_value=0 -1.7965930926096025e-05 0.017296770062082866 -0.00021660138458013536 -0.0022577082628758753 8.7658292136614385e-05 0.0053100348082411129 0 0.0016025748043167532 0.0064296540982741249 0 0.0028356891730722564 -0.00020698656737846893 -0.00065761268882630613 0.018019870445804081 -0.0020079243730512595 -0.00018587000067337217 0.0017964722291986758 -0.00139681336575339 0.021539701729967442 0.011675098687905568 0 -0.00034012285647646738 0.01952217221767609 0 -0.00051534593560117494 -0.00022636168077588083 0.012694614814975398 0.0036770036904183387 0.0038912159127611739 0.0043292302646821433
leaf_weight=6264 33 362 48 40 69 139 358 44 66 465 385 27 23 55 20 26 203 22 36 65 45 23 20 39 34 52 28 62 32 32
leaf_count=6264 33 362 48 40 69 139 358 44 66 465 385 27 23 55 20 26 203 22 36 65 45 23 20 39 34 52 28 62 32 32
internal_value=0.00292859 0.00703039 0.00365923 0.0130346 0.0198376 0.00771325 -0.00396975 0.00117444 0.0106061 0.00696721 0.0122402 -0.00732558 0.0155738 0.0207071 0.00968689 0.0152174 0.00516014 0.00708812 0.00941423 0.0181373 -0.0057072 0.00406607 0.00686654 -0.0012963 0.00121457 -0.00454545 0.00322581 -0.003125 0.0278846 0.015493
internal_weight=9117 2731 1749 982 431 551 529 6386 99 1220 433 430 122 99 511 230 281 261 239 204 403 787 517 270 247 176 124 96 52 71
internal_count=9117 2731 1749 982 431 551 529 6386 99 1220 433 430 122 99 511 230 281 261 239 204 403 787 517 270 247 176 124 96 52 71
is_linear=0
shrinkage=0.05


Tree=18
num_leaves=31
num_cat=0
split_feature=31 12 3 26 28 30 14 25 4 3 14 3 27 29 3 25 31 14 8 10 11 22 6 4 29 30 10 22 11 25
split_gain=22.3963 19.5605 18.9437 15.4652 10.6071 12.2724 10.4438 9.58743 7.78494 7.61354 7.98811 7.48839 7.39781 6.48021 7.00045 9.67589 8.9804 7.14022 6.33513 6.26785 5.42563 6.2361 5.30995 9.96383 5.18404 10.4649 6.11823 6.01758 4.62715 4.50277
threshold=0.29941825054435206 26.500000000000004 0.29941825054435206 1007.5000000000001 28.500000000000004 1007.5000000000001 1011.5000000000001 63.500000000000007 31.500000000000004 1.3479888099339705 1010.5000000000001 0.89587973461402759 1.2382692000587421 72.500000000000014 1.0000000180025095e-35 74.500000000000014 0.22234291063072287 1006.5000000000001 28.500000000000004 1009.5000000000001 0.43773436867695004 1007.5000000000001 1009.5000000000001 28.500000000000004 71.500000000000014 1006.5000000000001 1009.5000000000001 1011.5000000000001 0.22234291063072287 70.500000000000014
decision_type=2 2 2 2 2 2 2 2 2 2 2 2 2 2 2 2 2 2 2 2 2 2 2 2 2 2 2 2 2 2
left_child=9 3 4 -2 5 -3 7 -5 -4 13 28 12 20 -1 16 17 -15 -16 -13 -6 21 -9 -19 -24 26 -26 -23 -27 -11 -7
right_child=1 2 8 6 19 29 -8 11 -10 10 -12 18 -14 14 15 -17 -18 22 -20 -21 -22 24 23 -25 25 27 -28 -29 -30 -31
leaf_value=0 0.012535452484698676 -0.00068561741201415881 0.014526676762391702 -0.00024645770792584924 0 0 -0.00021504359673708679 -0.00023934000681285691 -0.0023085026178868958 0.0025288865379691642 -0.0011655867651381492 0.019002785701962868 -0.00088913957544226692 0 0.033490892012278707 -0.00039651424539959761 0.0036944831189141061 0.0019248114877215207 0.0029385789083698423 0.0067879403542003341 0.026211334609688094 0 0.0010977636004904964 0.019312842723020775 0.027207687823190753 -0.0010824707580026911 0.015416271708601024 0.0085312151728353953 0.025168635322312418 -0.00019637488134230212
leaf_weight=6595 380 62 121 20 83 110 23 22 21 103 25 41 21 724 34 53 20 168 22 30 23 33 74 43 20 65 71 26 38 61
leaf_count=6595 380 62 121 20 83 110 23 22 21 103 25 41 21 724 34 53 20 168 22 30 23 33 74 43 20 65 71 26 38 61
internal_value=0.00244196 0.00864542 0.000819672 0.0136245 -0.00549133 -0.011588 0.00658915 0.00865385 0.0161972 0.0014536 0.0120482 0.0106105 0.00711744 0.00122552 0.0047491 0.0103495 0.00194892 0.0136364 0.0261905 0.00707965 0.00942308 0.007173 0.0110526 0.0192308 0.00976744 0.00225225 0.0177885 -0.00494505 0.0166667 -0.00467836
internal_weight=9132 1255 488 767 346 233 387 364 142 7877 166 344 281 7711 1116 372 744 319 63 113 260 237 285 117 215 111 104 91 141 171
internal_count=9132 1255 488 767 346 233 387 364 142 7877 166 344 281 7711 1116 372 744 319 63 113 260 237 285 117 215 111 104 91 141 171
is_linear=0
shrinkage=0.05


Tree=19
num_leaves=31
num_cat=0
split_feature=30 8 29 30 27 28 30 31 7 7 0 15 21 27 0 15 16 14 31 21 1 8 8 5 31 7 27 14 7 19
split_gain=19.032 27.7702 11.1258 6.94642 5.47223 12.4887 12.7304 9.2175 5.60968 6.11744 6.60256 7.62848 6.5 6.44643 5.84055 7.33333 6.56544 7.15776 8.18752 6.84715 5.42436 6.0833 5.41564 5.3778 6.50368 6.53403 5.85476 5.59805 5.21801 5.10792
threshold=1006.5000000000001 28.500000000000004 71.500000000000014 1005.5000000000001 0.22234291063072287 33.500000000000007 1009.5000000000001 1.2088489500472754 1.5789255615152133 1.1785366391390579 25.500000000000004 0.22234291063072287 70.500000000000014 0.71754226264466137 30.500000000000004 1.0000000180025095e-35 26.500000000000004 1008.5000000000001 1.0000000180025095e-35 72.500000000000014 74.500000000000014 23.500000000000004 25.500000000000004 72.500000000000014 0.66750053336617021 0.85418893014450203 0.13881586829913978 1009.5000000000001 0.29941825054435206 0.37096867236468872
decision_type=2 2 2 2 2 2 2 2 2 2 2 2 2 2 2 2 2 2 2 2 2 2 2 2 2 2 2 2 2 2
left_child=1 2 -1 -3 7 6 8 23 9 10 11 13 -13 -6 16 -16 -12 18 -18 -20 21 -4 -19 26 25 -25 -2 -27 -5 -8
right_child=4 3 20 28 5 -7 29 -9 -10 -11 14 12 -14 -15 15 -17 17 22 19 -21 -22 -23 -24 24 -26 27 -28 -29 -30 -31
leaf_value=0 0 -0.00019520592391490937 0 0 5.4679429167951471e-06 -0.00026096007951024737 0 0.0059782113162950706 0.020436134902528564 -0.0018374968797602428 0.0043718561250112708 -0.0002386874360851804 0.0025248989499355619 -0.00051463968107297645 -0.00040158226129231124 0.0083833562186300392 -0.00020153189346301366 -0.00046025933571329329 9.8160111540653675e-05 0.00451592671918248 -0.00023827545344829563 0.012088912339273672 0.0036934750284329681 0 -0.00084076437025541468 -0.00020764446761428287 0 0 -0.0002735882582140605 -0.00020132269482595177
leaf_weight=411 5368 126 25 163 28 33 238 85 20 24 260 25 40 28 77 21 50 20 74 20 39 490 74 863 48 58 272 41 48 50
leaf_count=411 5368 126 25 163 28 33 238 85 20 24 260 25 40 28 77 21 50 20 74 20 39 490 74 863 48 58 272 41 48 50
internal_value=0.00216032 0.0077573 0.0120725 -0.00459941 0.00122809 0.00452865 0.00548141 0.000697847 0.00886991 0.00816464 0.00899582 -0.00165289 0.01 -0.0151786 0.0111577 0 0.0133534 0.00735294 0.000347222 0.00904255 0.0166968 0.0180583 0.0180851 0.000488722 -0.00287129 -0.00197505 0.00109043 -0.0141414 0.000947867 -0.00347222
internal_weight=9119 1302 965 337 7817 1082 1049 6735 761 741 717 121 65 56 596 98 498 238 144 94 554 515 94 6650 1010 962 5640 99 211 288
internal_count=9119 1302 965 337 7817 1082 1049 6735 761 741 717 121 65 56 596 98 498 238 144 94 554 515 94 6650 1010 962 5640 99 211 288
is_linear=0
shrinkage=0.05


Tree=20
num_leaves=31
num_cat=0
split_feature=30 31 4 13 31 0 23 4 12 30 15 16 31 31 28 7 23 28 28 30 31 0 28 0 8 25 31 2 28 31
split_gain=24.7864 14.1657 7.17623 8.59217 7.87045 5.19311 6.83689 5.20831 7.11509 11.1401 9.02243 10.5097 7.57438 7.744 7.32602 6.19801 5.76055 5.27493 8.45179 7.60512 7.00741 5.49398 5.09428 5.59786 4.93094 4.73057 8.85942 7.5643 4.66302 5.16157
threshold=1006.5000000000001 0.22234291063072287 30.500000000000004 71.500000000000014 0.93590108845079589 25.500000000000004 1.2668484069787165 30.500000000000004 26.500000000000004 1009.5000000000001 1.0000000180025095e-35 24.500000000000004 0.13881586829913978 0.50031594015395309 28.500000000000004 1.2088489500472754 1.0000000180025095e-35 33.500000000000007 30.500000000000004 1008.5000000000001 0.97438160901886006 29.500000000000004 27.500000000000004 28.500000000000004 26.500000000000004 70.500000000000014 0.43773436867695004 1008.5000000000001 27.500000000000004 1.0000000180025095e-35
decision_type=2 2 2 2 2 2 2 2 2 2 2 2 2 2 2 2 2 2 2 2 2 2 2 2 2 2 2 2 2 2
left_child=1 -1 3 -3 -4 -2 7 8 9 10 12 -12 -7 -14 -15 -9 -11 18 20 21 25 -20 -13 -24 -23 26 -10 -28 29 -27
right_child=5 2 4 -5 -6 6 -8 15 17 16 11 22 13 14 -16 -17 -18 -19 19 -21 -22 24 23 -25 -26 28 27 -29 -30 -31
leaf_value=0 0 0.014322641183145586 -0.00054837220351690991 -7.2677763218745306e-05 0.030422485695300094 0 0.0029845032671119913 0 0 0 -0.00026840708010804045 0.021448733097086899 0.0046664284693417931 0.015667670505395859 -0.00095425677612681517 -0.0002054799199104309 -0.00013025359913399937 0 0.0042029470740768621 0 -0.00025679914772638548 -0.00046152467011530829 0.002535001236262048 0.008670837339100847 0.0011460500271634956 0 0.014641539756833877 0 0 -0.00018485679160429785
leaf_weight=811 2145 390 52 53 24 496 137 1456 1228 390 36 29 125 57 68 27 81 141 57 199 47 32 61 41 39 501 24 38 226 111
leaf_count=811 2145 390 52 53 24 496 137 1456 1228 390 36 29 125 57 68 27 81 141 57 199 47 32 61 41 39 501 24 38 226 111
internal_value=0.00275159 0.00906015 0.0155106 0.0179458 0.00131579 0.00167479 0.00247034 0.00219601 0.00312888 0.00603324 0.0092552 0.0197605 0.00690349 0.014 0.0052 -0.000337154 -0.000212314 0.00160802 0.00213829 0.00963303 0.00101149 0.0191406 0.0263359 0.0210784 0.00985915 0.00143327 0.00333333 0.0217742 -0.00149165 -0.00375817
internal_weight=9122 1330 519 443 76 7792 5647 5510 4027 1384 913 167 746 250 125 1483 471 2643 2502 327 2175 128 131 102 71 2128 1290 62 838 612
internal_count=9122 1330 519 443 76 7792 5647 5510 4027 1384 913 167 746 250 125 1483 471 2643 2502 327 2175 128 131 102 71 2128 1290 62 838 612
is_linear=0
shrinkage=0.05


Tree=21
num_leaves=31
num_cat=0
split_feature=3 8 0 8 17 30 31 3 31 27 12 1 31 7 9 23 23 7 14 14 23 27 28 3 30 31 16 27 29 3
split_gain=19.5087 14.8028 11.8435 23.3293 16.8516 10.5536 9.31825 9.25256 9.31727 8.85672 9.40897 8.28186 8.95302 7.81457 7.56923 7.54681 7.40981 7.3083 7.02407 6.9096 6.74854 6.23568 7.39033 6.14822 6.79697 5.93991 5.89031 5.75567 10.8446 6.54405
threshold=0.93590108845079589 28.500000000000004 26.500000000000004 27.500000000000004 69.500000000000014 1005.5000000000001 0.22234291063072287 1.0000000180025095e-35 0.43773436867695004 0.29941825054435206 24.500000000000004 70.500000000000014 0.22234291063072287 1.0000000180025095e-35 70.500000000000014 0.29941825054435206 1.3216669431912595 1.0000000180025095e-35 1008.5000000000001 1007.5000000000001 0.71754226264466137 0.22234291063072287 28.500000000000004 0.13881586829913978 1008.5000000000001 0.66750053336617021 25.500000000000004 0.13881586829913978 69.500000000000014 0.37096867236468872
decision_type=2 2 2 2 2 2 2 2 2 2 2 2 2 2 2 2 2 2 2 2 2 2 2 2 2 2 2 2 2 2
left_child=2 11 6 4 -4 -6 -1 8 -5 10 17 -2 26 16 25 -11 20 -9 -10 -3 23 22 -21 -7 -25 -15 -13 -8 -29 -30
right_child=1 19 3 7 5 13 27 9 18 15 -12 12 -14 14 -16 -17 -18 -19 -20 21 -22 -23 -24 24 -26 -27 -28 28 29 -31
leaf_value=0 0.017118876923513878 0.014391948116970078 0 0 0.01523290542826343 0 -0.00019467553567141296 -0.00028295983297475612 -0.00046079128498649371 0.0038628406735176923 -6.0874975635163567e-05 -0.0011333350310841802 0.016761616955759815 0.011451966555488824 0.0033767179215902655 -0.0011498997810786866 0.0056023863772404758 -5.5511343466007389e-05 0 -0.00057165872277414181 -0.0001647930547539145 0.014733160107471166 0.0018630247043064639 0.010195819954585596 -0.0006765507990734728 0.0016175992131164782 0.0069120890641741102 -0.00041811755192351548 -5.4334074066876369e-05 0.010220995729862972
leaf_weight=3125 93 51 941 2017 214 697 169 33 29 61 600 62 97 96 130 38 34 36 47 94 71 29 55 83 21 38 33 21 134 25
leaf_count=3125 93 51 941 2017 214 697 169 33 29 61 600 62 97 96 130 38 34 36 47 94 71 29 55 83 21 38 33 21 134 25
internal_value=0.00240353 0.0118677 0.0018418 0.00335519 0.00707527 0.0105853 -0.000417386 0.000332052 0.00205447 -0.00436198 -0.0064275 0.0194737 0.0135417 0.00871795 0.0162879 0.00959596 0.00651214 -0.023913 -0.0151316 0.00240175 0.00561927 -0.00224719 -0.00637584 0.00692884 0.0182692 0.0246269 0.00263158 -0.00816619 -0.00194444 0.00251572
internal_weight=9174 514 8660 5186 2325 1384 3474 2861 2093 768 669 285 192 1170 264 99 906 69 76 229 872 178 149 801 104 134 95 349 180 159
internal_count=9174 514 8660 5186 2325 1384 3474 2861 2093 768 669 285 192 1170 264 99 906 69 76 229 872 178 149 801 104 134 95 349 180 159
is_linear=0
shrinkage=0.05


Tree=22
num_leaves=31
num_cat=0
split_feature=30 3 8 17 25 13 26 27 18 12 0 18 7 8 19 30 14 23 4 3 6 30 7 27 27 31 27 23 26 18
split_gain=12.1924 17.9793 18.831 9.39117 8.96013 6.29187 8.84091 6.10952 6.06242 6.89838 10.4752 5.55059 7.68611 5.39374 5.35786 8.66195 7.53246 6.66451 6.57738 5.07266 7.03348 4.81512 6.54615 4.81333 4.70556 4.47148 9.7576 4.28587 13.3568 7.31243
threshold=1006.5000000000001 1.0000000180025095e-35 28.500000000000004 73.500000000000014 65.500000000000014 71.500000000000014 1005.5000000000001 1.2946333325561219 1005.5000000000001 27.500000000000004 32.500000000000007 1007.5000000000001 1.1472764606483909 28.500000000000004 0.22234291063072287 1009.5000000000001 1008.5000000000001 0.43773436867695004 25.500000000000004 1.1150072000796054 1007.5000000000001 1005.5000000000001 0.29941825054435206 1.0000000180025095e-35 0.43773436867695004 0.37096867236468872 0.55920745798214477 0.71754226264466137 1009.5000000000001 1009.5000000000001
decision_type=2 2 2 2 2 2 2 2 2 2 2 2 2 2 2 2 2 2 2 2 2 2 2 2 2 2 2 2 2 2
left_child=1 5 3 8 -4 7 -7 -1 -3 10 19 12 13 25 27 16 -16 -17 24 20 -10 -6 -23 -12 -18 -2 -27 -13 -29 -30
right_child=11 2 4 -5 21 6 -8 -9 9 -11 23 14 -14 -15 15 17 18 -19 -20 -21 -22 22 -24 -25 -26 26 -28 28 29 -31
leaf_value=0 0 0.0024979286851998829 -0.00041576015659657923 -0.0014180039699186479 -0.00037773390631042623 -0.00019956490787262869 0 0.0029453760603721018 0.0048616513680180481 0.010344036925920605 -0.0009298135509158194 0 -0.00051143159387854326 0 0 0 -0.00018251275763069903 -8.5439525663094846e-06 0.0077092014721886863 0.022295590916847258 0.021936376885386535 0.0043749006911148114 -0.00095519538135572677 0.015777896083547769 0.0022638510425372171 -0.00044017232500976467 0.0035482246914449751 0 0 -0.0003260315101167203
leaf_weight=369 1197 87 25 25 67 33 118 20 85 48 30 5353 75 288 163 181 28 74 111 73 223 66 32 20 35 66 29 149 24 35
leaf_count=369 1197 87 25 25 67 33 118 20 85 48 30 5353 75 288 163 181 28 74 111 73 223 66 32 20 35 66 29 149 24 35
internal_value=0.00229488 0.00673732 0.0115877 0.0159898 -0.00210526 -0.000277778 -0.0089404 0.00308483 0.0173145 0.0195198 0.0175174 0.00154329 -0.00102719 -0.00028481 0.00223468 0.00675676 0.0120178 -0.000196078 0.0192529 0.0203412 0.0175325 0.00212121 0.00918367 -0.004 0.00634921 -0.00166409 -0.0121053 0.00175328 -0.00528846 -0.0254237
internal_weight=9129 1321 781 591 190 540 151 389 566 479 431 7808 1655 1580 6153 592 337 255 174 381 308 165 98 50 63 1292 95 5561 208 59
internal_count=9129 1321 781 591 190 540 151 389 566 479 431 7808 1655 1580 6153 592 337 255 174 381 308 165 98 50 63 1292 95 5561 208 59
is_linear=0
shrinkage=0.05


Tree=23
num_leaves=31
num_cat=0
split_feature=3 10 31 8 0 28 8 20 8 27 2 23 24 27 3 20 23 8 7 15 25 21 31 11 11 3 24 0 11 26
split_gain=15.405 7.54657 6.75 12.2789 13.506 10.0781 12.9556 12.3272 11.5477 11.5115 9.8777 7.774 7.60237 7.29276 7.83592 9.3422 7.51623 6.73092 7.07755 6.71312 6.7038 6.49713 6.32877 6.16223 6.0314 5.82437 11.9649 10.232 15.0942 7.11844
threshold=1.1785366391390579 1011.5000000000001 1.0000000180025095e-35 29.500000000000004 26.500000000000004 31.500000000000004 26.500000000000004 24.500000000000004 27.500000000000004 0.22234291063072287 1010.5000000000001 1.5368094061055315 25.500000000000004 1.0000000180025095e-35 1.0000000180025095e-35 30.500000000000004 1.5150668501356621 28.500000000000004 1.1472764606483909 1.0000000180025095e-35 64.500000000000014 64.500000000000014 0.29941825054435206 1.1150072000796054 0.22234291063072287 0.13881586829913978 29.500000000000004 27.500000000000004 0.13881586829913978 1011.5000000000001
decision_type=2 2 2 2 2 2 2 2 2 2 2 2 2 2 2 2 2 2 2 2 2 2 2 2 2 2 2 2 2 2
left_child=2 17 13 4 11 7 9 -6 21 -7 -11 -4 -10 16 20 -16 25 22 -19 -13 -15 -9 -2 24 -5 -1 27 29 -29 -27
right_child=1 -3 3 23 5 6 -8 8 12 10 -12 19 -14 14 15 -17 -18 18 -20 -21 -22 -23 -24 -25 -26 26 -28 28 -30 -31
leaf_value=0 0.0079621394034160835 -0.0011793922515133811 0 0 -0.00023508353987996286 -0.00032446569430466152 0.0013628622261992757 -7.4612581677799782e-05 0.0046185687996171459 0.0065135986993685559 -0.00053789797815934884 -7.4398982863642052e-05 0 0 0.0019695619309505058 -0.0003787928999589873 -0.00014922516335559956 0.0044809369077284432 -0.0023925968414231294 0.0028352781037563916 0 0.0049900285039173658 0.025032640735592571 2.2194234481919248e-05 -0.00020908671040087941 3.1080043479138063e-05 0.0045469051357384573 -0.00017957760809722448 0.0082588778045497146 -0.000142000071300382
leaf_weight=4670 104 25 635 241 84 131 172 58 31 72 35 20 211 97 229 47 26 120 27 21 634 704 84 30 54 223 55 195 40 21
leaf_count=4670 104 25 635 241 84 131 172 58 31 72 35 20 211 97 229 47 26 120 27 21 634 704 84 30 54 223 55 195 40 21
internal_value=0.00236368 0.0125 0.00194597 0.00414166 0.00549678 0.00814419 0.00146341 0.0106618 0.0122012 -0.00609244 0.00607477 -0.000369822 0.00268595 0.00106622 -0.00283019 0.00434783 0.00181644 0.0144776 0.00646259 0.0207317 -0.00554036 0.0152231 0.0207447 -0.00492308 -0.00711864 0.00195042 -0.00299625 -0.00553236 -0.0129787 0.00163934
internal_weight=9096 360 8736 2499 2174 1498 410 1088 1004 238 107 676 242 6237 1007 276 5230 335 147 41 731 762 188 325 295 5204 534 479 235 244
internal_count=9096 360 8736 2499 2174 1498 410 1088 1004 238 107 676 242 6237 1007 276 5230 335 147 41 731 762 188 325 295 5204 534 479 235 244
is_linear=0
shrinkage=0.05


Tree=24
num_leaves=31
num_cat=0
split_feature=30 3 8 18 25 2 19 3 7 22 19 9 22 14 2 8 2 24 24 22 3 18 7 30 3 27 7 15 21 12
split_gain=14.6574 22.5695 18.2561 12.2603 9.44141 7.38609 8.19394 6.11977 6.8393 5.16607 4.98814 4.96612 6.06112 8.37628 5.98596 5.87755 5.39237 5.6091 4.64127 7.64672 4.40558 4.28947 5.90986 4.89263 15.6117 8.27108 6.7767 6.81687 5.87232 5.7026
threshold=1006.5000000000001 0.13881586829913978 28.500000000000004 1006.5000000000001 65.500000000000014 1006.5000000000001 0.71754226264466137 1.3736354571277458 1.0000000180025095e-35 1007.5000000000001 1.0000000180025095e-35 71.500000000000014 1006.5000000000001 1004.5000000000001 1004.5000000000001 23.500000000000004 1009.5000000000001 29.500000000000004 26.500000000000004 1007.5000000000001 1.0000000180025095e-35 1007.5000000000001 1.1472764606483909 1009.5000000000001 0.22234291063072287 1.5368094061055315 1.1472764606483909 1.0000000180025095e-35 69.500000000000014 26.500000000000004
decision_type=2 2 2 2 2 2 2 2 2 2 2 2 2 2 2 2 2 2 2 2 2 2 2 2 2 2 2 2 2 2
left_child=1 11 3 5 -4 6 -3 21 -9 -5 -10 15 14 -14 -13 -1 17 18 19 -17 -19 22 -2 25 -25 28 -26 -28 -23 -27
right_child=7 2 4 9 -6 -7 -8 8 10 -11 -12 12 13 -15 -16 16 -18 20 -20 -21 -22 23 -24 24 26 29 27 -29 -30 -31
leaf_value=0 0 0.0043589123917187958 -0.00045929726154911695 0.022203711101684943 0.0023614757732154682 -0.0018306893523439595 0.0069361105165915253 -0.00085545136468669991 0.0034479774209483687 0.021404279584345855 0.018179913955541555 4.702784549085075e-06 8.9996152214716434e-06 0 -0.00019550167451679945 -0.00043911699292415921 -0.00017900269807096886 0 9.7602961957454697e-06 0 -0.00059179857814313063 0 -0.00046536853605188785 0 -0.00024058314252475117 0.0034601280158713167 0.0083945606894937283 -0.00045958821319710654 0 0.00041216925152483058
leaf_weight=31 1556 98 21 64 140 22 22 36 74 194 51 20 36 65 47 24 34 119 291 59 48 1007 60 2916 192 49 21 22 1795 34
leaf_count=31 1556 98 21 64 140 22 22 36 74 194 51 20 36 65 47 24 34 119 291 59 48 1007 60 2916 192 49 21 22 1795 34
internal_value=0.00204963 0.00689139 0.0145276 0.02025 0.000310559 0.0084507 0.0133333 0.00122232 0.0108696 0.0267442 0.0164 0.00135659 -0.00625 0.00148515 -0.0179104 0.00346535 0.0046087 0.00582255 0.0092246 -0.00120482 -0.00179641 0.00101934 -0.00126856 0.00163188 0.000269756 0.00311958 -0.0121277 0.00581395 0.00265882 0.0186747
internal_weight=9148 1335 561 400 161 142 120 7813 161 258 125 774 168 101 67 606 575 541 374 83 167 7652 1616 6036 3151 2885 235 43 2802 83
internal_count=9148 1335 561 400 161 142 120 7813 161 258 125 774 168 101 67 606 575 541 374 83 167 7652 1616 6036 3151 2885 235 43 2802 83
is_linear=0
shrinkage=0.05


Tree=25
num_leaves=31
num_cat=0
split_feature=3 20 8 3 30 7 28 5 12 20 28 14 18 23 26 23 11 22 29 7 23 14 1 30 3 26 4 3 8 29
split_gain=11.157 7.62661 10.2038 21.2259 15.3393 9.52015 7.36639 8.00363 8.78892 8.05886 6.38052 6.17914 6.06645 5.58655 6.29092 6.96915 6.19363 5.44835 5.09973 6.72716 7.703 6.4894 6.02107 5.55669 5.02913 4.83782 4.83312 5.73044 7.3007 5.3249
threshold=2.1341489346727696 29.500000000000004 28.500000000000004 1.0000000180025095e-35 1006.5000000000001 1.3479888099339705 33.500000000000007 72.500000000000014 24.500000000000004 27.500000000000004 33.500000000000007 1008.5000000000001 1006.5000000000001 1.1785366391390579 1006.5000000000001 0.89587973461402759 0.22234291063072287 1009.5000000000001 70.500000000000014 1.0000000180025095e-35 0.13881586829913978 1011.5000000000001 71.500000000000014 1006.5000000000001 0.93590108845079589 1006.5000000000001 29.500000000000004 1.0000000180025095e-35 25.500000000000004 63.500000000000007
decision_type=2 2 2 2 2 2 2 2 2 2 2 2 2 2 2 2 2 2 2 2 2 2 2 2 2 2 2 2 2 2
left_child=1 2 3 13 12 10 7 9 -9 11 26 24 -5 14 15 -1 -15 -10 -16 20 23 -22 -21 -20 -6 -13 27 -3 -29 -30
right_child=-2 5 -4 4 6 -7 -8 8 17 -11 -12 25 -14 16 18 -17 -18 -19 19 22 21 -23 -24 -25 -26 -27 -28 28 29 -31
leaf_value=8.1436805836995535e-06 0.018655527731664883 0 0 0.0033942284160529551 0.0075903486909016998 -0.00099749823677909967 -0.00089855283751823852 -0.00029580481537380194 -7.5228472285277393e-05 -6.6630259695087826e-05 0 -0.0028164295848481765 0.017357644841635905 -0.00011395202362816336 0 0.0049034851664573609 0.0023410819507716368 0.0095425378150398796 -0.00011438200039132062 0 -0.00013025359913399937 -0.00013025359913399937 0.0089412387054412772 0 0.015342786950152319 0.0024926491677998617 0 -0.00036521420077374208 0.0038296794455410089 -0.00019820250086726159
leaf_weight=376 35 1933 2880 157 141 20 20 62 39 223 228 25 396 108 1003 21 28 22 50 51 135 26 55 471 35 304 45 30 36 200
leaf_count=376 35 1933 2880 157 141 20 20 62 39 223 228 25 396 108 1003 21 28 22 50 51 135 26 55 471 35 304 45 30 36 200
internal_value=0.00182414 0.00171601 0.0026026 0.00432231 0.00912921 -0.000642055 0.00499426 0.00569918 -0.00609756 0.00769231 -0.000364078 0.0111881 0.015642 0.00137694 0.00198812 0.00768262 -0.00845588 0.00737705 0.000725851 -0.00228426 -0.00410557 -0.0136646 0.00943396 -0.00115163 0.01875 0.00714286 0.000445633 0.000113688 -0.00676692 -0.00381356
internal_weight=9155 9120 6628 3748 1424 2492 871 851 123 728 2472 505 553 2324 2188 397 136 61 1791 788 682 161 106 521 176 329 2244 2199 266 236
internal_count=9155 9120 6628 3748 1424 2492 871 851 123 728 2472 505 553 2324 2188 397 136 61 1791 788 682 161 106 521 176 329 2244 2199 266 236
is_linear=0
shrinkage=0.05


Tree=26
num_leaves=31
num_cat=0
split_feature=8 3 20 29 28 28 6 19 0 30 3 31 21 27 27 5 16 4 18 12 30 10 8 3 14 10 24 10 20 8
split_gain=9.35447 19.0647 24.844 13.4419 10.1524 10.6392 9.11533 7.44008 8.24192 6.49737 7.54941 9.09473 7.90412 6.11548 6.03938 5.5834 5.32582 5.33484 5.15889 5.06639 4.96089 5.00531 4.90949 4.89314 4.72763 4.46328 4.38969 6.15463 8.98321 7.70716
threshold=26.500000000000004 1.0000000180025095e-35 27.500000000000004 69.500000000000014 33.500000000000007 31.500000000000004 1010.5000000000001 1.2668484069787165 32.500000000000007 1007.5000000000001 1.0471650770867935 1.1150072000796054 71.500000000000014 0.71754226264466137 0.22234291063072287 71.500000000000014 31.500000000000004 32.500000000000007 1010.5000000000001 31.500000000000004 1004.5000000000001 1007.5000000000001 31.500000000000004 0.13881586829913978 1007.5000000000001 1004.5000000000001 31.500000000000004 1009.5000000000001 29.500000000000004 25.500000000000004
decision_type=2 2 2 2 2 2 2 2 2 2 2 2 2 2 2 2 2 2 2 2 2 2 2 2 2 2 2 2 2 2
left_child=1 26 3 -3 5 9 15 8 14 10 11 13 -12 19 24 -4 17 -7 20 -2 -16 -22 -19 -13 -5 -11 -1 28 29 -28
right_child=4 2 6 7 -6 16 -8 -9 -10 25 12 23 -14 -15 18 -17 -18 22 -20 -21 21 -23 -24 -25 -26 -27 27 -29 -30 -31
leaf_value=0 0 -0.0011782210730717311 -8.0089625631567249e-05 0.02792470160115719 -4.0718402918497768e-07 0.0032190058275917916 -0.00060962429709789632 -0.0010874358354800307 -0.0013847861592418981 0 0.0012859902733112064 -0.00074273227107301545 0.034157988291165224 -0.0004517296516088701 -0.0016906475094373486 0.010210983510948618 0 0 -0.0016895597233024787 0 0.014575647602644702 0.0089073852551793068 0 0.034306748882971465 0.0075133844311823907 0 -4.0718402918497768e-07 0 0 -0.00020037809986490226
leaf_weight=1937 690 48 281 100 183 160 51 23 25 45 131 21 21 54 35 47 38 30 24 162 73 133 29 29 212 3952 47 395 146 43
leaf_count=1937 690 48 281 100 183 160 51 23 25 45 131 21 21 54 35 47 38 30 24 162 73 133 29 29 212 3952 47 395 146 43
internal_value=0.00166939 0.00364641 0.00931559 0.0150817 0.00037872 0.000773965 -0.000923483 0.01704 0.0181063 0.000274241 -0.00311372 -0.00475941 0.00723684 -0.00590508 0.0193241 0.00213415 0.0107004 0.0136986 0.0137736 -0.00487089 0.0159751 0.018932 0.000847458 0.016 0.0240385 0.00121341 0.00132399 -0.00229794 -0.00868644 -0.0211111
internal_weight=9165 3620 1052 673 5545 5362 379 625 602 5105 1108 956 152 906 577 328 257 219 265 852 241 206 59 50 312 3997 2568 631 236 90
internal_count=9165 3620 1052 673 5545 5362 379 625 602 5105 1108 956 152 906 577 328 257 219 265 852 241 206 59 50 312 3997 2568 631 236 90
is_linear=0
shrinkage=0.05


Tree=27
num_leaves=31
num_cat=0
split_feature=23 18 21 31 31 3 21 8 15 5 3 16 3 10 1 29 3 27 19 18 10 6 1 26 3 8 20 3 7 31
split_gain=6.71504 6.41183 9.42752 9.34309 7.13688 6.55872 9.32001 12.7225 6.44895 5.34721 8.59065 5.48534 6.27143 11.2312 5.15613 5.10521 5.06047 9.74173 8.53333 7.31219 4.92243 5.46295 4.89456 5.19202 9.3115 4.79624 5.74239 5.05027 4.76932 9.37394
threshold=2.0346842880759621 1007.5000000000001 69.500000000000014 1.4230357494997927 1.0000000180025095e-35 0.55920745798214477 73.500000000000014 29.500000000000004 0.43773436867695004 72.500000000000014 1.5368094061055315 25.500000000000004 1.0000000180025095e-35 1007.5000000000001 71.500000000000014 70.500000000000014 0.13881586829913978 0.22234291063072287 1.0000000180025095e-35 1008.5000000000001 1007.5000000000001 1007.5000000000001 70.500000000000014 1007.5000000000001 1.0000000180025095e-35 30.500000000000004 25.500000000000004 0.61482027553725704 1.1472764606483909 1.0000000180025095e-35
decision_type=2 2 2 2 2 2 2 2 2 2 2 2 2 2 2 2 2 2 2 2 2 2 2 2 2 2 2 2 2 2
left_child=1 5 4 9 -3 28 7 -7 22 10 11 12 -4 -14 -5 -15 -11 19 -19 20 -18 -22 23 24 -6 26 -21 -28 -1 -30
right_child=-2 2 3 14 8 6 -8 -9 -10 16 -12 -13 13 15 -16 -17 17 18 -20 25 21 -23 -24 -25 -26 -27 27 -29 29 -31
leaf_value=0 0.0018839028232611578 0 0 -0.00014204141475802096 -0.00023772999490668151 0.0069224361313459798 -0.0011758035528469562 -0.0010540027277841505 0.0065588593787159772 0 0.015843517626336536 0 0.012648595755005499 -6.139425738806857e-05 0.015510948363000217 0.0054936677668563985 -0.00038056232990090524 0.00016900438957790018 0.027045683204671312 -0.00038962018908871926 0.0088531645736711524 -0.00011365492491775876 -0.00045458231004609473 0 0.0011532508463101513 -0.00033094706229188579 -0.00025291719851160778 0.0045955647204825511 5.9222229877235706e-05 -0.00085122048810027859
leaf_weight=1941 46 2448 376 31 68 259 33 57 33 595 40 2092 37 66 112 204 28 40 20 43 25 64 67 207 31 61 26 21 35 38
leaf_count=1941 46 2448 376 31 68 259 33 57 33 595 40 2092 37 66 112 204 28 40 20 43 25 64 67 207 31 61 26 21 35 38
internal_value=0.00159668 0.00150033 0.00228656 0.00389075 0.000105116 -0.000740584 0.00558739 0.00822785 -0.00603448 0.00341091 0.00449378 0.00416216 0.00805271 0.013355 0.0164336 0.00981481 0.000108342 -0.00487805 0.0133333 -0.00895522 0.00042735 0.00617978 -0.00790885 -0.00522876 -0.0146465 -0.0162252 -0.00888889 0.00319149 -0.00183714 -0.0143836
internal_weight=9144 9098 6735 3881 2854 2363 349 316 406 3738 2815 2775 683 307 143 270 923 328 60 268 117 89 373 306 99 151 90 47 2014 73
internal_count=9144 9098 6735 3881 2854 2363 349 316 406 3738 2815 2775 683 307 143 270 923 328 60 268 117 89 373 306 99 151 90 47 2014 73
is_linear=0
shrinkage=0.05


Tree=28
num_leaves=31
num_cat=0
split_feature=18 2 30 3 26 26 20 16 3 1 0 19 11 3 14 28 18 23 8 19 25 0 0 20 11 8 19 20 3 31
split_gain=9.58183 7.15618 7.48458 15.8581 7.97057 6.6892 13.0343 16.1539 8.89859 6.35525 6.74385 6.0277 6.74508 5.73236 10.3682 5.64383 5.32632 5.20061 5.17916 5.07252 6.49227 4.97328 5.9399 4.80011 4.78801 4.70262 4.67331 4.22117 4.16993 6.95517
threshold=1007.5000000000001 1005.5000000000001 1006.5000000000001 1.0000000180025095e-35 1005.5000000000001 1005.5000000000001 24.500000000000004 26.500000000000004 0.13881586829913978 71.500000000000014 32.500000000000007 1.0000000180025095e-35 1.0000000180025095e-35 1.3479888099339705 1008.5000000000001 28.500000000000004 1008.5000000000001 0.29941825054435206 27.500000000000004 0.29941825054435206 66.500000000000014 34.500000000000007 32.500000000000007 29.500000000000004 1.0000000180025095e-35 26.500000000000004 2.2246089421071029 25.500000000000004 0.55920745798214477 0.29941825054435206
decision_type=2 2 2 2 2 2 2 2 2 2 2 2 2 2 2 2 2 2 2 2 2 2 2 2 2 2 2 2 2 2
left_child=5 24 3 4 -3 6 -1 15 19 10 -5 12 -11 28 -15 17 -16 -8 25 20 -9 22 26 -22 -2 27 -7 -6 -4 -30
right_child=1 2 13 9 18 21 7 8 -10 11 -12 -13 -14 14 16 -17 -18 -19 -20 -21 23 -23 -24 -25 -26 -27 -28 -29 29 -31
leaf_value=-0.0011257768535540454 0 -0.00024041797940135536 0 0.022566336694142507 5.7191000195660316e-06 0 -0.00014345587268703165 9.2722813859581966e-06 0.0086958305882309222 0.018827323460085716 -0.0014060786101679644 0.028005981428380414 -0.0023108370767719573 0.029888847622969141 0.010262476903495783 0.019243784443015648 -0.00039752388022350199 0.0073187109199650494 -4.8801480978727346e-07 0.0029068206300978117 -0.00021712472705965547 9.2722813859581966e-06 -0.00020528330054134133 -0.00033294289243896813 0 0.0047653258361527789 -1.4940185352001377e-05 0 -0.00031268614923819923 0.0060683779629369496
leaf_weight=22 84 37 5584 41 23 1996 35 32 40 145 21 75 23 21 30 63 59 27 23 23 65 31 35 35 39 22 22 108 241 81
leaf_count=22 84 37 5584 41 23 1996 35 32 40 145 21 75 23 21 30 63 59 27 23 23 65 31 35 35 39 22 22 108 241 81
internal_value=0.00161841 0.00259877 0.00282369 0.00859073 -0.00187793 -0.00107172 0.00540936 0.00796875 -0.00102564 0.0159016 0.0016129 0.0195473 0.0142857 0.00232713 0.0136364 0.022 0.00617978 0.0112903 0.00255682 -0.00645161 -0.0102273 -0.00213532 -0.00243546 -0.0165 -0.00934959 0.00588235 -0.00208127 0.00229008 0.00211649 -0.00341615
internal_weight=9083 6657 6534 518 213 2426 342 320 195 305 62 243 168 6016 110 125 89 62 176 155 132 2084 2053 100 123 153 2018 131 5906 322
internal_count=9083 6657 6534 518 213 2426 342 320 195 305 62 243 168 6016 110 125 89 62 176 155 132 2084 2053 100 123 153 2018 131 5906 322
is_linear=0
shrinkage=0.05


Tree=29
num_leaves=31
num_cat=0
split_feature=18 23 20 28 14 29 16 31 22 14 4 3 3 19 8 1 19 31 24 31 14 23 29 29 8 29 1 31 20 2
split_gain=7.08784 6.43313 10.566 6.34001 7.23901 7.99313 7.72399 7.99863 6.43892 6.65352 7.28259 9.23288 6.07213 5.7796 4.80699 14.3267 4.75943 4.68218 4.36447 6.29841 4.35088 4.34474 15.8713 7.44875 7.32649 6.93521 5.96362 5.84535 8.14633 8.09806
threshold=1007.5000000000001 1.0000000180025095e-35 23.500000000000004 26.500000000000004 1011.5000000000001 64.500000000000014 25.500000000000004 1.4230357494997927 1009.5000000000001 1007.5000000000001 28.500000000000004 0.29941825054435206 1.599336558775341 0.37096867236468872 25.500000000000004 70.500000000000014 0.29941825054435206 0.22234291063072287 26.500000000000004 0.13881586829913978 1008.5000000000001 1.3479888099339705 71.500000000000014 71.500000000000014 27.500000000000004 73.500000000000014 72.500000000000014 0.37096867236468872 24.500000000000004 1004.5000000000001
decision_type=2 2 2 2 2 2 2 2 2 2 2 2 2 2 2 2 2 2 2 2 2 2 2 2 2 2 2 2 2 2
left_child=12 -2 -3 8 6 -6 18 -8 9 -4 11 17 14 -7 15 -1 -17 -11 19 -5 -21 23 -23 27 25 -25 -27 28 -16 -29
right_child=1 2 3 4 5 13 7 -9 -10 10 -12 -13 -14 -15 21 16 -18 -19 -20 20 -22 22 -24 24 -26 26 -28 29 -30 -31
leaf_value=0 0 -0.00043747642721856734 -0.00020927521185893518 0.0070125996263672363 6.5126799566999686e-06 -0.00010441850333457743 0 0.020143217298401163 0 0 -0.00057763240717907194 0.014103837251317634 0.011033000855379805 4.2719762831547423e-07 -0.00045630804024903961 0.010899004554658346 0.001056136596668337 -0.00047454779579641143 0.0051968329589017308 0.023071343498953643 -0.00097032938094779211 -0.0001463763627648955 0.0031108233732651727 -0.00013025359913399937 -0.00021072968865279882 0.0075993574086347078 -0.00029024294962513782 0.0093099044991533219 0 -0.00043224161307203204
leaf_weight=288 5236 23 51 28 22 66 647 32 257 49 35 27 60 20 48 73 35 24 139 24 38 50 46 210 220 32 37 20 1169 118
leaf_count=288 5236 23 51 28 22 66 647 32 257 49 35 27 60 20 48 73 35 24 139 24 38 50 46 210 220 32 37 20 1169 118
internal_value=0.0016221 0.00245609 0.00536437 0.00589445 0.00807087 -0.00416667 0.00952643 0.00684831 0.000902935 -0.0061828 -0.00037037 0.0065 -0.000706567 -0.0110465 -0.00110827 0.00391414 0.0194444 -0.00273973 0.0174672 0.00888889 0 -0.00212821 -0.0125 -0.00159115 -0.00681363 -0.00143369 0.0123188 0.000332103 0.00143796 -0.00942029
internal_weight=9124 6718 1482 1459 1016 108 908 679 443 186 135 100 2406 86 2346 396 108 73 229 90 62 1950 96 1854 499 279 69 1355 1217 138
internal_count=9124 6718 1482 1459 1016 108 908 679 443 186 135 100 2406 86 2346 396 108 73 229 90 62 1950 96 1854 499 279 69 1355 1217 138
is_linear=0
shrinkage=0.05


Tree=30
num_leaves=31
num_cat=0
split_feature=27 26 6 31 3 3 6 3 22 23 28 23 20 22 10 9 26 21 5 21 3 31 15 3 14 12 29 5 23 27
split_gain=7.55366 10.6478 6.87611 7.20973 6.86546 8.35666 8.26791 6.72097 6.99532 7.98507 6.63608 6.23443 6.18407 9.51767 5.84993 5.75655 7.40101 5.24827 5.12645 4.97459 7.63762 6.09182 9.06985 12.2135 5.85958 8.37053 5.20106 4.96243 4.93714 4.76493
threshold=0.50031594015395309 1009.5000000000001 1006.5000000000001 1.0000000180025095e-35 0.13881586829913978 1.4468497739944199 1005.5000000000001 0.13881586829913978 1005.5000000000001 0.22234291063072287 25.500000000000004 0.50031594015395309 25.500000000000004 1008.5000000000001 1008.5000000000001 70.500000000000014 1007.5000000000001 72.500000000000014 70.500000000000014 69.500000000000014 0.22234291063072287 0.29941825054435206 0.50031594015395309 0.71754226264466137 1007.5000000000001 25.500000000000004 70.500000000000014 72.500000000000014 0.29941825054435206 0.37096867236468872
decision_type=2 2 2 2 2 2 2 2 2 2 2 2 2 2 2 2 2 2 2 2 2 2 2 2 2 2 2 2 2 2
left_child=2 10 3 4 11 6 -6 15 -9 -10 -2 -1 13 18 -14 -5 -17 -13 -12 20 26 29 23 24 25 -23 -4 -18 -24 -21
right_child=1 -3 19 7 5 -7 -8 8 9 -11 12 17 14 -15 -16 16 27 -19 -20 21 -22 22 28 -25 -26 -27 -28 -29 -30 -31
leaf_value=0 -0.00016092991036031098 -0.00018933987047132985 0 0 -0.00011928658626937411 0.021210882134842197 -0.00042744900004443808 -0.0024402402917766855 -0.00021970862257196093 0.0080662823147802567 -0.00071337742857531744 -0.00016206045291260995 0.0020904398004926608 0.01345151319383921 1.6840447977552594e-05 -0.00053805143184427247 2.0046900528533712e-05 6.5126799566999686e-06 0.012083329017438315 0 -0.00017438804022623633 0.040133457174579834 -0.00061932393104219415 0.020128175278777832 1.4617091255540895e-05 1.6954800040302301e-05 0 -0.00018590177365925627 0.0016939361248271918 -9.7125316042042623e-05
leaf_weight=582 77 131 2559 38 81 21 85 37 97 22 28 24 412 40 212 74 23 23 38 3436 179 52 54 96 306 70 143 30 21 69
leaf_count=582 77 131 2559 38 81 21 85 37 97 22 28 24 412 40 212 74 23 23 38 3436 179 52 54 96 306 70 143 30 21 69
internal_value=0.00172185 0.00597015 0.00123122 -0.00237467 0.000122549 -0.00828877 -0.0120482 -0.00872274 -0.00128205 0.00462185 0.00811648 0.00262321 0.00958904 0.0207547 0.00769231 -0.0157576 -0.0208661 -0.0148936 0.00909091 0.00181818 0.000225616 0.00293616 0.00759599 0.00992366 0.00630841 0.0155738 0.000888231 -0.00660377 -0.00866667 0.0021398
internal_weight=9060 938 8122 1137 816 187 166 321 156 119 807 629 730 106 624 165 127 47 66 6985 2881 4104 599 524 428 122 2702 53 75 3505
internal_count=9060 938 8122 1137 816 187 166 321 156 119 807 629 730 106 624 165 127 47 66 6985 2881 4104 599 524 428 122 2702 53 75 3505
is_linear=0
shrinkage=0.05


Tree=31
num_leaves=31
num_cat=0
split_feature=31 15 15 30 9 29 3 16 31 11 28 1 17 20 3 24 18 27 30 28 16 26 1 3 27 26 20 13 26 8
split_gain=5.14125 4.19928 5.71443 3.54204 11.2802 10.5559 7.54153 9.74984 6.21957 6.0791 5.99138 7.42029 6.76 5.05098 4.59223 4.74309 4.82652 4.23094 9.18995 5.03476 6.47402 8.01515 7.20955 4.58823 13.1098 9.33492 7.08916 7.21625 5.66043 8.2594
threshold=2.3075602584206303 1.9670879050346399 2.3841544616826362 1006.5000000000001 71.500000000000014 71.500000000000014 1.0000000180025095e-35 29.500000000000004 1.8484238118815568 0.22234291063072287 27.500000000000004 73.500000000000014 72.500000000000014 26.500000000000004 0.13881586829913978 29.500000000000004 1006.5000000000001 1.2382692000587421 1009.5000000000001 26.500000000000004 26.500000000000004 1005.5000000000001 70.500000000000014 1.0000000180025095e-35 0.22234291063072287 1005.5000000000001 30.500000000000004 67.500000000000014 1011.5000000000001 30.500000000000004
decision_type=2 2 2 2 2 2 2 2 2 2 2 2 2 2 2 2 2 2 2 2 2 2 2 2 2 2 2 2 2 2
left_child=1 3 -3 4 5 -1 7 9 17 -6 12 13 -8 -12 15 16 -7 23 19 -19 -21 -22 -23 -5 26 -26 28 -28 -25 -30
right_child=-2 2 -4 8 6 14 10 -9 -10 -11 11 -13 -14 -15 -16 -17 -18 18 -20 20 21 22 -24 24 25 -27 27 -29 29 -31
leaf_value=0 0.012476073552303853 0.0024680739219769517 0 0 -0.0001734389679929429 0.026712209456384629 0.0041138602705569063 2.4400740489363675e-08 -0.0012764186368600444 -0.00016809397698293335 -0.0032068759729343521 0.0025819055077661163 -0.0012068707665121138 -0.00019679916906576055 0.015755398737175831 -0.00027657854214589581 0.0024091946186551114 -0.0011864814705759904 -0.00023998532948702858 0.0026390281963314661 -0.0023299186880862545 -0.00077331753208646 0.0030509558062221148 -8.1019174592598945e-06 -0.0044934898212154661 0.003219308866715022 0.0020633058706213182 -0.0003768634431444523 -0.00023395125474115312 8.1510342042639892e-06
leaf_weight=435 24 45 21 5676 48 20 80 39 26 28 35 69 20 34 211 65 181 29 58 78 22 23 43 1190 20 329 52 129 76 28
leaf_count=435 24 45 21 5676 48 20 80 39 26 28 35 69 20 34 211 65 181 29 58 78 22 23 43 1190 20 329 52 129 76 28
internal_value=0.00188855 0.00182766 0.0143939 0.00173596 0.00418972 0.00712719 -0.00339943 -0.013913 0.00133693 -0.0243421 0.00168067 -0.00507246 0.011 -0.0166667 0.0122642 0.00789474 0.0116915 0.00141881 -0.00494071 0.00025641 0.00361446 -0.00568182 0.0030303 0.00163333 -0.000548246 0.00816619 -0.00261017 -0.0118785 -0.00131376 -0.0125
internal_weight=9134 9110 66 9044 1265 912 353 115 7779 76 238 138 100 69 477 266 201 7753 253 195 166 88 66 7500 1824 349 1475 181 1294 104
internal_count=9134 9110 66 9044 1265 912 353 115 7779 76 238 138 100 69 477 266 201 7753 253 195 166 88 66 7500 1824 349 1475 181 1294 104
is_linear=0
shrinkage=0.05


Tree=32
num_leaves=31
num_cat=0
split_feature=8 26 24 16 19 27 27 13 0 21 8 28 3 27 3 27 0 8 3 14 18 0 3 27 22 16 30 27 15 25
split_gain=9.06413 7.39244 5.80302 5.39375 10.4962 8.83265 6.77069 8.22503 7.61998 6.76595 6.02396 7.97039 5.94084 7.58846 5.76 5.49064 6.41264 7.42426 5.2341 5.34702 4.92219 6.50926 5.49428 4.43471 4.17055 5.55784 5.22635 10.3519 7.18046 6.24497
threshold=23.500000000000004 1006.5000000000001 28.500000000000004 25.500000000000004 0.13881586829913978 0.61482027553725704 0.29941825054435206 69.500000000000014 28.500000000000004 75.500000000000014 25.500000000000004 31.500000000000004 0.13881586829913978 0.50031594015395309 0.43773436867695004 1.0000000180025095e-35 27.500000000000004 28.500000000000004 1.6193392260821904 1008.5000000000001 1007.5000000000001 29.500000000000004 1.0000000180025095e-35 0.89587973461402759 1008.5000000000001 34.500000000000007 1009.5000000000001 1.2382692000587421 1.3736354571277458 69.500000000000014
decision_type=2 2 2 2 2 2 2 2 2 2 2 2 2 2 2 2 2 2 2 2 2 2 2 2 2 2 2 2 2 2
left_child=1 -1 -3 4 10 6 7 -6 -9 18 11 -2 13 -12 -8 16 17 -14 24 -20 22 -22 -11 -7 25 -5 28 -28 29 -26
right_child=3 2 -4 9 5 23 14 8 -10 20 12 -13 15 -15 -16 -17 -18 -19 19 -21 21 -23 -24 -25 26 -27 27 -29 -30 -31
leaf_value=-4.0718402918497768e-07 0.0026421869134763648 0 0 0 -0.00031135475789347792 0.015378850675310647 -0.0013826552125929539 0.0010430081542860403 0.01431116723452054 1.0536484432639941e-05 0 0 0.011498180004796979 -0.00048504984429912073 0.0060032761860240695 0.0020947207635486054 -0.00038571688060736083 -0.00016289882197757872 0.017235736371004919 -0.0011911908864060503 0 8.6719483996471449e-06 0.00033353423660537908 0.004413180513364724 0 0 0 -0.00042656478616510301 0 0
leaf_weight=34 349 182 161 3005 20 27 25 83 40 52 863 73 39 21 20 102 166 67 42 29 77 37 22 74 670 48 1911 26 98 821
leaf_count=34 349 182 161 3005 20 27 25 83 40 52 863 73 39 21 20 102 166 67 42 29 77 37 22 74 670 48 1911 26 98 821
internal_value=0.00188916 -0.00570292 -0.00349854 0.00221415 0.00452006 0.0133218 0.00691489 0.0122378 0.0170732 0.00155016 0.00300595 0.00817536 0.00127186 0.00350679 -0.01 -0.0040107 -0.00772059 0.00188679 0.00128571 0.0147887 0.0109043 0.00438596 0.0209459 0.0252475 0.00113999 -0.000212905 0.0023114 0.000567888 0.00443675 0.00529846
internal_weight=9184 377 343 8807 1969 289 188 143 123 6838 1680 422 1258 884 45 374 272 106 6650 71 188 114 74 101 6579 3053 3526 1937 1589 1491
internal_count=9184 377 343 8807 1969 289 188 143 123 6838 1680 422 1258 884 45 374 272 106 6650 71 188 114 74 101 6579 3053 3526 1937 1589 1491
is_linear=0
shrinkage=0.05


Tree=33
num_leaves=31
num_cat=0
split_feature=3 12 27 20 23 23 20 24 16 13 31 23 28 31 27 11 3 3 3 30 7 11 16 22 31 24 19 18 11 18
split_gain=8.85236 7.38069 10.7146 7.55331 5.6551 8.69654 9.07755 10.4629 9.52926 8.83767 7.90124 8.59877 7.66996 7.34873 7.17465 6.64428 5.939 5.91037 5.85621 5.79403 5.19483 5.08202 6.90516 5.51735 8.27097 6.0764 5.43267 6.75433 5.36471 4.39647
threshold=2.1632569623718116 24.500000000000004 0.76519735254682386 23.500000000000004 0.71754226264466137 1.0000000180025095e-35 28.500000000000004 26.500000000000004 27.500000000000004 73.500000000000014 1.2382692000587421 0.37096867236468872 32.500000000000007 0.61482027553725704 0.55920745798214477 1.2382692000587421 1.0000000180025095e-35 0.43773436867695004 0.37096867236468872 1010.5000000000001 0.71754226264466137 0.29941825054435206 25.500000000000004 1007.5000000000001 0.76519735254682386 26.500000000000004 0.22234291063072287 1007.5000000000001 0.13881586829913978 1006.5000000000001
decision_type=2 2 2 2 2 2 2 2 2 2 2 2 2 2 2 2 2 2 2 2 2 2 2 2 2 2 2 2 2 2
left_child=1 2 3 -1 5 29 7 10 19 20 11 13 21 14 15 18 -9 -15 -7 -8 -10 23 -23 25 26 -6 -25 -28 -27 -3
right_child=-2 4 -4 -5 12 6 8 16 9 -11 -12 -13 -14 17 -16 -17 -18 -19 -20 -21 -22 22 -24 24 -26 28 27 -29 -30 -31
leaf_value=0 0.013922350847317492 0 0.0045248819678257515 0 -0.00093349939685681517 0 -0.00027043066170121986 1.4752332694395693e-05 0 8.9202025408138166e-06 -0.00080893864764162613 0.0017156026206325602 0.0046199260442705828 3.3366042095979987e-05 -0.00061108307346063146 -0.00032045735347229002 0.011817224527655835 0.020642803696472242 0.0079348548898052502 0 -0.0001800413459765234 0.0096655551380240862 0 -0.00012503267396727049 0.0083235926886411609 0 -0.00013444508704957481 4.1651768760758737e-07 -0.00047283747723154902 0
leaf_weight=70 37 519 100 955 22 168 76 225 737 70 24 63 24 26 34 22 244 20 36 52 46 24 109 89 26 255 33 44 30 4965
leaf_count=70 37 519 100 955 22 168 76 225 737 70 24 63 24 26 34 22 244 20 36 52 46 24 109 89 26 255 33 44 30 4965
internal_value=0.00126845 0.0011693 -0.00262222 -0.00414634 0.00170362 0.00210182 0.00507325 0.00881671 0.00178389 0.00369285 0.00279898 0.00460705 -0.0027439 0.00114379 -0.00211538 0.00110619 0.0138593 0.0195652 0.00392157 -0.0109375 0.00217114 -0.00379747 0.00488722 -0.00611222 -0.0127604 -0.0019544 -0.0168675 -0.00714286 0 0.00110321
internal_weight=9145 9108 1125 1025 7983 7327 1843 862 981 853 393 369 656 306 260 226 469 46 204 128 783 632 133 499 192 307 166 77 285 5484
internal_count=9145 9108 1125 1025 7983 7327 1843 862 981 853 393 369 656 306 260 226 469 46 204 128 783 632 133 499 192 307 166 77 285 5484
is_linear=0
shrinkage=0.05


Tree=34
num_leaves=31
num_cat=0
split_feature=12 15 3 10 29 14 16 24 27 3 7 12 26 21 21 27 16 25 31 5 28 31 27 31 13 12 26 15 10 11
split_gain=8.25004 4.56643 8.92882 8.09524 6.90238 6.88365 9.61888 7.68793 9.56671 8.1101 7.85471 7.36307 7.27013 6.93252 6.849 6.70773 6.45675 6.32468 6.09847 5.21357 5.41076 8.56809 5.3017 4.84074 4.58007 4.8156 4.47831 6.34935 6.05029 4.13266
threshold=22.500000000000004 0.85418893014450203 0.81068324164968719 1007.5000000000001 73.500000000000014 1007.5000000000001 27.500000000000004 26.500000000000004 1.0000000180025095e-35 0.50031594015395309 1.0000000180025095e-35 24.500000000000004 1005.5000000000001 74.500000000000014 70.500000000000014 1.1150072000796054 26.500000000000004 70.500000000000014 1.1785366391390579 72.500000000000014 25.500000000000004 0.13881586829913978 0.29941825054435206 0.22234291063072287 74.500000000000014 26.500000000000004 1008.5000000000001 1.2668484069787165 1006.5000000000001 0.81068324164968719
decision_type=2 2 2 2 2 2 2 2 2 2 2 2 2 2 2 2 2 2 2 2 2 2 2 2 2 2 2 2 2 2
left_child=-1 5 4 -4 17 6 7 19 10 14 12 -7 -9 18 -10 -16 -12 26 24 20 21 -2 23 -22 25 -8 28 -28 -3 -27
right_child=1 2 3 -5 -6 11 13 8 9 -11 16 -13 -14 -15 15 -17 -18 -19 -20 -21 22 -23 -24 -25 -26 29 27 -29 -30 -31
leaf_value=0 5.0733534843183424e-05 0 0.02169048002757833 -0.00056875863588089562 0.0017888495168818014 0 -2.4400740489363673e-07 0.0044537546221189257 0.023460554462461647 0.0081502161555758318 0.0025328791153264754 0 -0.00019331137226992571 9.5636500839672531e-06 0.012677337965410665 -0.0014161083969643192 0.016266728206372757 -4.4601012704069087e-07 -0.00056441229649294275 -0.00071637615018906118 9.2966821264475578e-06 -0.00090880037060871903 0.0025167725529189407 0.018583860400145726 0 0 0 0 -0.00034023218576189761 0
leaf_weight=114 32 80 30 21 31 876 52 39 31 56 46 5523 58 68 111 22 31 261 21 54 21 38 49 34 30 1083 62 82 43 119
leaf_count=114 32 80 30 21 31 876 52 39 31 56 46 5523 58 68 111 22 31 261 21 54 21 38 49 34 30 1083 62 82 43 119
internal_value=0.000647072 0.000816304 -0.00336066 0.0166667 -0.00518784 0.00111985 0.00368421 0.00884244 0.0130711 0.02 0.00431034 0.000320363 -0.00515464 0.00134741 0.0256098 0.0206767 0.0162338 -0.00653409 0.000536398 0.00153509 0.00574713 -0.005 0.0129808 0.0236364 0.00097352 0.00143541 -0.0011236 0.00486111 -0.00813008 0.00207987
internal_weight=9118 9004 610 51 559 8394 1995 622 394 220 174 6399 97 1373 164 133 77 528 1305 228 174 70 104 55 1284 1254 267 144 123 1202
internal_count=9118 9004 610 51 559 8394 1995 622 394 220 174 6399 97 1373 164 133 77 528 1305 228 174 70 104 55 1284 1254 267 144 123 1202
is_linear=0
shrinkage=0.05


Tree=35
num_leaves=31
num_cat=0
split_feature=12 8 30 8 18 31 27 15 27 11 13 14 8 12 15 28 15 12 27 22 3 4 7 7 27 13 0 11 27 30
split_gain=10.3087 5.86036 5.57377 5.98154 5.35044 8.00968 8.57794 7.9593 5.90697 5.63872 5.12328 4.99441 17.02 6.55648 8.40572 8.53167 7.86847 6.24562 8.71123 5.62368 5.30812 5.25253 5.06374 4.99447 4.91393 4.89164 4.87933 4.82466 6.40677 6.51762
threshold=21.500000000000004 23.500000000000004 1003.5000000000001 25.500000000000004 1005.5000000000001 0.13881586829913978 0.13881586829913978 0.37096867236468872 1.0000000180025095e-35 0.37096867236468872 72.500000000000014 1007.5000000000001 26.500000000000004 26.500000000000004 0.29941825054435206 31.500000000000004 1.011435595095721 24.500000000000004 0.76519735254682386 1008.5000000000001 1.0000000180025095e-35 28.500000000000004 0.13881586829913978 0.13881586829913978 1.2088489500472754 74.500000000000014 25.500000000000004 0.13881586829913978 0.13881586829913978 1006.5000000000001
decision_type=2 2 2 2 2 2 2 2 2 2 2 2 2 2 2 2 2 2 2 2 2 2 2 2 2 2 2 2 2 2
left_child=-1 27 3 -3 5 6 7 10 -7 26 -4 12 13 14 15 -6 -16 18 19 -13 -21 23 -15 -22 -20 -14 -8 28 29 -2
right_child=1 2 4 -5 11 8 9 -9 -10 -11 -12 17 25 22 16 -17 -18 -19 24 20 21 -23 -24 -25 -26 -27 -28 -29 -30 -31
leaf_value=-0.00011502658591416786 -0.00011502658591416786 0.016141573512047033 0 -6.6797773019142218e-05 0.016582030649745654 -0.00087787534159642407 -0.00032140589096500032 4.2411428925450878e-06 -0.00045314837258829074 -0.00043429416625968392 -0.00020001610867072676 -0.00013210934567381826 0 0 -0.0019127259027589744 9.4721561996334211e-06 0.0030346188715112306 0 0.012539115046243401 0 0.0052077592139630653 -0.00041743155381412884 0.0041827179838675264 -0.0021044812463097496 -0.00035261717011810835 -4.2370962068865629e-07 3.104673232608503e-06 0.0035741968927451278 -0.00047910329256542218 0
leaf_weight=38 28 26 273 24 197 31 31 62 84 20 25 74 1239 130 41 50 34 5594 32 350 55 120 52 23 23 83 42 25 49 255
leaf_count=38 28 26 273 24 197 31 31 62 84 20 25 74 1239 130 41 50 34 5594 32 350 55 120 52 23 23 83 42 25 49 255
internal_value=0.000987925 0.00109678 0.00135399 0.018 0.00125793 -0.0034331 -0.000441501 0.00305556 -0.0152174 -0.0139785 -0.00033557 0.00158701 0.00388828 0.0117063 0.0159938 0.0204453 0.00133333 0.000916919 -0.00361891 -0.00530547 -0.00355839 -0.010101 0.00412088 0 0.0154545 0.000907716 -0.00753425 -0.00518207 -0.00677711 -0.00388693
internal_weight=9110 9072 8715 50 8665 568 453 360 115 93 298 8097 1826 504 322 247 75 6271 677 622 548 198 182 78 55 1322 73 357 332 283
internal_count=9110 9072 8715 50 8665 568 453 360 115 93 298 8097 1826 504 322 247 75 6271 677 622 548 198 182 78 55 1322 73 357 332 283
is_linear=0
shrinkage=0.05


Tree=36
num_leaves=31
num_cat=0
split_feature=3 27 3 26 11 23 28 31 28 22 27 12 14 19 31 14 22 27 11 28 27 23 23 8 11 23 12 16 11 8
split_gain=7.27889 5.6873 6.61583 6.49524 5.78667 5.28241 15.9026 8.73724 7.9023 6.16995 8.1 4.55062 5.86564 6.44445 5.15067 5.43763 4.71259 4.9409 4.91653 8.35233 4.91299 7.87945 4.86867 5.54822 4.97818 4.63535 4.42586 6.55321 6.9945 4.90822
threshold=1.1785366391390579 0.22234291063072287 1.7833559100698646 1010.5000000000001 0.29941825054435206 1.3736354571277458 26.500000000000004 1.0000000180025095e-35 28.500000000000004 1006.5000000000001 0.13881586829913978 24.500000000000004 1006.5000000000001 0.29941825054435206 0.13881586829913978 1009.5000000000001 1005.5000000000001 0.29941825054435206 0.81068324164968719 29.500000000000004 1.2382692000587421 0.89587973461402759 0.81068324164968719 29.500000000000004 0.13881586829913978 0.85418893014450203 25.500000000000004 26.500000000000004 1.7491620461964392 31.500000000000004
decision_type=2 2 2 2 2 2 2 2 2 2 2 2 2 2 2 2 2 2 2 2 2 2 2 2 2 2 2 2 2 2
left_child=5 3 -3 4 -2 11 -7 9 -9 10 -8 12 -1 -14 15 -15 17 22 20 26 -18 -22 23 24 -13 -19 -20 28 -28 -29
right_child=1 2 -4 -5 -6 6 7 8 -10 -11 -12 16 13 14 -16 -17 18 25 19 -21 21 -23 -24 -25 -26 -27 27 29 -30 -31
leaf_value=0.0078590084302020812 0.0013414718100506096 0.017976979690030852 -0.0017062864890379809 -0.00061156267400323957 0.015644525782411711 -0.0001419063452173548 0.0045653431385876096 0.0029920508120941437 7.4560705222885274e-05 -0.00016895856293004056 -0.00078292364380828363 0 0 0.003111218068660659 -0.0014726740216374906 -0.00023776123009371268 0 0.0029771451109708927 0.0056141690900648467 0.0058168832201538484 -8.8605372547072493e-05 -0.00056603320657934387 8.1030226456304983e-06 9.7602961957454697e-06 -0.00050622499414303991 -0.00060140842710132306 -0.00015607313951859498 0 7.5286257950703722e-06 0
