{"learner":{"attributes":{"best_iteration":"220","best_score":"0.15615231518008332","scikit_learn":"{\"_estimator_type\": \"regressor\"}"},"feature_names":["Temperature_t-1","Humidity_t-1","Pressure_t-1","Rainfall_t-1","Temperature_t-2","Humidity_t-2","Pressure_t-2","Rainfall_t-2","Temperature_t-3","Humidity_t-3","Pressure_t-3","Rainfall_t-3","Temperature_t-4","Humidity_t-4","Pressure_t-4","Rainfall_t-4","Temperature_t-5","Humidity_t-5","Pressure_t-5","Rainfall_t-5","Temperature_t-6","Humidity_t-6","Pressure_t-6","Rainfall_t-6"],"feature_types":["float","float","float","float","float","float","float","float","float","float","float","float","float","float","float","float","float","float","float","float","float","float","float","float"],"gradient_booster":{"model":{"gbtree_model_param":{"num_parallel_tree":"1","num_trees":"301"},"iteration_indptr":[0,1,2,3,4,5,6,7,8,9,10,11,12,13,14,15,16,17,18,19,20,21,22,23,24,25,26,27,28,29,30,31,32,33,34,35,36,37,38,39,40,41,42,43,44,45,46,47,48,49,50,51,52,53,54,55,56,57,58,59,60,61,62,63,64,65,66,67,68,69,70,71,72,73,74,75,76,77,78,79,80,81,82,83,84,85,86,87,88,89,90,91,92,93,94,95,96,97,98,99,100,101,102,103,104,105,106,107,108,109,110,111,112,113,114,115,116,117,118,119,120,121,122,123,124,125,126,127,128,129,130,131,132,133,134,135,136,137,138,139,140,141,142,143,144,145,146,147,148,149,150,151,152,153,154,155,156,157,158,159,160,161,162,163,164,165,166,167,168,169,170,171,172,173,174,175,176,177,178,179,180,181,182,183,184,185,186,187,188,189,190,191,192,193,194,195,196,197,198,199,200,201,202,203,204,205,206,207,208,209,210,211,212,213,214,215,216,217,218,219,220,221,222,223,224,225,226,227,228,229,230,231,232,233,234,235,236,237,238,239,240,241,242,243,244,245,246,247,248,249,250,251,252,253,254,255,256,257,258,259,260,261,262,263,264,265,266,267,268,269,270,271,272,273,274,275,276,277,278,279,280,281,282,283,284,285,286,287,288,289,290,291,292,293,294,295,296,297,298,299,300,301],"tree_info":[0,0,0,0,0,0,0,0,0,0,0,0,0,0,0,0,0,0,0,0,0,0,0,0,0,0,0,0,0,0,0,0,0,0,0,0,0,0,0,0,0,0,0,0,0,0,0,0,0,0,0,0,0,0,0,0,0,0,0,0,0,0,0,0,0,0,0,0,0,0,0,0,0,0,0,0,0,0,0,0,0,0,0,0,0,0,0,0,0,0,0,0,0,0,0,0,0,0,0,0,0,0,0,0,0,0,0,0,0,0,0,0,0,0,0,0,0,0,0,0,0,0,0,0,0,0,0,0,0,0,0,0,0,0,0,0,0,0,0,0,0,0,0,0,0,0,0,0,0,0,0,0,0,0,0,0,0,0,0,0,0,0,0,0,0,0,0,0,0,0,0,0,0,0,0,0,0,0,0,0,0,0,0,0,0,0,0,0,0,0,0,0,0,0,0,0,0,0,0,0,0,0,0,0,0,0,0,0,0,0,0,0,0,0,0,0,0,0,0,0,0,0,0,0,0,0,0,0,0,0,0,0,0,0,0,0,0,0,0,0,0,0,0,0,0,0,0,0,0,0,0,0,0,0,0,0,0,0,0,0,0,0,0,0,0,0,0,0,0,0,0,0,0,0,0,0,0,0,0,0,0,0,0,0,0,0,0,0,0,0,0,0,0,0,0,0,0,0,0,0,0],"trees":[{"base_weights":[2.3337982E-3,-8.9154124E-2,2.1841635E-1,-1.2228049E-1,-6.3004E-2,3.7924752E-1,1.1817652E-1,-1.25797E-1,-4.651985E-2,-8.9389205E-2,2.9460967E-2,1.6622445E-1,4.7674283E-1,6.120041E-2,2.0044443E-1,-1.3920109E-1,-1.0939722E-1,-9.757542E-2,2.8197578E-1,-1.0761097E-1,-4.7584847E-2,9.110786E-2,-6.671792E-2,1.09928004E-1,5.029417E-1,6.3677335E-1,2.4500659E-1,1.7804463E-1,2.1958161E-2,2.1564886E-1,-5.6242388E-2,-1.407629E-1,-0E0,-6.568235E-2,-1.3090736E-1,-1.0437821E-1,2.417925E-3,-1.7222745E-2,5.5597585E-1,-1.1649094E-1,-4.8278954E-2,3.3444524E-2,-8.755516E-2,5.60998E-2,4.520843E-1,-1.9790828E-2,-8.674643E-2,2.1048549E-1,5.4082617E-2,7.305316E-1,1.8318504E-1,1.6268244E-1,6.6041666E-1,1.7921971E-1,4.505667E-1,8.219402E-2,3.6086342E-1,-5.216858E-3,1.1159672E-1,1.4253652E-1,2.667759E-1,-0E0,-8.480884E-2,-1.4099701E-1,-0E0,-4.1540477E-2,1.0125631E-2,-3.6886964E-2,-1.4036512E-1,-1.3454895E-1,-0E0,-0E0,-1.09762765E-1,-9.663942E-4,-0E0,2.3351397E-4,1.4710627E-2,2.4244883E-3,-1.18527465E-1,-7.949864E-2,6.604913E-2,2.3470244E-1,-1.7758694E-2,-9.553216E-2,6.8506193E-3,4.6325812E-1,3.4130678E-2,5.1275134E-1,9.050308E-3,8.523003E-2,-5.8458734E-2,-0E0,-1.0674292E-1,2.792866E-1,-2.8357229E-3,-2.6626816E-2,1.2444551E-1,2.7418146E-2,8.374499E-1,7.32999E-2,5.635843E-1,4.208572E-1,-3.663722E-2,4.2717332E-1,6.8899184E-1,1.6897573E-1,2.6113402E-2,2.9456988E-1,8.681983E-1,1.8851178E-3,1.4959931E-1,1.6442974E-1,5.810581E-1,2.7231647E-2,-5.9001345E-2,6.9082177E-1,8.9906655E-2,7.074155E-2,2.1714914E-1,2.3712838E-1,4.1283906E-1,-1.146436E-2,1.7296148E-2,-9.350255E-2,-0E0,-6.153973E-4,-2.8375273E-3,-1.5386058E-3,-0E0,-1.6504009E-3,2.095665E-4,-0E0,-2.8228064E-3,-2.6951612E-3,-0E0,1.1366836E-2,-4.9452425E-4,1.2049683E-3,-0E0,-2.2588496E-3,-0E0,-0E0,4.052623E-3,8.851305E-3,-4.8623388E-4,-2.5096822E-3,-1.7173379E-3,-1.7104895E-3,-0E0,-0E0,1.1256907E-2,-9.7510085E-4,7.0750825E-3,-4.896278E-4,1.2771643E-2,-1.9510974E-3,-0E0,-8.7795965E-4,5.1861987E-3,5.7071983E-3,3.116425E-2,1.2396255E-3,-1.2850381E-3,-0E0,1.093939E-2,1.6968098E-3,-0E0,-1.0661221E-3,4.1507776E-3,-1.6195247E-3,-0E0,-6.125205E-4,1.2227349E-2,-2.3792055E-3,-0E0,6.5440075E-3,-3.635512E-4,9.134554E-4,-8.317094E-4,-9.3615375E-4,8.731899E-3,3.0650815E-3,-1.7530228E-3,1.9535162E-3,-0E0,1.771389E-2,-0E0,3.7791773E-3,-0E0,-0E0,1.4301101E-2,1.0886635E-2,-0E0,-0E0,-9.875537E-4,9.947002E-3,-0E0,1.3936252E-2,-0E0,2.3334015E-3,6.4753345E-3,-7.5772783E-4,8.406137E-3,2.0662531E-2,-0E0,8.3301426E-4,-1.3240671E-3,3.7936568E-3,-1.0415156E-3,1.7902445E-2,1.811118E-3,1.3649274E-2,1.265431E-3,1.2054441E-3,-2.9215202E-4,-1.3995303E-3,3.78457E-3,1.5758308E-2,-0E0,2.6679502E-3,-1.3145135E-3,3.596223E-4,3.1703738E-3,8.328698E-3,3.6082608E-3,5.1332074E-3,-0E0,6.1578164E-3,1.2546929E-2,-0E0,-1.0096839E-3,2.417925E-3,-0E0,-2.0600995E-3,-0E0],"categories":[],"categories_nodes":[],"categories_segments":[],"categories_sizes":[],"default_left":[0,0,0,0,0,0,0,0,0,0,0,0,0,0,0,0,0,0,0,0,0,0,0,0,0,0,0,0,0,0,0,0,0,0,0,0,0,0,0,0,0,0,0,0,0,0,0,0,0,0,0,0,0,0,0,0,0,0,0,0,0,0,0,0,0,0,0,0,0,0,0,0,0,0,0,0,0,0,0,0,0,0,0,0,0,0,0,0,0,0,0,0,0,0,0,0,0,0,0,0,0,0,0,0,0,0,0,0,0,0,0,0,0,0,0,0,0,0,0,0,0,0,0,0,0,0,0,0,0,0,0,0,0,0,0,0,0,0,0,0,0,0,0,0,0,0,0,0,0,0,0,0,0,0,0,0,0,0,0,0,0,0,0,0,0,0,0,0,0,0,0,0,0,0,0,0,0,0,0,0,0,0,0,0,0,0,0,0,0,0,0,0,0,0,0,0,0,0,0,0,0,0,0,0,0,0,0,0,0,0,0,0,0,0,0,0,0,0,0,0,0,0,0,0,0,0,0,0,0,0,0,0,0,0,0],"id":0,"left_children":[1,3,5,7,9,11,13,15,17,19,21,23,25,27,29,31,33,35,37,39,41,43,45,47,49,51,53,55,57,59,61,63,65,67,69,71,-1,73,75,77,79,81,83,85,87,89,91,93,95,97,99,101,103,105,107,109,111,113,115,117,119,121,123,125,-1,127,-1,129,131,133,135,137,139,-1,-1,141,-1,143,145,147,149,151,153,155,157,159,161,163,165,167,169,171,173,175,177,179,181,183,185,187,189,191,193,195,197,199,-1,201,203,205,207,209,211,213,215,217,219,221,223,225,227,229,231,233,-1,-1,-1,-1,-1,-1,-1,-1,-1,-1,-1,-1,-1,-1,-1,-1,-1,-1,-1,-1,-1,-1,-1,-1,-1,-1,-1,-1,-1,-1,-1,-1,-1,-1,-1,-1,-1,-1,-1,-1,-1,-1,-1,-1,-1,-1,-1,-1,-1,-1,-1,-1,-1,-1,-1,-1,-1,-1,-1,-1,-1,-1,-1,-1,-1,-1,-1,-1,-1,-1,-1,-1,-1,-1,-1,-1,-1,-1,-1,-1,-1,-1,-1,-1,-1,-1,-1,-1,-1,-1,-1,-1,-1,-1,-1,-1,-1,-1,-1,-1,-1,-1,-1,-1,-1,-1,-1,-1,-1,-1,-1],"loss_changes":[1.7956648E2,5.42807E0,4.329773E1,6.580734E-1,8.749573E0,2.1144928E1,7.6791267E0,4.5578766E-1,2.1270127E0,2.0409317E0,4.6962824E0,5.8740063E0,2.5755737E1,4.435128E0,2.7338028E0,3.3789253E-1,1.0459986E0,1.6970861E-1,1.6268412E0,9.319172E-1,2.7960482E0,5.8558955E0,2.3300636E-1,1.4484513E0,2.7874193E0,4.2145233E0,3.5867329E0,4.0656095E0,1.8670304E0,2.178009E0,5.3567663E-2,5.506134E-2,4.0950283E-1,7.937238E-1,4.3953133E-1,9.5880985E-2,0E0,1.2951491E-2,5.800042E-1,4.629917E-1,9.3558013E-1,2.980513E0,4.7881556E-1,3.7104678E0,8.5219765E-1,3.9316875E-1,3.2042038E-1,1.5696034E0,1.104011E0,1.4730663E0,5.178073E-1,1.3061947E0,1.9374237E0,1.7314057E0,3.7534628E0,8.091824E-1,3.14791E0,1.007104E0,1.8085897E0,1.2920351E0,1.2434769E0,2.42708E-3,2.7686656E-2,5.063629E-2,0E0,5.487527E-2,0E0,6.90284E-1,3.975153E-3,2.6413918E-2,4.9582925E-1,5.4448075E-3,5.344546E-2,0E0,0E0,6.1588887E-2,0E0,5.0281477E-1,2.632618E-1,6.004989E-2,1.5133412E0,2.1352694E0,6.7369616E-1,1.429162E-1,6.322818E-1,3.0438824E0,1.158512E0,6.88941E-1,1.746237E-2,4.8083657E-1,8.2817525E-2,5.9958035E-1,2.6963794E-1,1.2335587E0,4.119908E-2,5.959006E-1,6.658137E-1,2.0468514E-2,1.0028915E0,1.7376557E-1,1.6656375E-1,6.5875685E-1,2.8498825E-3,1.2854252E0,1.8565674E0,1.5623527E0,0E0,2.3519783E0,2.2856379E0,2.016473E-1,7.649114E-1,1.9226793E0,1.5745344E0,5.0503623E-1,5.4499274E-1,1.6885734E-1,1.2058005E0,5.6563413E-1,6.0475636E-1,1.386385E0,7.752781E-1,1.7734872E-2,2.0876808E-2,3.1404182E-2,0E0,0E0,0E0,0E0,0E0,0E0,0E0,0E0,0E0,0E0,0E0,0E0,0E0,0E0,0E0,0E0,0E0,0E0,0E0,0E0,0E0,0E0,0E0,0E0,0E0,0E0,0E0,0E0,0E0,0E0,0E0,0E0,0E0,0E0,0E0,0E0,0E0,0E0,0E0,0E0,0E0,0E0,0E0,0E0,0E0,0E0,0E0,0E0,0E0,0E0,0E0,0E0,0E0,0E0,0E0,0E0,0E0,0E0,0E0,0E0,0E0,0E0,0E0,0E0,0E0,0E0,0E0,0E0,0E0,0E0,0E0,0E0,0E0,0E0,0E0,0E0,0E0,0E0,0E0,0E0,0E0,0E0,0E0,0E0,0E0,0E0,0E0,0E0,0E0,0E0,0E0,0E0,0E0,0E0,0E0,0E0,0E0,0E0,0E0,0E0,0E0,0E0,0E0,0E0,0E0,0E0,0E0,0E0,0E0,0E0,0E0],"parents":[2147483647,0,0,1,1,2,2,3,3,4,4,5,5,6,6,7,7,8,8,9,9,10,10,11,11,12,12,13,13,14,14,15,15,16,16,17,17,18,18,19,19,20,20,21,21,22,22,23,23,24,24,25,25,26,26,27,27,28,28,29,29,30,30,31,31,32,32,33,33,34,34,35,35,37,37,38,38,39,39,40,40,41,41,42,42,43,43,44,44,45,45,46,46,47,47,48,48,49,49,50,50,51,51,52,52,53,53,54,54,55,55,56,56,57,57,58,58,59,59,60,60,61,61,62,62,63,63,65,65,67,67,68,68,69,69,70,70,71,71,72,72,75,75,77,77,78,78,79,79,80,80,81,81,82,82,83,83,84,84,85,85,86,86,87,87,88,88,89,89,90,90,91,91,92,92,93,93,94,94,95,95,96,96,97,97,98,98,99,99,100,100,101,101,102,102,103,103,104,104,105,105,107,107,108,108,109,109,110,110,111,111,112,112,113,113,114,114,115,115,116,116,117,117,118,118,119,119,120,120,121,121,122,122,123,123],"right_children":[2,4,6,8,10,12,14,16,18,20,22,24,26,28,30,32,34,36,38,40,42,44,46,48,50,52,54,56,58,60,62,64,66,68,70,72,-1,74,76,78,80,82,84,86,88,90,92,94,96,98,100,102,104,106,108,110,112,114,116,118,120,122,124,126,-1,128,-1,130,132,134,136,138,140,-1,-1,142,-1,144,146,148,150,152,154,156,158,160,162,164,166,168,170,172,174,176,178,180,182,184,186,188,190,192,194,196,198,200,-1,202,204,206,208,210,212,214,216,218,220,222,224,226,228,230,232,234,-1,-1,-1,-1,-1,-1,-1,-1,-1,-1,-1,-1,-1,-1,-1,-1,-1,-1,-1,-1,-1,-1,-1,-1,-1,-1,-1,-1,-1,-1,-1,-1,-1,-1,-1,-1,-1,-1,-1,-1,-1,-1,-1,-1,-1,-1,-1,-1,-1,-1,-1,-1,-1,-1,-1,-1,-1,-1,-1,-1,-1,-1,-1,-1,-1,-1,-1,-1,-1,-1,-1,-1,-1,-1,-1,-1,-1,-1,-1,-1,-1,-1,-1,-1,-1,-1,-1,-1,-1,-1,-1,-1,-1,-1,-1,-1,-1,-1,-1,-1,-1,-1,-1,-1,-1,-1,-1,-1,-1,-1,-1],"split_conditions":[9.531018E-2,7E1,2.7E1,3.3647224E-1,2.9E1,2.7E1,5.3062826E-1,2.9E1,3.3647224E-1,2.7E1,2.8E1,1.1939225E0,1.009E3,2.8E1,1.012E3,8.7546873E-1,1.01E3,3.2E1,1.009E3,1.8232156E-1,2.8E1,9.531018E-2,2.7E1,2.6E1,2.6E1,6.5E1,9.531018E-2,3.1E1,9.531018E-2,1.8232156E-1,9.531018E-2,7.6E1,7.4E1,3E1,3.3647224E-1,1.004E3,2.417925E-3,7.1E1,1.007E3,1.005E3,5.3062826E-1,1.009E3,9.5551145E-1,1.007E3,7.2E1,3.1E1,1.006E3,8.7546873E-1,1.8232156E-1,7E1,7.4E1,6.3E1,1.007E3,1.5475625E0,3.1E1,2.7E1,7.1E1,3.1E1,1.005E3,7.1E1,4.054651E-1,2.9E1,3.2E1,1.005E3,-0E0,3.3E1,1.0125631E-2,2.7E1,1.003E3,8.329091E-1,5.7E1,2.9E1,7.8845733E-1,-9.663942E-4,-0E0,2.7E1,1.4710627E-2,2.5E1,4.7000363E-1,1.4586151E0,7.3E1,1.007E3,3E1,2.1282318E0,1.011E3,4.054651E-1,1.011E3,6.6E1,1.009E3,2.5E1,9.531018E-2,1.5892352E0,3.5E1,1.1314021E0,1.007E3,1.7917595E0,1.5475625E0,1.011E3,1.012E3,2.6E1,1.007E3,6.3E1,1.009E3,6.4185387E-1,3.4E1,9.531018E-2,2.6113402E-2,7E1,1.013E3,3.1E1,1.012E3,5.8E1,7.4E1,7.1E1,3.2E1,7.4E1,7.3E1,1.1939225E0,6.4185387E-1,3.1E1,1.3350011E0,2.8E1,2.7E1,2.3887627E0,-0E0,-6.153973E-4,-2.8375273E-3,-1.5386058E-3,-0E0,-1.6504009E-3,2.095665E-4,-0E0,-2.8228064E-3,-2.6951612E-3,-0E0,1.1366836E-2,-4.9452425E-4,1.2049683E-3,-0E0,-2.2588496E-3,-0E0,-0E0,4.052623E-3,8.851305E-3,-4.8623388E-4,-2.5096822E-3,-1.7173379E-3,-1.7104895E-3,-0E0,-0E0,1.1256907E-2,-9.7510085E-4,7.0750825E-3,-4.896278E-4,1.2771643E-2,-1.9510974E-3,-0E0,-8.7795965E-4,5.1861987E-3,5.7071983E-3,3.116425E-2,1.2396255E-3,-1.2850381E-3,-0E0,1.093939E-2,1.6968098E-3,-0E0,-1.0661221E-3,4.1507776E-3,-1.6195247E-3,-0E0,-6.125205E-4,1.2227349E-2,-2.3792055E-3,-0E0,6.5440075E-3,-3.635512E-4,9.134554E-4,-8.317094E-4,-9.3615375E-4,8.731899E-3,3.0650815E-3,-1.7530228E-3,1.9535162E-3,-0E0,1.771389E-2,-0E0,3.7791773E-3,-0E0,-0E0,1.4301101E-2,1.0886635E-2,-0E0,-0E0,-9.875537E-4,9.947002E-3,-0E0,1.3936252E-2,-0E0,2.3334015E-3,6.4753345E-3,-7.5772783E-4,8.406137E-3,2.0662531E-2,-0E0,8.3301426E-4,-1.3240671E-3,3.7936568E-3,-1.0415156E-3,1.7902445E-2,1.811118E-3,1.3649274E-2,1.265431E-3,1.2054441E-3,-2.9215202E-4,-1.3995303E-3,3.78457E-3,1.5758308E-2,-0E0,2.6679502E-3,-1.3145135E-3,3.596223E-4,3.1703738E-3,8.328698E-3,3.6082608E-3,5.1332074E-3,-0E0,6.1578164E-3,1.2546929E-2,-0E0,-1.0096839E-3,2.417925E-3,-0E0,-2.0600995E-3,-0E0],"split_indices":[3,21,8,11,0,0,3,0,19,0,8,3,14,8,14,7,14,0,14,7,12,7,12,12,8,21,15,0,23,7,7,9,9,12,23,10,0,9,22,10,23,14,7,14,17,0,6,19,7,17,17,17,6,23,0,0,21,8,18,21,15,12,0,22,0,8,0,12,22,19,9,0,23,0,0,8,0,8,23,15,13,18,16,15,18,23,14,13,6,16,7,7,0,15,10,19,19,6,10,16,6,21,10,7,0,7,0,17,6,16,10,21,21,17,16,17,17,3,3,0,3,8,0,3,0,0,0,0,0,0,0,0,0,0,0,0,0,0,0,0,0,0,0,0,0,0,0,0,0,0,0,0,0,0,0,0,0,0,0,0,0,0,0,0,0,0,0,0,0,0,0,0,0,0,0,0,0,0,0,0,0,0,0,0,0,0,0,0,0,0,0,0,0,0,0,0,0,0,0,0,0,0,0,0,0,0,0,0,0,0,0,0,0,0,0,0,0,0,0,0,0,0,0,0,0,0,0,0,0,0,0,0,0,0,0],"split_type":[0,0,0,0,0,0,0,0,0,0,0,0,0,0,0,0,0,0,0,0,0,0,0,0,0,0,0,0,0,0,0,0,0,0,0,0,0,0,0,0,0,0,0,0,0,0,0,0,0,0,0,0,0,0,0,0,0,0,0,0,0,0,0,0,0,0,0,0,0,0,0,0,0,0,0,0,0,0,0,0,0,0,0,0,0,0,0,0,0,0,0,0,0,0,0,0,0,0,0,0,0,0,0,0,0,0,0,0,0,0,0,0,0,0,0,0,0,0,0,0,0,0,0,0,0,0,0,0,0,0,0,0,0,0,0,0,0,0,0,0,0,0,0,0,0,0,0,0,0,0,0,0,0,0,0,0,0,0,0,0,0,0,0,0,0,0,0,0,0,0,0,0,0,0,0,0,0,0,0,0,0,0,0,0,0,0,0,0,0,0,0,0,0,0,0,0,0,0,0,0,0,0,0,0,0,0,0,0,0,0,0,0,0,0,0,0,0,0,0,0,0,0,0,0,0,0,0,0,0,0,0,0,0,0,0],"sum_hessian":[9.079E3,6.377E3,2.702E3,2.804E3,3.573E3,1.035E3,1.667E3,2.673E3,1.31E2,2.784E3,7.89E2,3.27E2,7.08E2,9.89E2,6.78E2,1.452E3,1.221E3,1.15E2,1.6E1,1.93E3,8.54E2,4.84E2,3.05E2,2.82E2,4.5E1,4.17E2,2.91E2,2.45E2,7.44E2,6.42E2,3.6E1,1.437E3,1.5E1,4.11E2,8.1E2,1.14E2,1E0,7E0,9E0,1.671E3,2.59E2,2.78E2,5.76E2,4.43E2,4.1E1,9.9E1,2.06E2,9.7E1,1.85E2,2.5E1,2E1,2.1E1,3.96E2,2.23E2,6.8E1,1.63E2,8.2E1,5.67E2,1.77E2,2.69E2,3.73E2,1.3E1,2.3E1,1.435E3,2E0,1.4E1,1E0,3.02E2,1.09E2,7.91E2,1.9E1,3E0,1.11E2,6E0,1E0,3E0,6E0,2.4E1,1.647E3,2.07E2,5.2E1,5.8E1,2.2E2,5.36E2,4E1,2.1E1,4.22E2,3.5E1,6E0,2.3E1,7.6E1,4.2E1,1.64E2,7.5E1,2.2E1,8.3E1,1.02E2,4E0,2.1E1,1.7E1,3E0,1E1,1.1E1,4.6E1,3.5E2,2.22E2,1E0,5.1E1,1.7E1,7.8E1,8.5E1,4.5E1,3.7E1,3.48E2,2.19E2,5E0,1.72E2,1.41E2,1.28E2,3.14E2,5.9E1,1E1,3E0,2.2E1,1E0,1.6E1,1.419E3,1.3E1,1E0,1.59E2,1.43E2,1E0,1.08E2,7.9E2,1E0,1E0,1.8E1,1E0,2E0,1.09E2,2E0,2E0,1E0,2E0,2.2E1,1.344E3,3.03E2,1.87E2,2E1,4.7E1,5E0,1.6E1,4.2E1,2.19E2,1E0,5.29E2,7E0,3.2E1,8E0,1.9E1,2E0,3.33E2,8.9E1,2E0,3.3E1,2E0,4E0,9E0,1.4E1,5.2E1,2.4E1,4.1E1,1E0,1.51E2,1.3E1,6.6E1,9E0,4E0,1.8E1,8.1E1,2E0,9.2E1,1E1,2E0,2E0,2E1,1E0,7E0,1E1,1E0,2E0,8E0,2E0,4E0,7E0,3.9E1,7E0,3.46E2,4E0,1.69E2,5.3E1,1.3E1,3.8E1,1.4E1,3E0,5.4E1,2.4E1,7.3E1,1.2E1,3E0,4.2E1,3E1,7E0,2.01E2,1.47E2,2.12E2,7E0,4E0,1E0,1.37E2,3.5E1,9.2E1,4.9E1,1.7E1,1.11E2,2.89E2,2.5E1,4.2E1,1.7E1,3E0,7E0,1E0,2E0,2.1E1,1E0],"tree_param":{"num_deleted":"0","num_feature":"24","num_nodes":"235","size_leaf_vector":"1"}},{"base_weights":[-1.6591519E-3,-5.9266396E-2,1.4382459E-1,-9.771776E-2,4.9675785E-2,2.697226E-1,3.6930457E-2,-1.0919634E-1,-4.170291E-2,1.2240333E-1,-2.4950742E-3,4.160327E-1,6.0203195E-2,1.16008585E-2,1.8262573E-1,-1.16982915E-1,-6.623423E-2,7.9025656E-2,-8.010632E-2,8.232085E-2,3.9805388E-1,-3.0041177E-2,5.480725E-2,4.680352E-1,1.2282821E-1,-4.770368E-2,1.281915E-1,7.090671E-2,-3.7510645E-2,6.554114E-2,3.5781583E-1,-9.402428E-2,-1.2803788E-1,4.2215767E-3,-9.6984275E-2,-6.6751847E-3,1.7866826E-1,-9.827005E-2,-1.726437E-2,1.7252676E-1,1.8510956E-2,5.3337955E-1,9.682568E-2,-4.9449425E-2,3.0896004E-2,4.5026015E-2,5.1288915E-1,5.573694E-1,3.5431E-1,3.1118616E-2,2.737997E-1,-8.3453655E-2,7.074011E-2,1.875115E-1,4.9823698E-2,-8.81223E-2,1.04496546E-1,-5.034493E-2,7.625311E-2,-1.328464E-2,1.5580931E-1,5.204394E-1,1.9452372E-1,-7.975331E-3,-1.1556239E-1,-1.2854402E-1,1.5804935E-1,-9.948144E-2,5.5307303E-2,-1.0895886E-1,-3.9689798E-2,1.3234725E-2,-1.129703E-1,4.822654E-1,7.0642136E-2,-3.423512E-2,-1.05880186E-1,-3.448273E-2,4.3026972E-1,1.4088489E-1,5.2946633E-1,4.6077706E-2,-3.5180826E-2,1.5119357E-1,8.242281E-1,-1.8396035E-2,1.700203E-2,-7.61513E-4,-7.6930456E-2,-2.1028626E-3,1.5841469E-1,1.8200439E-1,1.9067422E-2,-0E0,2.0421071E-2,5.759559E-1,-4.442817E-2,2.0895384E-1,4.2960826E-1,6.5771574E-3,9.750286E-3,7.0992184E-1,9.077575E-2,-4.766844E-2,-1.22542225E-1,1.5898846E-2,1.4022951E-2,2.2332661E-1,-0E0,2.9457715E-1,2.0800782E-2,-1.270385E-1,-1.1910187E-2,1.9031535E-1,3.2178406E-2,-2.1055438E-2,-8.6864464E-2,-4.3542273E-3,1.5170592E-1,4.0752083E-2,-1.9960073E-3,2.924662E-1,3.0129055E-2,2.869867E-1,8.624649E-1,2.7790887E-2,2.96046E-1,-4.8353794E-4,1.3873565E-2,-2.5034558E-3,-2.3506714E-4,-2.5870816E-3,-0E0,-0E0,7.2631594E-3,-2.3531972E-3,2.6249448E-3,1.9169995E-3,-2.3120302E-3,-2.2501955E-3,7.652771E-4,-1.6457727E-3,4.9663247E-3,3.7084222E-3,-5.449492E-4,-0E0,-2.4085797E-3,1.5907945E-2,-0E0,-0E0,6.00043E-3,-1.296102E-3,3.418571E-4,-1.1722483E-3,-2.2545492E-3,-1.2076611E-3,1.5997336E-3,-0E0,1.7883526E-2,2.1902802E-3,1.0586884E-2,1.325603E-2,-0E0,4.3015988E-4,4.1633383E-3,2.0870528E-5,-1.732483E-3,-0E0,6.6141156E-3,1.8236034E-2,-0E0,-1.2779562E-3,4.2599966E-3,-2.2016666E-4,3.7758618E-3,-1.6943568E-3,2.6785976E-3,-1.0181292E-3,5.2142155E-4,5.2263658E-3,-0E0,1.3859762E-2,2.2798858E-3,1.9790707E-4,7.216948E-3,1.1905006E-2,-6.469368E-4,-1.4630333E-3,-0E0,2.888106E-3,1.3293982E-2,-0E0,9.529116E-3,-5.8878213E-4,1.2815781E-3,1.8093815E-2,-0E0,5.962971E-3,-1.2101892E-3,-1.3082732E-3,-0E0,-2.5701514E-3,-0E0,-3.1812972E-4,5.012512E-3,3.3298659E-3,7.0131575E-3,-6.574196E-4,1.505901E-3,2.022939E-3,1.696137E-2,1.7494049E-4,1.3298482E-2,-0E0,-2.5668305E-3,-1.427974E-3,1.8235118E-3,3.2884448E-3,2.4349885E-2,-6.8320915E-5,2.8183088E-3,8.044034E-4,-9.7575254E-4,-1.966155E-3,1.9905034E-3,4.147954E-3,-1.098476E-3,6.1763064E-3,-0E0,-4.0561083E-4,2.5542064E-3,7.9960255E-3,-1.6279142E-4,-0E0,7.5510303E-3,8.934961E-3,-0E0,2.9783845E-3,2.9036924E-2,-1.0157054E-3,6.180846E-3,7.2525865E-3,-0E0],"categories":[],"categories_nodes":[],"categories_segments":[],"categories_sizes":[],"default_left":[0,0,0,0,0,0,0,0,0,0,0,0,0,0,0,0,0,0,0,0,0,0,0,0,0,0,0,0,0,0,0,0,0,0,0,0,0,0,0,0,0,0,0,0,0,0,0,0,0,0,0,0,0,0,0,0,0,0,0,0,0,0,0,0,0,0,0,0,0,0,0,0,0,0,0,0,0,0,0,0,0,0,0,0,0,0,0,0,0,0,0,0,0,0,0,0,0,0,0,0,0,0,0,0,0,0,0,0,0,0,0,0,0,0,0,0,0,0,0,0,0,0,0,0,0,0,0,0,0,0,0,0,0,0,0,0,0,0,0,0,0,0,0,0,0,0,0,0,0,0,0,0,0,0,0,0,0,0,0,0,0,0,0,0,0,0,0,0,0,0,0,0,0,0,0,0,0,0,0,0,0,0,0,0,0,0,0,0,0,0,0,0,0,0,0,0,0,0,0,0,0,0,0,0,0,0,0,0,0,0,0,0,0,0,0,0,0,0,0,0,0,0,0,0,0,0,0,0,0,0,0,0,0,0,0,0,0,0,0,0,0,0,0],"id":1,"left_children":[1,3,5,7,9,11,13,15,17,19,21,23,25,27,29,31,33,35,37,39,41,43,45,47,49,51,53,55,57,59,61,63,65,67,69,71,73,75,77,79,81,83,85,87,89,91,93,95,97,99,101,103,105,107,109,111,113,115,117,119,121,123,125,127,129,131,133,135,137,139,141,143,145,147,149,151,153,155,157,159,161,163,165,167,169,171,-1,173,175,177,179,181,183,-1,-1,185,187,189,191,193,-1,195,197,199,201,203,-1,205,207,209,211,213,215,217,219,221,223,225,227,229,-1,231,233,235,237,239,241,-1,-1,-1,-1,-1,-1,-1,-1,-1,-1,-1,-1,-1,-1,-1,-1,-1,-1,-1,-1,-1,-1,-1,-1,-1,-1,-1,-1,-1,-1,-1,-1,-1,-1,-1,-1,-1,-1,-1,-1,-1,-1,-1,-1,-1,-1,-1,-1,-1,-1,-1,-1,-1,-1,-1,-1,-1,-1,-1,-1,-1,-1,-1,-1,-1,-1,-1,-1,-1,-1,-1,-1,-1,-1,-1,-1,-1,-1,-1,-1,-1,-1,-1,-1,-1,-1,-1,-1,-1,-1,-1,-1,-1,-1,-1,-1,-1,-1,-1,-1,-1,-1,-1,-1,-1,-1,-1,-1,-1,-1,-1,-1,-1,-1,-1,-1],"loss_changes":[7.677728E1,2.7541739E1,3.479822E1,3.0461464E0,6.550186E0,3.624391E1,5.0960693E0,1.250824E0,3.8727713E0,7.681963E0,1.5550574E0,1.0341339E1,3.6491444E0,3.5204291E0,3.9918237E0,7.4500656E-1,1.408243E0,1.7816746E0,6.679139E-1,3.5263052E0,3.3074465E0,8.101263E-1,1.1276076E0,5.464966E0,1.3316755E0,8.0325156E-1,1.2922139E0,2.9480877E0,9.4312537E-1,9.652874E-1,1.7295885E0,2.0144281E0,3.250389E-1,9.686932E-1,2.2710276E-1,2.7177143E-1,2.8057742E0,1.6569614E-1,9.6154237E-1,2.5357933E0,5.575992E-1,6.1750507E0,2.984087E0,6.5621257E-1,7.410781E-1,1.0053501E0,1.159572E0,3.9529343E0,2.5308037E0,5.2979386E-1,2.6405299E0,1.1829579E-1,1.036083E0,1.0975647E0,8.017659E-1,2.0707941E-1,2.7188473E0,5.7781696E-1,4.541343E-1,3.3309686E-1,8.9056337E-1,2.375617E0,5.5336964E-1,2.2825649E0,8.202057E-1,2.0745468E-1,1.353766E-1,2.4629319E-1,8.860538E-1,2.2669029E-1,9.6391004E-1,6.706186E-1,2.1184355E-2,3.7078962E0,1.2184186E0,1.17771134E-1,4.9712658E-2,4.239908E-1,1.1657844E0,2.5580206E0,1.3427143E0,8.8850135E-1,2.673874E-1,7.384429E-1,2.5988712E0,2.007416E-1,0E0,2.899303E-1,5.1555467E-1,1.8151753E-1,5.772958E-1,1.1729807E0,6.4514035E-1,0E0,0E0,4.0409927E0,2.1382043E-2,2.2980084E0,3.4204693E0,1.5805547E-1,0E0,1.66507E0,1.0219545E0,7.542652E-2,7.85833E-2,4.0677702E-1,0E0,7.362199E-1,7.95174E-2,8.207768E-1,6.1912346E-1,2.6627183E-3,2.171998E-1,4.674605E0,1.0424048E0,5.770816E-1,5.4924154E-1,2.2393422E-1,9.472664E-1,2.4872601E-1,0E0,1.0847604E0,4.6759033E-1,1.2752793E0,5.189496E0,5.458196E-1,5.4849124E-1,0E0,0E0,0E0,0E0,0E0,0E0,0E0,0E0,0E0,0E0,0E0,0E0,0E0,0E0,0E0,0E0,0E0,0E0,0E0,0E0,0E0,0E0,0E0,0E0,0E0,0E0,0E0,0E0,0E0,0E0,0E0,0E0,0E0,0E0,0E0,0E0,0E0,0E0,0E0,0E0,0E0,0E0,0E0,0E0,0E0,0E0,0E0,0E0,0E0,0E0,0E0,0E0,0E0,0E0,0E0,0E0,0E0,0E0,0E0,0E0,0E0,0E0,0E0,0E0,0E0,0E0,0E0,0E0,0E0,0E0,0E0,0E0,0E0,0E0,0E0,0E0,0E0,0E0,0E0,0E0,0E0,0E0,0E0,0E0,0E0,0E0,0E0,0E0,0E0,0E0,0E0,0E0,0E0,0E0,0E0,0E0,0E0,0E0,0E0,0E0,0E0,0E0,0E0,0E0,0E0,0E0,0E0,0E0,0E0,0E0,0E0,0E0,0E0,0E0,0E0,0E0],"parents":[2147483647,0,0,1,1,2,2,3,3,4,4,5,5,6,6,7,7,8,8,9,9,10,10,11,11,12,12,13,13,14,14,15,15,16,16,17,17,18,18,19,19,20,20,21,21,22,22,23,23,24,24,25,25,26,26,27,27,28,28,29,29,30,30,31,31,32,32,33,33,34,34,35,35,36,36,37,37,38,38,39,39,40,40,41,41,42,42,43,43,44,44,45,45,46,46,47,47,48,48,49,49,50,50,51,51,52,52,53,53,54,54,55,55,56,56,57,57,58,58,59,59,60,60,61,61,62,62,63,63,64,64,65,65,66,66,67,67,68,68,69,69,70,70,71,71,72,72,73,73,74,74,75,75,76,76,77,77,78,78,79,79,80,80,81,81,82,82,83,83,84,84,85,85,87,87,88,88,89,89,90,90,91,91,92,92,95,95,96,96,97,97,98,98,99,99,101,101,102,102,103,103,104,104,105,105,107,107,108,108,109,109,110,110,111,111,112,112,113,113,114,114,115,115,116,116,117,117,118,118,119,119,121,121,122,122,123,123,124,124,125,125,126,126],"right_children":[2,4,6,8,10,12,14,16,18,20,22,24,26,28,30,32,34,36,38,40,42,44,46,48,50,52,54,56,58,60,62,64,66,68,70,72,74,76,78,80,82,84,86,88,90,92,94,96,98,100,102,104,106,108,110,112,114,116,118,120,122,124,126,128,130,132,134,136,138,140,142,144,146,148,150,152,154,156,158,160,162,164,166,168,170,172,-1,174,176,178,180,182,184,-1,-1,186,188,190,192,194,-1,196,198,200,202,204,-1,206,208,210,212,214,216,218,220,222,224,226,228,230,-1,232,234,236,238,240,242,-1,-1,-1,-1,-1,-1,-1,-1,-1,-1,-1,-1,-1,-1,-1,-1,-1,-1,-1,-1,-1,-1,-1,-1,-1,-1,-1,-1,-1,-1,-1,-1,-1,-1,-1,-1,-1,-1,-1,-1,-1,-1,-1,-1,-1,-1,-1,-1,-1,-1,-1,-1,-1,-1,-1,-1,-1,-1,-1,-1,-1,-1,-1,-1,-1,-1,-1,-1,-1,-1,-1,-1,-1,-1,-1,-1,-1,-1,-1,-1,-1,-1,-1,-1,-1,-1,-1,-1,-1,-1,-1,-1,-1,-1,-1,-1,-1,-1,-1,-1,-1,-1,-1,-1,-1,-1,-1,-1,-1,-1,-1,-1,-1,-1,-1,-1],"split_conditions":[7.2E1,9.531018E-2,1.009E3,1.8232156E-1,2.8E1,2.8E1,9.531018E-2,7.1E1,2.8E1,2.8E1,7.8845733E-1,2.9E1,9.531018E-2,7.3E1,3E1,1.009E3,2.7E1,2.7E1,2.7E1,2.8E1,3.3E1,9.531018E-2,3.4E1,1.008E3,1.007E3,3.1E1,2.8E1,7E1,9.531018E-2,9.531018E-2,1.01E3,2.9E1,8.1E1,7E1,2.6236427E-1,7.2E1,1.009E3,1.007E3,8.7546873E-1,7.2E1,4.7000363E-1,2.6E1,6.9E1,3E1,2.8E1,2.6E1,6.8E1,2.8E1,1.009E3,1.0296195E0,2.7E1,1.008E3,1.8232156E-1,3.3E1,2.7E1,6.9E1,7.1E1,2.8E1,2.9E1,1.009E3,2.6E1,1.01E3,9.531018E-2,7.6E1,2.6236427E-1,1.3609766E0,2.9E1,9.531018E-2,2.9E1,2.1282318E0,1.011E3,1.008E3,2.6E1,2.8E1,1.011E3,6.4185387E-1,2.6E1,1.1631508E0,2.8E1,1.3609766E0,2.7E1,3.3647224E-1,4.7000363E-1,9.531018E-2,1.011E3,9.531018E-2,1.700203E-2,1.704748E0,2.6236427E-1,1.8232156E-1,4.054651E-1,1.006E3,1.5686159E0,-0E0,2.0421071E-2,3.4E1,1.8232156E-1,7.2E1,2.4E1,2.7E1,9.750286E-3,3E1,2.8E1,9.531018E-2,1.0986123E0,3.5E1,1.4022951E-2,2.7E1,9.531018E-2,1.2809339E0,2.6741486E0,1.007E3,1.013E3,9.1629076E-1,7.2E1,1.01E3,1.3350011E0,7.3E1,2.6236427E-1,2.6E1,-1.9960073E-3,3.1E1,3.2E1,2.7E1,7.2E1,7.3E1,4.7000363E-1,-4.8353794E-4,1.3873565E-2,-2.5034558E-3,-2.3506714E-4,-2.5870816E-3,-0E0,-0E0,7.2631594E-3,-2.3531972E-3,2.6249448E-3,1.9169995E-3,-2.3120302E-3,-2.2501955E-3,7.652771E-4,-1.6457727E-3,4.9663247E-3,3.7084222E-3,-5.449492E-4,-0E0,-2.4085797E-3,1.5907945E-2,-0E0,-0E0,6.00043E-3,-1.296102E-3,3.418571E-4,-1.1722483E-3,-2.2545492E-3,-1.2076611E-3,1.5997336E-3,-0E0,1.7883526E-2,2.1902802E-3,1.0586884E-2,1.325603E-2,-0E0,4.3015988E-4,4.1633383E-3,2.0870528E-5,-1.732483E-3,-0E0,6.6141156E-3,1.8236034E-2,-0E0,-1.2779562E-3,4.2599966E-3,-2.2016666E-4,3.7758618E-3,-1.6943568E-3,2.6785976E-3,-1.0181292E-3,5.2142155E-4,5.2263658E-3,-0E0,1.3859762E-2,2.2798858E-3,1.9790707E-4,7.216948E-3,1.1905006E-2,-6.469368E-4,-1.4630333E-3,-0E0,2.888106E-3,1.3293982E-2,-0E0,9.529116E-3,-5.8878213E-4,1.2815781E-3,1.8093815E-2,-0E0,5.962971E-3,-1.2101892E-3,-1.3082732E-3,-0E0,-2.5701514E-3,-0E0,-3.1812972E-4,5.012512E-3,3.3298659E-3,7.0131575E-3,-6.574196E-4,1.505901E-3,2.022939E-3,1.696137E-2,1.7494049E-4,1.3298482E-2,-0E0,-2.5668305E-3,-1.427974E-3,1.8235118E-3,3.2884448E-3,2.4349885E-2,-6.8320915E-5,2.8183088E-3,8.044034E-4,-9.7575254E-4,-1.966155E-3,1.9905034E-3,4.147954E-3,-1.098476E-3,6.1763064E-3,-0E0,-4.0561083E-4,2.5542064E-3,7.9960255E-3,-1.6279142E-4,-0E0,7.5510303E-3,8.934961E-3,-0E0,2.9783845E-3,2.9036924E-2,-1.0157054E-3,6.180846E-3,7.2525865E-3,-0E0],"split_indices":[1,7,14,23,8,8,19,1,20,4,7,20,7,5,0,14,12,0,0,20,0,23,16,14,22,0,12,21,23,7,14,16,17,5,11,17,14,6,11,21,23,16,21,8,0,0,5,12,6,15,8,6,15,4,0,13,21,12,8,22,20,22,7,21,11,15,0,11,8,15,22,14,16,8,22,19,12,23,8,7,12,23,19,11,14,23,0,15,19,23,23,14,15,0,0,0,7,17,8,8,0,4,12,19,11,4,0,20,11,11,11,6,22,23,5,14,7,1,7,8,0,8,4,12,5,21,15,0,0,0,0,0,0,0,0,0,0,0,0,0,0,0,0,0,0,0,0,0,0,0,0,0,0,0,0,0,0,0,0,0,0,0,0,0,0,0,0,0,0,0,0,0,0,0,0,0,0,0,0,0,0,0,0,0,0,0,0,0,0,0,0,0,0,0,0,0,0,0,0,0,0,0,0,0,0,0,0,0,0,0,0,0,0,0,0,0,0,0,0,0,0,0,0,0,0,0,0,0,0,0,0,0,0,0,0,0,0,0,0,0,0,0,0],"split_type":[0,0,0,0,0,0,0,0,0,0,0,0,0,0,0,0,0,0,0,0,0,0,0,0,0,0,0,0,0,0,0,0,0,0,0,0,0,0,0,0,0,0,0,0,0,0,0,0,0,0,0,0,0,0,0,0,0,0,0,0,0,0,0,0,0,0,0,0,0,0,0,0,0,0,0,0,0,0,0,0,0,0,0,0,0,0,0,0,0,0,0,0,0,0,0,0,0,0,0,0,0,0,0,0,0,0,0,0,0,0,0,0,0,0,0,0,0,0,0,0,0,0,0,0,0,0,0,0,0,0,0,0,0,0,0,0,0,0,0,0,0,0,0,0,0,0,0,0,0,0,0,0,0,0,0,0,0,0,0,0,0,0,0,0,0,0,0,0,0,0,0,0,0,0,0,0,0,0,0,0,0,0,0,0,0,0,0,0,0,0,0,0,0,0,0,0,0,0,0,0,0,0,0,0,0,0,0,0,0,0,0,0,0,0,0,0,0,0,0,0,0,0,0,0,0,0,0,0,0,0,0,0,0,0,0,0,0,0,0,0,0,0,0],"sum_hessian":[9.165E3,6.568E3,2.597E3,4.858E3,1.71E3,1.19E3,1.407E3,4.024E3,8.34E2,7.18E2,9.92E2,6.99E2,4.91E2,1.202E3,2.05E2,3.396E3,6.28E2,1.98E2,6.36E2,6.29E2,8.9E1,6.76E2,3.16E2,5.92E2,1.07E2,1.87E2,3.04E2,5.49E2,6.53E2,1.25E2,8E1,1.12E3,2.276E3,1.86E2,4.42E2,1.04E2,9.4E1,4.87E2,1.49E2,2.57E2,3.72E2,6E1,2.9E1,5.19E2,1.57E2,3.11E2,5E0,3.28E2,2.64E2,6.9E1,3.8E1,1.47E2,4E1,1.69E2,1.35E2,9.3E1,4.56E2,5.91E2,6.2E1,6.4E1,6.1E1,3.8E1,4.2E1,2.29E2,8.91E2,2.274E3,2E0,5.8E1,1.28E2,3.58E2,8.4E1,8.4E1,2E1,2.3E1,7.1E1,5.9E1,4.28E2,1.45E2,4E0,2.38E2,1.9E1,2.52E2,1.2E2,2.7E1,3.3E1,2.5E1,4E0,1.94E2,3.25E2,1.22E2,3.5E1,4.6E1,2.65E2,3E0,2E0,3.19E2,9E0,9.3E1,1.71E2,6.7E1,2E0,1E1,2.8E1,8.4E1,6.3E1,3.8E1,2E0,1.41E2,2.8E1,1.2E1,1.23E2,5.7E1,3.6E1,2.05E2,2.51E2,3.36E2,2.55E2,2.7E1,3.5E1,3.6E1,2.8E1,2.7E1,3.4E1,2.4E1,1.4E1,1.8E1,2.4E1,2.25E2,4E0,8.11E2,8E1,2.258E3,1.6E1,1E0,1E0,5.6E1,2E0,1.06E2,2.2E1,3.53E2,5E0,7.5E1,9E0,1.8E1,6.6E1,1E0,1.9E1,1.4E1,9E0,5.4E1,1.7E1,4.3E1,1.6E1,6.4E1,3.64E2,1.22E2,2.3E1,2E0,2E0,2.22E2,1.6E1,1.5E1,4E0,2.22E2,3E1,6.5E1,5.5E1,1.5E1,1.2E1,3E1,3E0,2.3E1,2E0,1.87E2,7E0,3.16E2,9E0,5.1E1,7.1E1,2.1E1,1.4E1,4E0,4.2E1,2.6E2,5E0,3.1E2,9E0,7E0,2E0,8.3E1,1E1,1.7E1,1.54E2,3.6E1,3.1E1,8E0,2E0,1.3E1,1.5E1,6.2E1,2.2E1,6.2E1,1E0,3.2E1,6E0,1.01E2,4E1,1.8E1,1E1,1E1,2E0,1.22E2,1E0,1E0,5.6E1,2.6E1,1E1,2.01E2,4E0,1.86E2,6.5E1,9.9E1,2.37E2,2.43E2,1.2E1,3E0,2.4E1,1.8E1,1.7E1,1.8E1,1.8E1,2.1E1,6E0,3.1E1,3E0,1.6E1,8E0,7E0,7E0,1.3E1,5E0,2E1,4E0],"tree_param":{"num_deleted":"0","num_feature":"24","num_nodes":"243","size_leaf_vector":"1"}},{"base_weights":[-3.0082315E-3,-8.859101E-2,2.0002797E-1,-1.0818129E-1,-1.1296754E-2,3.3538282E-1,1.169499E-1,-1.1627741E-1,-7.319455E-2,5.2533947E-2,-8.659939E-2,1.8710446E-1,4.6832123E-1,5.879493E-2,1.9005989E-1,-1.2097866E-1,-7.892281E-2,6.947183E-3,-8.951742E-2,1.8493761E-1,-1.2723337E-2,-5.9375625E-2,-2.5576602E-3,1.4509313E-1,4.7826886E-1,5.471514E-1,1.867669E-1,1.8199806E-1,1.61462E-2,2.2758473E-1,9.208908E-2,-1.0804128E-1,-1.3335265E-1,-9.08679E-2,4.1116416E-2,1.9830991E-1,-3.2506257E-2,-5.496808E-2,-9.908886E-2,3.0390933E-1,1.0714911E-1,-9.382476E-2,8.728672E-3,-2.5718307E-2,-9.21446E-2,2.3863004E-1,5.2364267E-2,5.1514316E-1,-0E0,-2.9582318E-2,5.5681163E-1,1.8452713E-2,3.321218E-1,3.0613549E-2,3.8323557E-1,-1.3262545E-2,9.17182E-2,2.6005945E-1,9.756712E-2,5.9126362E-2,3.1803098E-1,-8.418641E-2,-1.216155E-1,-2.6890151E-3,-7.977875E-3,-3.790837E-2,-1.0674782E-1,1.0464136E-2,-0E0,5.329475E-1,8.025464E-2,-4.635937E-2,2.494208E-1,-8.3635315E-2,5.5677105E-2,-1.039738E-1,-1.2891613E-2,4.235381E-1,7.219833E-2,4.663718E-2,2.5475505E-1,-1.1875934E-1,-0E0,1.3552476E-1,-1.0987039E-2,-8.6897045E-2,1.0055322E-2,-9.834291E-2,3.4675552E-3,1.9405831E-1,6.4230186E-1,-1.2933276E-2,1.1015193E-1,5.773441E-1,8.574122E-2,-0E0,8.31604E-3,-0E0,-8.166066E-4,5.7032E-1,1.00403704E-1,8.77924E-2,-4.0604983E-2,1.2714681E-1,5.286997E-1,8.3910204E-2,-7.0864237E-3,-0E0,5.063261E-1,1.9059552E-2,-7.565324E-2,8.122156E-2,1.4136158E-2,1.9429015E-1,2.9371214E-1,6.284796E-2,4.475919E-1,-1.6059805E-2,1.4828165E-1,-0E0,5.165728E-1,-9.687059E-4,-2.2552302E-3,-2.7445883E-3,-1.719165E-3,-2.0194845E-3,4.4556814E-3,-1.6032428E-3,4.996142E-3,-2.1611552E-3,-0E0,1.5261985E-3,-2.1472469E-3,2.0966733E-2,-0E0,1.4896155E-2,2.3890869E-4,3.3001767E-3,-1.1970385E-3,-0E0,2.0882819E-2,3.753809E-4,-1.8864244E-3,6.124075E-3,-0E0,-0E0,-2.0986886E-3,1.079406E-3,-2.1698563E-3,-3.0704872E-5,9.655696E-3,-0E0,9.1670975E-3,3.367631E-3,-0E0,6.1857067E-3,-0E0,-4.095501E-4,-2.6059912E-3,2.3809086E-4,-1.1815375E-3,-0E0,4.2418954E-3,3.166545E-4,-2.0072912E-3,-2.0167374E-3,6.021588E-3,-4.4078744E-4,3.4828933E-3,-0E0,-2.1746487E-3,2.3441531E-3,-0E0,5.032751E-3,1.2621284E-3,1.447456E-2,-0E0,5.792228E-4,-1.1557606E-3,1.4059911E-3,1.2678549E-2,1.36216665E-2,5.8086812E-3,6.0710614E-3,-0E0,5.6940666E-4,-0E0,6.137342E-3,1.1974128E-2,4.533459E-3,-0E0,3.4033116E-3,-0E0,-1.084874E-3,-0E0,5.422391E-3,2.373433E-4,1.3025706E-2,4.3314146E-3,1.1622945E-3,9.827576E-3,-7.7176065E-4,9.1505307E-4,6.4887945E-3,-1.090627E-3,1.2385225E-2,2.2919986E-3,1.161215E-3,-8.547049E-4,-0E0,-1.9060791E-3,3.6084037E-3,6.5842003E-4,-0E0,4.866488E-3,2.0220599E-3,6.324998E-3,-0E0,4.7166296E-3,1.6014133E-2,-0E0,4.8742285E-3,-7.364851E-4,3.7405826E-3,-1.0963647E-4,-0E0,-1.7408427E-4,1.5775127E-2,2.1398643E-3],"categories":[],"categories_nodes":[],"categories_segments":[],"categories_sizes":[],"default_left":[0,0,0,0,0,0,0,0,0,0,0,0,0,0,0,0,0,0,0,0,0,0,0,0,0,0,0,0,0,0,0,0,0,0,0,0,0,0,0,0,0,0,0,0,0,0,0,0,0,0,0,0,0,0,0,0,0,0,0,0,0,0,0,0,0,0,0,0,0,0,0,0,0,0,0,0,0,0,0,0,0,0,0,0,0,0,0,0,0,0,0,0,0,0,0,0,0,0,0,0,0,0,0,0,0,0,0,0,0,0,0,0,0,0,0,0,0,0,0,0,0,0,0,0,0,0,0,0,0,0,0,0,0,0,0,0,0,0,0,0,0,0,0,0,0,0,0,0,0,0,0,0,0,0,0,0,0,0,0,0,0,0,0,0,0,0,0,0,0,0,0,0,0,0,0,0,0,0,0,0,0,0,0,0,0,0,0,0,0,0,0,0,0,0,0,0,0,0,0,0,0,0,0,0,0,0,0,0,0,0,0,0,0,0,0,0,0,0,0,0,0,0,0,0,0,0,0,0,0],"id":2,"left_children":[1,3,5,7,9,11,13,15,17,19,21,23,25,27,29,31,33,35,37,39,41,43,-1,45,47,49,51,53,55,57,59,61,63,65,67,69,71,73,75,77,79,81,83,85,87,89,91,93,95,97,99,101,103,105,107,109,111,113,115,117,119,121,123,-1,125,127,129,-1,131,133,135,137,139,141,143,145,147,149,151,153,155,157,159,161,163,165,167,169,171,173,175,177,179,181,183,-1,185,-1,-1,187,189,191,193,195,197,199,201,203,205,207,209,211,-1,213,215,217,219,221,223,225,227,-1,-1,-1,-1,-1,-1,-1,-1,-1,-1,-1,-1,-1,-1,-1,-1,-1,-1,-1,-1,-1,-1,-1,-1,-1,-1,-1,-1,-1,-1,-1,-1,-1,-1,-1,-1,-1,-1,-1,-1,-1,-1,-1,-1,-1,-1,-1,-1,-1,-1,-1,-1,-1,-1,-1,-1,-1,-1,-1,-1,-1,-1,-1,-1,-1,-1,-1,-1,-1,-1,-1,-1,-1,-1,-1,-1,-1,-1,-1,-1,-1,-1,-1,-1,-1,-1,-1,-1,-1,-1,-1,-1,-1,-1,-1,-1,-1,-1,-1,-1,-1,-1,-1,-1,-1,-1,-1,-1],"loss_changes":[1.5782645E2,9.620796E0,3.0031433E1,1.3443413E0,6.260703E0,1.9764175E1,6.976717E0,6.1977005E-1,1.3111491E0,6.1311765E0,5.7634974E-1,5.5923576E0,1.1489548E1,4.815003E0,2.5373077E0,4.566536E-1,7.071197E-1,1.2903368E0,1.8860054E-1,1.9391451E0,8.5456884E-1,3.4741116E-1,0E0,3.547533E0,8.52705E-1,2.597908E0,2.7452512E0,7.0224667E0,1.5922366E0,2.0399761E0,1.3548563E0,4.7726822E-1,1.8219376E-1,2.919011E-1,8.913315E-1,8.3743215E-1,4.1392732E-1,6.142089E-1,2.0343304E-1,2.217721E0,1.1340258E0,2.189343E-1,9.7421783E-1,4.557833E-1,1.5398598E-1,3.2888966E0,8.700345E-1,1.0993586E0,3.1120435E-4,3.4809005E-3,2.1730423E0,2.60841E-1,2.1568131E0,3.1498554E-1,4.595257E0,1.034292E0,8.717847E-1,6.5595245E-1,1.0614209E0,1.3040502E0,1.6581147E0,6.0164785E-1,5.158119E-1,0E0,3.9027318E-1,1.2442316E0,8.047652E-2,0E0,3.0956578E-1,2.00032E0,6.8395966E-1,3.131246E-1,1.3553972E0,2.066338E-1,5.9315765E-1,4.0221214E-2,2.8267607E-1,1.6890869E0,7.75992E-1,5.785766E-1,6.4096856E-1,1.3445854E-2,2.5165573E-2,6.326735E-1,7.921493E-1,3.2338685E-1,6.8624055E-1,1.9592905E-1,3.426593E-2,1.2710791E0,1.1214314E0,2.0034787E-1,2.1200113E0,7.993536E-1,2.6001742E-1,0E0,2.5257552E-3,0E0,0E0,2.4355164E0,9.512062E-2,1.847878E-1,2.3804884E-2,3.963046E-1,6.6255283E-1,3.6790302E-1,1.2297141E-1,5.37609E-1,2.9376812E0,7.8856134E-1,2.8984642E-1,8.4144235E-1,0E0,1.528738E0,9.5391273E-1,1.0729254E0,1.182213E0,4.2695943E-1,6.126069E-1,4.924616E-4,1.2378821E0,0E0,0E0,0E0,0E0,0E0,0E0,0E0,0E0,0E0,0E0,0E0,0E0,0E0,0E0,0E0,0E0,0E0,0E0,0E0,0E0,0E0,0E0,0E0,0E0,0E0,0E0,0E0,0E0,0E0,0E0,0E0,0E0,0E0,0E0,0E0,0E0,0E0,0E0,0E0,0E0,0E0,0E0,0E0,0E0,0E0,0E0,0E0,0E0,0E0,0E0,0E0,0E0,0E0,0E0,0E0,0E0,0E0,0E0,0E0,0E0,0E0,0E0,0E0,0E0,0E0,0E0,0E0,0E0,0E0,0E0,0E0,0E0,0E0,0E0,0E0,0E0,0E0,0E0,0E0,0E0,0E0,0E0,0E0,0E0,0E0,0E0,0E0,0E0,0E0,0E0,0E0,0E0,0E0,0E0,0E0,0E0,0E0,0E0,0E0,0E0,0E0,0E0,0E0,0E0,0E0,0E0,0E0,0E0],"parents":[2147483647,0,0,1,1,2,2,3,3,4,4,5,5,6,6,7,7,8,8,9,9,10,10,11,11,12,12,13,13,14,14,15,15,16,16,17,17,18,18,19,19,20,20,21,21,23,23,24,24,25,25,26,26,27,27,28,28,29,29,30,30,31,31,32,32,33,33,34,34,35,35,36,36,37,37,38,38,39,39,40,40,41,41,42,42,43,43,44,44,45,45,46,46,47,47,48,48,49,49,50,50,51,51,52,52,53,53,54,54,55,55,56,56,57,57,58,58,59,59,60,60,61,61,62,62,64,64,65,65,66,66,68,68,69,69,70,70,71,71,72,72,73,73,74,74,75,75,76,76,77,77,78,78,79,79,80,80,81,81,82,82,83,83,84,84,85,85,86,86,87,87,88,88,89,89,90,90,91,91,92,92,93,93,94,94,96,96,99,99,100,100,101,101,102,102,103,103,104,104,105,105,106,106,107,107,108,108,109,109,110,110,111,111,113,113,114,114,115,115,116,116,117,117,118,118,119,119,120,120],"right_children":[2,4,6,8,10,12,14,16,18,20,22,24,26,28,30,32,34,36,38,40,42,44,-1,46,48,50,52,54,56,58,60,62,64,66,68,70,72,74,76,78,80,82,84,86,88,90,92,94,96,98,100,102,104,106,108,110,112,114,116,118,120,122,124,-1,126,128,130,-1,132,134,136,138,140,142,144,146,148,150,152,154,156,158,160,162,164,166,168,170,172,174,176,178,180,182,184,-1,186,-1,-1,188,190,192,194,196,198,200,202,204,206,208,210,212,-1,214,216,218,220,222,224,226,228,-1,-1,-1,-1,-1,-1,-1,-1,-1,-1,-1,-1,-1,-1,-1,-1,-1,-1,-1,-1,-1,-1,-1,-1,-1,-1,-1,-1,-1,-1,-1,-1,-1,-1,-1,-1,-1,-1,-1,-1,-1,-1,-1,-1,-1,-1,-1,-1,-1,-1,-1,-1,-1,-1,-1,-1,-1,-1,-1,-1,-1,-1,-1,-1,-1,-1,-1,-1,-1,-1,-1,-1,-1,-1,-1,-1,-1,-1,-1,-1,-1,-1,-1,-1,-1,-1,-1,-1,-1,-1,-1,-1,-1,-1,-1,-1,-1,-1,-1,-1,-1,-1,-1,-1,-1,-1,-1,-1],"split_conditions":[9.531018E-2,7.2E1,2.7E1,7.1E1,2.8E1,7.2E1,4.7000363E-1,2.6236427E-1,2.6E1,1.009E3,1.009E3,1.1631508E0,1.01E3,2.8E1,3.2E1,1.01E3,1.011E3,1.009E3,2.8E1,1.008E3,2.4E1,7.4E1,-2.5576602E-3,2.8E1,1.012E3,6.9E1,2.7E1,2.8E1,2.6236427E-1,1.01E3,1.8232156E-1,3E1,7.3E1,6.9E1,1.01E3,2.6E1,1.014E3,1.8232156E-1,1.011E3,7.2E1,2.8E1,2.7E1,2.6E1,3E1,4.054651E-1,7.2E1,1.8232156E-1,2.9E1,1.01E3,2.7E1,1.012E3,1.011E3,2.5E1,1.008E3,2.5E1,3.1E1,1.012E3,7.8845733E-1,7.3E1,7.1E1,1.01E3,6.7E1,9.531018E-2,-2.6890151E-3,1.014E3,7.1E1,7.3E1,1.0464136E-2,2.8E1,1.008E3,2.4E1,2.4E1,2.5E1,7E1,4.054651E-1,1.004E3,1.011E3,2.5E1,1.6486586E0,1.008E3,9.531018E-2,1.011E3,3.2E1,1.011E3,1.012E3,8.7546873E-1,2.9E1,1.005E3,1.006E3,1.01E3,1.011E3,1.007E3,2.8E1,7.1E1,1.2809339E0,-0E0,1.012E3,-0E0,-8.166066E-4,1.007E3,2.5E1,1.8232156E-1,9.531018E-2,7.3E1,1.011E3,3.2E1,4.054651E-1,7.2E1,1.009E3,2.9E1,1.008E3,1.008E3,1.4136158E-2,1.006E3,1.006E3,1.1631508E0,1.01E3,6.2E1,1.009E3,1.008E3,4.7000363E-1,-9.687059E-4,-2.2552302E-3,-2.7445883E-3,-1.719165E-3,-2.0194845E-3,4.4556814E-3,-1.6032428E-3,4.996142E-3,-2.1611552E-3,-0E0,1.5261985E-3,-2.1472469E-3,2.0966733E-2,-0E0,1.4896155E-2,2.3890869E-4,3.3001767E-3,-1.1970385E-3,-0E0,2.0882819E-2,3.753809E-4,-1.8864244E-3,6.124075E-3,-0E0,-0E0,-2.0986886E-3,1.079406E-3,-2.1698563E-3,-3.0704872E-5,9.655696E-3,-0E0,9.1670975E-3,3.367631E-3,-0E0,6.1857067E-3,-0E0,-4.095501E-4,-2.6059912E-3,2.3809086E-4,-1.1815375E-3,-0E0,4.2418954E-3,3.166545E-4,-2.0072912E-3,-2.0167374E-3,6.021588E-3,-4.4078744E-4,3.4828933E-3,-0E0,-2.1746487E-3,2.3441531E-3,-0E0,5.032751E-3,1.2621284E-3,1.447456E-2,-0E0,5.792228E-4,-1.1557606E-3,1.4059911E-3,1.2678549E-2,1.36216665E-2,5.8086812E-3,6.0710614E-3,-0E0,5.6940666E-4,-0E0,6.137342E-3,1.1974128E-2,4.533459E-3,-0E0,3.4033116E-3,-0E0,-1.084874E-3,-0E0,5.422391E-3,2.373433E-4,1.3025706E-2,4.3314146E-3,1.1622945E-3,9.827576E-3,-7.7176065E-4,9.1505307E-4,6.4887945E-3,-1.090627E-3,1.2385225E-2,2.2919986E-3,1.161215E-3,-8.547049E-4,-0E0,-1.9060791E-3,3.6084037E-3,6.5842003E-4,-0E0,4.866488E-3,2.0220599E-3,6.324998E-3,-0E0,4.7166296E-3,1.6014133E-2,-0E0,4.8742285E-3,-7.364851E-4,3.7405826E-3,-1.0963647E-4,-0E0,-1.7408427E-4,1.5775127E-2,2.1398643E-3],"split_indices":[3,1,8,1,8,1,3,23,8,14,2,3,2,8,4,14,22,14,16,2,12,5,0,20,10,21,4,4,3,18,23,16,5,9,2,20,18,23,18,17,4,8,20,4,23,21,3,16,14,4,6,2,12,10,12,8,6,3,1,17,10,9,19,0,14,21,5,0,20,10,12,16,4,9,23,10,2,20,23,18,19,6,4,22,2,23,16,2,6,14,10,22,4,1,3,0,14,0,0,6,16,23,19,1,2,12,23,1,2,16,18,22,0,10,18,3,2,5,6,10,23,0,0,0,0,0,0,0,0,0,0,0,0,0,0,0,0,0,0,0,0,0,0,0,0,0,0,0,0,0,0,0,0,0,0,0,0,0,0,0,0,0,0,0,0,0,0,0,0,0,0,0,0,0,0,0,0,0,0,0,0,0,0,0,0,0,0,0,0,0,0,0,0,0,0,0,0,0,0,0,0,0,0,0,0,0,0,0,0,0,0,0,0,0,0,0,0,0,0,0,0,0,0,0,0,0,0,0,0],"split_type":[0,0,0,0,0,0,0,0,0,0,0,0,0,0,0,0,0,0,0,0,0,0,0,0,0,0,0,0,0,0,0,0,0,0,0,0,0,0,0,0,0,0,0,0,0,0,0,0,0,0,0,0,0,0,0,0,0,0,0,0,0,0,0,0,0,0,0,0,0,0,0,0,0,0,0,0,0,0,0,0,0,0,0,0,0,0,0,0,0,0,0,0,0,0,0,0,0,0,0,0,0,0,0,0,0,0,0,0,0,0,0,0,0,0,0,0,0,0,0,0,0,0,0,0,0,0,0,0,0,0,0,0,0,0,0,0,0,0,0,0,0,0,0,0,0,0,0,0,0,0,0,0,0,0,0,0,0,0,0,0,0,0,0,0,0,0,0,0,0,0,0,0,0,0,0,0,0,0,0,0,0,0,0,0,0,0,0,0,0,0,0,0,0,0,0,0,0,0,0,0,0,0,0,0,0,0,0,0,0,0,0,0,0,0,0,0,0,0,0,0,0,0,0,0,0,0,0,0,0],"sum_hessian":[9.085E3,6.393E3,2.692E3,5.095E3,1.298E3,1.021E3,1.671E3,4.125E3,9.7E2,6.99E2,5.99E2,4.85E2,5.36E2,9.35E2,7.36E2,3.651E3,4.74E2,1.59E2,8.11E2,2.33E2,4.66E2,3.69E2,2.3E2,4.26E2,5.9E1,4.17E2,1.19E2,2.37E2,6.98E2,5.28E2,2.08E2,1.807E3,1.844E3,4.35E2,3.9E1,2.9E1,1.3E2,1.88E2,6.23E2,8.9E1,1.44E2,1.02E2,3.64E2,1.9E2,1.79E2,2.09E2,2.17E2,5.4E1,5E0,6E0,4.11E2,5.7E1,6.2E1,1.37E2,1E2,4.98E2,2E2,4.19E2,1.09E2,1.84E2,2.4E1,6.7E2,1.137E3,1.824E3,2E1,1.08E2,3.27E2,3E0,3.6E1,6E0,2.3E1,1.26E2,4E0,1.53E2,3.5E1,5.84E2,3.9E1,5.7E1,3.2E1,1.05E2,3.9E1,7.9E1,2.3E1,5.2E1,3.12E2,7.5E1,1.15E2,1.73E2,6E0,1.9E2,1.9E1,9.8E1,1.19E2,4.6E1,8E0,1E0,4E0,1E0,5E0,3.98E2,1.3E1,3E1,2.7E1,3.2E1,3E1,6.2E1,7.5E1,2.5E1,7.5E1,3.23E2,1.75E2,1.98E2,2E0,1.48E2,2.71E2,1.01E2,8E0,9.7E1,8.7E1,9E0,1.5E1,3.06E2,3.64E2,7.8E2,3.57E2,1.6E1,4E0,9.6E1,1.2E1,3.26E2,1E0,2E1,1.6E1,3E0,3E0,1E0,2.2E1,5E0,1.21E2,3E0,1E0,1E1,1.43E2,7E0,2.8E1,7E0,5.77E2,2E1,1.9E1,6E0,5.1E1,2.8E1,4E0,2.8E1,7.7E1,3.3E1,6E0,1.3E1,6.6E1,1.7E1,6E0,1.7E1,3.5E1,2.36E2,7.6E1,7.4E1,1E0,9.4E1,2.1E1,1.5E1,1.58E2,2E0,4E0,1.29E2,6.1E1,1.7E1,2E0,4.5E1,5.3E1,1.12E2,7E0,3.2E1,1.4E1,3E0,5E0,3E0,1E0,4.1E1,3.57E2,4E0,9E0,1.4E1,1.6E1,2.3E1,4E0,1.2E1,2E1,2E1,1E1,6E1,2E0,5.3E1,2.2E1,4E0,2.1E1,5.7E1,1.8E1,2.03E2,1.2E2,3.3E1,1.42E2,6.1E1,1.37E2,2.8E1,1.2E2,3.1E1,2.4E2,7.5E1,2.6E1,4E0,4E0,5E0,9.2E1,7.2E1,1.5E1,3E0,6E0,8E0,7E0],"tree_param":{"num_deleted":"0","num_feature":"24","num_nodes":"229","size_leaf_vector":"1"}},{"base_weights":[1.2170041E-3,-8.695262E-2,2.0773034E-1,-1.1854083E-1,-6.0465157E-2,3.5513073E-1,1.1649479E-1,-1.20149754E-1,-2.395088E-2,-2.8964134E-3,-9.031731E-2,1.4196695E-1,4.5689303E-1,5.1059112E-2,1.9523747E-1,-1.3560618E-1,-1.1087901E-1,-7.3162846E-2,1.8785286E-1,-9.155814E-2,3.818663E-2,-1.0044437E-1,-3.2992918E-2,9.209447E-2,4.6877635E-1,5.57386E-1,2.0908433E-1,1.6931124E-1,1.2184184E-2,2.4125007E-1,1.236893E-1,-9.67341E-2,-2.7870194E-3,-9.332936E-2,-1.2792933E-1,3.1867236E-1,-1.15343116E-1,-0E0,2.9083496E-1,-9.991189E-2,1.395332E-1,1.471161E-1,-7.034802E-3,-1.0470325E-1,2.4568817E-2,-4.121551E-2,1.6913849E-1,1.8634392E-1,2.4654776E-2,6.3691753E-1,1.7219748E-1,5.793424E-1,9.946814E-2,2.5937477E-1,-6.341848E-3,3.279476E-2,3.3836848E-1,5.333707E-2,-2.9447708E-2,1.5140674E-1,3.086212E-1,-0E0,1.5282673E-1,3.541123E-2,-1.2435714E-1,-7.811155E-2,-1.2645803E-1,-1.2939647E-1,-0E0,-0E0,1.0072612E-2,-1.20586485E-1,-0E0,-0E0,3.70256E-1,-1.0451625E-1,-0E0,-2.6154183E-2,1.8824773E-2,3.515946E-1,1.1053065E-1,-9.571712E-2,2.056239E-2,-8.434812E-2,-2.3819644E-3,1.3161172E-1,-8.038483E-2,-5.7889022E-2,1.515921E-2,6.071671E-1,-3.828791E-2,2.7025104E-1,2.8769378E-2,-0E0,1.6457073E-1,6.9412434E-1,-0E0,6.446067E-2,1.2114522E-2,5.9459835E-1,-1.8573942E-2,2.7664867E-1,-4.1691102E-2,3.909318E-2,3.091884E-1,5.375589E-2,-4.049981E-2,9.679841E-3,5.5241585E-1,3.4468066E-2,4.9525654E-1,8.059348E-2,-4.1484646E-2,-5.067054E-2,6.583165E-2,6.699559E-2,2.1745539E-1,2.956165E-1,2.7727589E-2,-4.2527065E-2,7.152656E-2,8.986239E-2,2.3034339E-1,1.07339425E-2,-4.3387956E-4,-2.5921804E-3,-0E0,-1.8322072E-3,-2.0040396E-4,-2.5910523E-3,-0E0,-2.6004596E-3,-0E0,-8.6818874E-4,9.3201E-3,-2.4449776E-3,-0E0,9.699113E-3,-0E0,-0E0,-2.203441E-3,1.2655456E-3,-7.017849E-4,-1.3462402E-3,-0E0,1.015026E-2,3.3755152E-4,1.2257631E-2,1.9352247E-3,-2.1549568E-3,2.3693773E-3,1.0230809E-3,-1.9680446E-3,-1.9440589E-3,-4.4237045E-4,4.2439494E-3,-9.916647E-4,-2.2965912E-3,7.8392215E-4,-0E0,-1.6557534E-3,-1.7559391E-3,1.9641854E-3,-0E0,1.5102932E-2,-1.187858E-3,-0E0,3.581655E-3,9.521035E-3,-0E0,5.6411326E-3,-3.7143423E-4,2.6132853E-3,-1.5941316E-4,5.515045E-3,1.3705535E-4,1.5332149E-2,-0E0,3.8092672E-3,1.2070925E-2,-0E0,-1.103394E-3,-0E0,7.8879725E-3,-0E0,-0E0,-1.1998647E-3,-6.465906E-4,4.00753E-3,4.6494934E-3,8.2379235E-3,-0E0,3.3446641E-3,-9.6741994E-4,-0E0,-0E0,1.0276636E-2,-0E0,1.509498E-2,-0E0,6.5128086E-3,1.9185007E-2,7.182201E-3,1.3453633E-3,1.1327189E-2,2.4879626E-3,-1.2189553E-3,-1.1569444E-3,2.5556805E-3,3.6792275E-3,-2.0290367E-4,2.5673741E-3,-8.6947624E-4,5.2846246E-3,-0E0,5.075334E-3,9.536626E-3,-1.6835115E-3,-0E0,-0E0,4.043365E-3,6.428331E-3,1.1436476E-3,-0E0,5.6684706E-3],"categories":[],"categories_nodes":[],"categories_segments":[],"categories_sizes":[],"default_left":[0,0,0,0,0,0,0,0,0,0,0,0,0,0,0,0,0,0,0,0,0,0,0,0,0,0,0,0,0,0,0,0,0,0,0,0,0,0,0,0,0,0,0,0,0,0,0,0,0,0,0,0,0,0,0,0,0,0,0,0,0,0,0,0,0,0,0,0,0,0,0,0,0,0,0,0,0,0,0,0,0,0,0,0,0,0,0,0,0,0,0,0,0,0,0,0,0,0,0,0,0,0,0,0,0,0,0,0,0,0,0,0,0,0,0,0,0,0,0,0,0,0,0,0,0,0,0,0,0,0,0,0,0,0,0,0,0,0,0,0,0,0,0,0,0,0,0,0,0,0,0,0,0,0,0,0,0,0,0,0,0,0,0,0,0,0,0,0,0,0,0,0,0,0,0,0,0,0,0,0,0,0,0,0,0,0,0,0,0,0,0,0,0,0,0,0,0,0,0,0,0,0,0,0,0,0,0,0,0,0,0,0,0,0,0,0,0,0,0,0,0,0,0,0,0],"id":3,"left_children":[1,3,5,7,9,11,13,15,17,19,21,23,25,27,29,31,33,35,37,39,41,43,45,47,49,51,53,55,57,59,61,63,-1,65,67,69,71,-1,73,75,77,79,81,83,85,87,89,91,93,95,97,99,101,103,105,107,109,111,113,115,117,119,121,123,125,127,129,131,133,-1,-1,135,-1,-1,137,139,141,143,-1,145,147,149,151,153,-1,155,157,159,161,163,165,167,169,171,173,175,-1,177,-1,179,181,183,185,187,189,191,193,195,197,199,201,203,205,207,209,211,213,215,-1,217,219,221,223,-1,-1,-1,-1,-1,-1,-1,-1,-1,-1,-1,-1,-1,-1,-1,-1,-1,-1,-1,-1,-1,-1,-1,-1,-1,-1,-1,-1,-1,-1,-1,-1,-1,-1,-1,-1,-1,-1,-1,-1,-1,-1,-1,-1,-1,-1,-1,-1,-1,-1,-1,-1,-1,-1,-1,-1,-1,-1,-1,-1,-1,-1,-1,-1,-1,-1,-1,-1,-1,-1,-1,-1,-1,-1,-1,-1,-1,-1,-1,-1,-1,-1,-1,-1,-1,-1,-1,-1,-1,-1,-1,-1,-1,-1,-1,-1,-1,-1,-1,-1,-1,-1],"loss_changes":[1.6642867E2,5.262993E0,3.653093E1,3.6945724E-1,5.95358E0,2.2303787E1,8.592609E0,2.78553E-1,5.175956E-1,4.3939624E0,1.2630634E0,5.2314196E0,1.7102676E1,4.176575E0,2.3194351E0,2.7843475E-2,4.2455292E-1,6.852525E-1,2.4984837E-1,7.274983E-1,4.0876675E0,1.0750408E0,5.2539456E-1,1.7768033E0,1.7098246E0,4.653885E0,2.3537006E0,5.0362864E0,1.2163041E0,2.5339584E0,1.1454101E0,4.3177694E-1,0E0,3.502884E-1,2.2314072E-1,2.7867734E-1,3.9271235E-2,0E0,2.0419002E-1,1.7584157E-1,1.9974241E0,1.5636334E0,1.4421355E0,4.4455528E-1,7.105931E-1,3.4280157E-1,1.3409382E0,1.4398084E0,6.3751E-1,1.0542154E0,4.627561E-1,4.6309204E0,7.3600703E-1,1.6687708E0,7.1441114E-2,1.2476808E0,4.4705973E0,9.5035374E-1,6.8867785E-1,9.739013E-1,2.5912132E0,1.6427612E-1,1.0424228E0,7.070267E-1,1.9917727E-2,5.310087E-1,8.3200455E-2,2.7042389E-2,3.3798945E-1,0E0,0E0,2.2121072E-3,0E0,0E0,3.0432653E-1,1.7797875E-1,3.8954277E-2,3.2014318E-2,0E0,1.5340271E0,1.0577374E0,3.630644E-1,1.55654E0,5.7562494E-1,0E0,5.611243E-1,1.5745677E-1,4.1287315E-1,6.2087923E-1,3.3692873E-1,1.1934131E-2,1.0651379E0,3.211701E-1,3.4448057E-1,6.625336E-1,8.3112526E-1,0E0,9.883804E-2,0E0,2.4299774E0,2.1904014E-2,3.6549628E-1,1.6064623E-2,4.7315887E-1,6.9755363E-1,1.2925579E-1,1.8296055E-2,3.8446277E-1,6.205267E-1,4.35012E-1,3.2431192E0,1.4992288E0,2.1905331E-1,3.3437067E-1,6.128859E-1,6.7237395E-1,1.1406336E0,1.5270271E0,0E0,9.6880674E-2,2.1189314E-1,8.7226856E-1,1.4053645E0,0E0,0E0,0E0,0E0,0E0,0E0,0E0,0E0,0E0,0E0,0E0,0E0,0E0,0E0,0E0,0E0,0E0,0E0,0E0,0E0,0E0,0E0,0E0,0E0,0E0,0E0,0E0,0E0,0E0,0E0,0E0,0E0,0E0,0E0,0E0,0E0,0E0,0E0,0E0,0E0,0E0,0E0,0E0,0E0,0E0,0E0,0E0,0E0,0E0,0E0,0E0,0E0,0E0,0E0,0E0,0E0,0E0,0E0,0E0,0E0,0E0,0E0,0E0,0E0,0E0,0E0,0E0,0E0,0E0,0E0,0E0,0E0,0E0,0E0,0E0,0E0,0E0,0E0,0E0,0E0,0E0,0E0,0E0,0E0,0E0,0E0,0E0,0E0,0E0,0E0,0E0,0E0,0E0,0E0,0E0,0E0,0E0,0E0,0E0,0E0,0E0,0E0],"parents":[2147483647,0,0,1,1,2,2,3,3,4,4,5,5,6,6,7,7,8,8,9,9,10,10,11,11,12,12,13,13,14,14,15,15,16,16,17,17,18,18,19,19,20,20,21,21,22,22,23,23,24,24,25,25,26,26,27,27,28,28,29,29,30,30,31,31,33,33,34,34,35,35,36,36,38,38,39,39,40,40,41,41,42,42,43,43,44,44,45,45,46,46,47,47,48,48,49,49,50,50,51,51,52,52,53,53,54,54,55,55,56,56,57,57,58,58,59,59,60,60,61,61,62,62,63,63,64,64,65,65,66,66,67,67,68,68,71,71,74,74,75,75,76,76,77,77,79,79,80,80,81,81,82,82,83,83,85,85,86,86,87,87,88,88,89,89,90,90,91,91,92,92,93,93,94,94,95,95,97,97,99,99,100,100,101,101,102,102,103,103,104,104,105,105,106,106,107,107,108,108,109,109,110,110,111,111,112,112,113,113,114,114,115,115,116,116,117,117,119,119,120,120,121,121,122,122],"right_children":[2,4,6,8,10,12,14,16,18,20,22,24,26,28,30,32,34,36,38,40,42,44,46,48,50,52,54,56,58,60,62,64,-1,66,68,70,72,-1,74,76,78,80,82,84,86,88,90,92,94,96,98,100,102,104,106,108,110,112,114,116,118,120,122,124,126,128,130,132,134,-1,-1,136,-1,-1,138,140,142,144,-1,146,148,150,152,154,-1,156,158,160,162,164,166,168,170,172,174,176,-1,178,-1,180,182,184,186,188,190,192,194,196,198,200,202,204,206,208,210,212,214,216,-1,218,220,222,224,-1,-1,-1,-1,-1,-1,-1,-1,-1,-1,-1,-1,-1,-1,-1,-1,-1,-1,-1,-1,-1,-1,-1,-1,-1,-1,-1,-1,-1,-1,-1,-1,-1,-1,-1,-1,-1,-1,-1,-1,-1,-1,-1,-1,-1,-1,-1,-1,-1,-1,-1,-1,-1,-1,-1,-1,-1,-1,-1,-1,-1,-1,-1,-1,-1,-1,-1,-1,-1,-1,-1,-1,-1,-1,-1,-1,-1,-1,-1,-1,-1,-1,-1,-1,-1,-1,-1,-1,-1,-1,-1,-1,-1,-1,-1,-1,-1,-1,-1,-1,-1,-1],"split_conditions":[9.531018E-2,7E1,2.7E1,8.329091E-1,2.7E1,2.7E1,4.7000363E-1,2.7E1,3.2E1,2.6E1,2.6236427E-1,1.1939225E0,1.01E3,2.8E1,3E1,1.007E3,2.9E1,8.7546873E-1,6.3E1,1.3350011E0,1.009E3,3.3E1,7.9E1,2.8E1,2.6E1,1.011E3,2.9E1,2.8E1,1.009E3,1.8232156E-1,6.8E1,3E1,-2.7870194E-3,1.012E3,1.1631508E0,2.5E1,3.3E1,-0E0,3E1,6.931472E-1,1.8232156E-1,1.007E3,7E1,1.009E3,7.2E1,1.011E3,8.2E1,5.3062826E-1,7.8845733E-1,1.012E3,7.2E1,3.4E1,2.9E1,7E1,6.1E1,1.6486586E0,2.7E1,7.2E1,1.8232156E-1,2.6E1,3.4E1,1.0296195E0,2.7E1,6.1E1,2.8E1,3E1,9.531018E-2,1.1314021E0,9.531018E-2,-0E0,1.0072612E-2,1.013E3,-0E0,-0E0,3.3E1,7.1E1,1.006E3,1.0647107E0,1.8824773E-2,2.7E1,2.4E1,2.6236427E-1,7.2E1,2.9E1,-2.3819644E-3,3.6E1,7.9E1,2.8E1,6.931472E-1,2.6E1,3.1E1,2.6E1,1.2237754E0,7.4E1,9.531018E-2,1.006E3,-0E0,1.011E3,1.2114522E-2,3E1,1.8232156E-1,5.3062826E-1,7.2E1,1.012E3,3E1,1.011E3,1.1631508E0,1.6677068E0,1.004E3,6.4185387E-1,2.8E1,9.5551145E-1,1.005E3,1.704748E0,2.6236427E-1,3.2E1,1.01E3,1.5892352E0,2.7727589E-2,3.3647224E-1,3.3E1,1.007E3,6.4185387E-1,1.07339425E-2,-4.3387956E-4,-2.5921804E-3,-0E0,-1.8322072E-3,-2.0040396E-4,-2.5910523E-3,-0E0,-2.6004596E-3,-0E0,-8.6818874E-4,9.3201E-3,-2.4449776E-3,-0E0,9.699113E-3,-0E0,-0E0,-2.203441E-3,1.2655456E-3,-7.017849E-4,-1.3462402E-3,-0E0,1.015026E-2,3.3755152E-4,1.2257631E-2,1.9352247E-3,-2.1549568E-3,2.3693773E-3,1.0230809E-3,-1.9680446E-3,-1.9440589E-3,-4.4237045E-4,4.2439494E-3,-9.916647E-4,-2.2965912E-3,7.8392215E-4,-0E0,-1.6557534E-3,-1.7559391E-3,1.9641854E-3,-0E0,1.5102932E-2,-1.187858E-3,-0E0,3.581655E-3,9.521035E-3,-0E0,5.6411326E-3,-3.7143423E-4,2.6132853E-3,-1.5941316E-4,5.515045E-3,1.3705535E-4,1.5332149E-2,-0E0,3.8092672E-3,1.2070925E-2,-0E0,-1.103394E-3,-0E0,7.8879725E-3,-0E0,-0E0,-1.1998647E-3,-6.465906E-4,4.00753E-3,4.6494934E-3,8.2379235E-3,-0E0,3.3446641E-3,-9.6741994E-4,-0E0,-0E0,1.0276636E-2,-0E0,1.509498E-2,-0E0,6.5128086E-3,1.9185007E-2,7.182201E-3,1.3453633E-3,1.1327189E-2,2.4879626E-3,-1.2189553E-3,-1.1569444E-3,2.5556805E-3,3.6792275E-3,-2.0290367E-4,2.5673741E-3,-8.6947624E-4,5.2846246E-3,-0E0,5.075334E-3,9.536626E-3,-1.6835115E-3,-0E0,-0E0,4.043365E-3,6.428331E-3,1.1436476E-3,-0E0,5.6684706E-3],"split_indices":[3,5,8,11,12,0,3,0,16,0,7,3,2,8,8,22,8,11,5,15,10,0,5,20,8,10,20,4,18,7,5,20,0,10,19,0,20,0,12,11,7,2,21,22,9,18,9,11,3,10,13,0,0,21,5,11,16,21,15,12,16,3,16,5,8,4,7,7,11,0,0,10,0,0,8,21,22,19,0,8,12,19,21,0,0,0,5,8,7,4,0,0,7,21,15,22,0,10,0,20,3,3,5,18,0,2,15,15,10,19,20,19,18,11,7,4,18,3,0,7,4,22,3,0,0,0,0,0,0,0,0,0,0,0,0,0,0,0,0,0,0,0,0,0,0,0,0,0,0,0,0,0,0,0,0,0,0,0,0,0,0,0,0,0,0,0,0,0,0,0,0,0,0,0,0,0,0,0,0,0,0,0,0,0,0,0,0,0,0,0,0,0,0,0,0,0,0,0,0,0,0,0,0,0,0,0,0,0,0,0,0,0,0,0,0,0,0,0,0,0,0,0,0,0,0],"split_type":[0,0,0,0,0,0,0,0,0,0,0,0,0,0,0,0,0,0,0,0,0,0,0,0,0,0,0,0,0,0,0,0,0,0,0,0,0,0,0,0,0,0,0,0,0,0,0,0,0,0,0,0,0,0,0,0,0,0,0,0,0,0,0,0,0,0,0,0,0,0,0,0,0,0,0,0,0,0,0,0,0,0,0,0,0,0,0,0,0,0,0,0,0,0,0,0,0,0,0,0,0,0,0,0,0,0,0,0,0,0,0,0,0,0,0,0,0,0,0,0,0,0,0,0,0,0,0,0,0,0,0,0,0,0,0,0,0,0,0,0,0,0,0,0,0,0,0,0,0,0,0,0,0,0,0,0,0,0,0,0,0,0,0,0,0,0,0,0,0,0,0,0,0,0,0,0,0,0,0,0,0,0,0,0,0,0,0,0,0,0,0,0,0,0,0,0,0,0,0,0,0,0,0,0,0,0,0,0,0,0,0,0,0,0,0,0,0,0,0,0,0,0,0,0,0],"sum_hessian":[9.136E3,6.401E3,2.735E3,2.91E3,3.491E3,1.043E3,1.692E3,2.856E3,5.4E1,1.198E3,2.293E3,3.39E2,7.04E2,9.28E2,7.64E2,1.048E3,1.808E3,4.6E1,8E0,3.83E2,8.15E2,1.941E3,3.52E2,2.96E2,4.3E1,4.99E2,2.05E2,2.26E2,7.02E2,4.6E2,3.04E2,1.05E2,9.43E2,9.07E2,9.01E2,3E0,4.3E1,2E0,6E0,3.72E2,1.1E1,2.42E2,5.73E2,1.881E3,6E1,3.41E2,1.1E1,1.2E2,1.76E2,2.6E1,1.7E1,4.75E2,2.4E1,1.68E2,3.7E1,1.27E2,9.9E1,3.59E2,3.43E2,2.01E2,2.59E2,5.6E1,2.48E2,1.5E1,9E1,6.33E2,2.74E2,8.94E2,7E0,1E0,2E0,4.2E1,1E0,1E0,5E0,3.56E2,1.6E1,9E0,2E0,3.4E1,2.08E2,1.4E2,4.33E2,7.95E2,1.086E3,3.2E1,2.8E1,2.7E2,7.1E1,4E0,7E0,7.6E1,4.4E1,1.49E2,2.7E1,2.4E1,2E0,1.5E1,2E0,4.64E2,1.1E1,1.2E1,1.2E1,3.3E1,1.35E2,8E0,2.9E1,1.23E2,4E0,3.5E1,6.4E1,2.83E2,7.6E1,2.85E2,5.8E1,9.2E1,1.09E2,2.57E2,2E0,3.8E1,1.8E1,1.41E2,1.07E2,2E0,1.3E1,8.4E1,6E0,5.22E2,1.11E2,2.66E2,8E0,8.87E2,7E0,6E0,1E0,4.1E1,1E0,4E0,1E0,2.1E1,3.35E2,6E0,1E1,8E0,1E0,2.2E1,1.2E1,4E0,2.04E2,1.35E2,5E0,3.48E2,8.5E1,6.52E2,1.43E2,2.4E1,8E0,2.5E1,3E0,7.8E1,1.92E2,2.9E1,4.2E1,1E0,3E0,6E0,1E0,5.5E1,2.1E1,4E1,4E0,1.32E2,1.7E1,9E0,1.8E1,3E0,2.1E1,1.1E1,4E0,4.57E2,7E0,8E0,3E0,8E0,4E0,2E0,1E1,2.1E1,1.2E1,8.1E1,5.4E1,3E0,5E0,2.8E1,1E0,1.22E2,1E0,1E0,3E0,3.1E1,4E0,1.3E1,5.1E1,2.77E2,6E0,5E0,7.1E1,2.77E2,8E0,2.5E1,3.3E1,6.2E1,3E1,9E1,1.9E1,2.12E2,4.5E1,2.3E1,1.5E1,1.1E1,7E0,1.5E1,1.26E2,1.9E1,8.8E1],"tree_param":{"num_deleted":"0","num_feature":"24","num_nodes":"225","size_leaf_vector":"1"}},{"base_weights":[-1.1107691E-3,-5.5721983E-2,1.3420796E-1,-9.285884E-2,5.2485257E-2,2.507707E-1,4.067186E-2,-1.05138496E-1,-3.230415E-2,1.15806505E-1,4.530321E-3,3.8604814E-1,4.7746364E-2,8.511312E-2,-4.591433E-2,-1.1251209E-1,-6.456389E-2,8.793695E-2,-6.978275E-2,8.092442E-2,3.8886696E-1,-1.912242E-2,8.241586E-2,4.28856E-1,1.2245124E-1,1.14239216E-1,-5.4223787E-2,2.8991604E-2,2.1744402E-1,-5.0940618E-2,7.433946E-1,-1.13460556E-1,1.0780811E-1,1.8809448E-3,-8.4809355E-2,1.185422E-1,-7.966807E-2,-7.232733E-2,1.3760381E-2,1.7009579E-1,1.6768953E-2,1.3302381E-1,4.9783084E-1,3.0327956E-3,-8.780194E-2,-0E0,1.4580914E-1,1.09754495E-1,4.4957393E-1,1.9367717E-2,2.203394E-1,9.128471E-2,3.7072048E-1,-6.275215E-2,1.3135269E-2,-9.8793715E-2,5.987774E-2,1.9941762E-1,2.4116358E-2,-7.160316E-2,8.988913E-2,2.6755914E-2,-0E0,-1.0319852E-1,-1.2960166E-1,5.319241E-1,-1.2848403E-3,4.191566E-1,-1.4452873E-2,-5.9909943E-2,-1.0758349E-1,2.4202628E-2,1.9292998E-1,-2.1108699E-3,-0E0,-7.640789E-2,2.47733E-1,2.2371532E-1,-8.417076E-3,1.2990367E-1,-3.3609252E-4,5.7413495E-1,3.9228227E-2,6.028547E-1,1.6008186E-1,-5.2816346E-2,3.3577096E-2,-9.853375E-2,7.759452E-2,-1.7302442E-2,4.345365E-1,5.249121E-1,1.1350888E-1,2.9583874E-1,-5.3502947E-2,4.757027E-1,2.2230153E-1,-0E0,1.5758457E-2,2.6194397E-1,-7.567361E-4,3.2132667E-2,1.4379059E-1,5.245757E-1,4.5731574E-2,-6.9237776E-2,8.018911E-3,-1.0683562E-1,-0E0,1.24680996E-1,8.8872565E-3,1.358794E-1,3.7387294E-1,-7.641209E-2,3.8039687E-1,-0E0,3.310106E-1,-1.2222178E-3,-2.3094804E-3,-2.6451843E-3,-7.6610397E-4,-0E0,1.4489383E-2,-0E0,1.2037398E-2,-8.9901517E-4,2.2115712E-3,3.7299742E-3,-1.3934082E-3,-2.4767974E-3,-1.4194056E-3,3.910253E-3,-5.8637466E-4,1.0697062E-3,5.021295E-3,-0E0,2.6112486E-4,-4.327159E-4,-1.6526463E-3,-3.656909E-4,1.754036E-2,6.9081704E-3,2.5245205E-3,-8.534542E-4,3.2139884E-3,1.6219746E-3,1.31746E-2,1.5776101E-3,-4.1619467E-4,-0E0,1.7331874E-2,3.5613405E-3,-1.6061006E-3,1.2848996E-2,-0E0,6.0086274E-3,-0E0,-1.5794892E-3,1.042492E-3,4.964064E-3,3.6474076E-4,-2.2347108E-3,-0E0,-0E0,4.0523745E-3,-1.9103076E-3,-0E0,1.8119283E-2,-0E0,1.2298976E-2,-0E0,4.1899593E-3,7.7025685E-4,1.249345E-2,-0E0,-0E0,-1.8533411E-3,9.675739E-3,-3.8265897E-4,5.651778E-3,-1.2717595E-3,1.2414524E-3,-1.029836E-3,4.184304E-3,1.3836271E-2,1.7916991E-3,-9.7458356E-4,1.6196771E-3,4.906201E-3,-0E0,1.3382606E-2,-0E0,3.1137636E-3,3.449977E-4,-1.6909591E-3,-2.2845564E-3,-0E0,-1.3208119E-3,4.601685E-3,1.3298246E-3,5.532978E-3,1.1931617E-3,-7.316338E-4,5.0492967E-3,4.9508736E-4,3.942247E-3,1.1024324E-2,-1.8055581E-4,-1.921978E-3,-0E0,2.0760978E-2,-6.432818E-4,1.860114E-3,1.0153894E-2,-0E0],"categories":[],"categories_nodes":[],"categories_segments":[],"categories_sizes":[],"default_left":[0,0,0,0,0,0,0,0,0,0,0,0,0,0,0,0,0,0,0,0,0,0,0,0,0,0,0,0,0,0,0,0,0,0,0,0,0,0,0,0,0,0,0,0,0,0,0,0,0,0,0,0,0,0,0,0,0,0,0,0,0,0,0,0,0,0,0,0,0,0,0,0,0,0,0,0,0,0,0,0,0,0,0,0,0,0,0,0,0,0,0,0,0,0,0,0,0,0,0,0,0,0,0,0,0,0,0,0,0,0,0,0,0,0,0,0,0,0,0,0,0,0,0,0,0,0,0,0,0,0,0,0,0,0,0,0,0,0,0,0,0,0,0,0,0,0,0,0,0,0,0,0,0,0,0,0,0,0,0,0,0,0,0,0,0,0,0,0,0,0,0,0,0,0,0,0,0,0,0,0,0,0,0,0,0,0,0,0,0,0,0,0,0,0,0,0,0,0,0,0,0,0,0,0,0,0,0,0,0,0,0,0,0,0,0],"id":4,"left_children":[1,3,5,7,9,11,13,15,17,19,21,23,25,27,29,31,33,35,37,39,41,43,45,47,49,51,53,55,57,59,61,63,65,67,69,71,73,75,-1,77,79,81,83,85,87,89,91,93,95,97,99,101,103,105,-1,107,109,111,-1,113,115,-1,-1,117,119,121,-1,123,125,127,129,131,133,-1,135,137,139,141,143,145,147,149,151,153,155,157,159,161,163,165,167,169,171,173,175,177,179,181,-1,183,-1,185,187,189,191,193,-1,195,197,199,201,203,205,207,209,211,213,-1,-1,-1,-1,-1,-1,-1,-1,-1,-1,-1,-1,-1,-1,-1,-1,-1,-1,-1,-1,-1,-1,-1,-1,-1,-1,-1,-1,-1,-1,-1,-1,-1,-1,-1,-1,-1,-1,-1,-1,-1,-1,-1,-1,-1,-1,-1,-1,-1,-1,-1,-1,-1,-1,-1,-1,-1,-1,-1,-1,-1,-1,-1,-1,-1,-1,-1,-1,-1,-1,-1,-1,-1,-1,-1,-1,-1,-1,-1,-1,-1,-1,-1,-1,-1,-1,-1,-1,-1,-1,-1,-1,-1,-1,-1,-1,-1,-1],"loss_changes":[6.7223854E1,2.6092495E1,2.8354607E1,3.5237236E0,4.9635673E0,3.1674034E1,5.614621E0,1.1079941E0,3.700561E0,6.497773E0,1.7760831E0,7.5461273E0,3.1961088E0,7.036596E0,1.614698E0,7.159805E-1,8.870065E-1,1.011606E0,9.328196E-1,3.512125E0,1.8398571E0,1.1403589E0,1.136488E0,3.639206E0,8.820331E-1,1.4329295E0,8.241363E-1,2.6692939E0,4.2460365E0,1.4126519E0,1.3029573E0,4.3536758E-1,1.1630422E0,1.169803E0,1.8947363E-1,1.0505302E0,7.609464E-2,7.4594426E-1,0E0,2.602038E0,7.8178775E-1,7.3710144E-1,1.4680166E0,9.132914E-1,3.3645558E-1,8.785885E-1,1.1877613E0,1.2986981E0,2.914688E0,9.1191554E-1,6.3796306E-1,7.3122025E-1,7.778785E-1,3.9085704E-1,0E0,1.11423254E-1,1.7550101E0,2.828948E0,0E0,7.939434E-1,1.4366772E0,0E0,0E0,9.840946E-1,2.2504807E-1,5.637498E-1,0E0,4.8811376E-1,4.863593E-1,5.361204E-1,4.3131113E-2,7.87372E-1,5.6655E-1,0E0,4.2616366E-4,1.5953898E-1,1.5254902E0,2.1448002E0,2.8331718E-1,9.583646E-1,4.8834532E-1,7.2375333E-1,4.294376E-1,1.1221781E0,3.0536264E-1,5.2469146E-1,1.0349567E0,1.8198824E-1,1.746212E-1,1.3076614E-1,1.2022288E0,4.9418712E-1,7.1781933E-1,1.610183E0,5.1519774E-2,2.2311478E0,1.1612344E0,1.6105619E-1,0E0,4.6310925E-1,0E0,6.242285E-1,6.908827E-1,9.862957E-1,1.1553675E-1,2.720616E-1,0E0,1.0557842E-1,1.6505712E-1,1.928283E0,7.3634297E-1,2.5595E0,1.8441896E0,5.114639E-1,1.1098621E0,1.0160123E-1,1.0467294E0,0E0,0E0,0E0,0E0,0E0,0E0,0E0,0E0,0E0,0E0,0E0,0E0,0E0,0E0,0E0,0E0,0E0,0E0,0E0,0E0,0E0,0E0,0E0,0E0,0E0,0E0,0E0,0E0,0E0,0E0,0E0,0E0,0E0,0E0,0E0,0E0,0E0,0E0,0E0,0E0,0E0,0E0,0E0,0E0,0E0,0E0,0E0,0E0,0E0,0E0,0E0,0E0,0E0,0E0,0E0,0E0,0E0,0E0,0E0,0E0,0E0,0E0,0E0,0E0,0E0,0E0,0E0,0E0,0E0,0E0,0E0,0E0,0E0,0E0,0E0,0E0,0E0,0E0,0E0,0E0,0E0,0E0,0E0,0E0,0E0,0E0,0E0,0E0,0E0,0E0,0E0,0E0,0E0,0E0,0E0,0E0,0E0,0E0],"parents":[2147483647,0,0,1,1,2,2,3,3,4,4,5,5,6,6,7,7,8,8,9,9,10,10,11,11,12,12,13,13,14,14,15,15,16,16,17,17,18,18,19,19,20,20,21,21,22,22,23,23,24,24,25,25,26,26,27,27,28,28,29,29,30,30,31,31,32,32,33,33,34,34,35,35,36,36,37,37,39,39,40,40,41,41,42,42,43,43,44,44,45,45,46,46,47,47,48,48,49,49,50,50,51,51,52,52,53,53,55,55,56,56,57,57,59,59,60,60,63,63,64,64,65,65,67,67,68,68,69,69,70,70,71,71,72,72,74,74,75,75,76,76,77,77,78,78,79,79,80,80,81,81,82,82,83,83,84,84,85,85,86,86,87,87,88,88,89,89,90,90,91,91,92,92,93,93,94,94,95,95,96,96,97,97,99,99,101,101,102,102,103,103,104,104,105,105,107,107,108,108,109,109,110,110,111,111,112,112,113,113,114,114,115,115,116,116],"right_children":[2,4,6,8,10,12,14,16,18,20,22,24,26,28,30,32,34,36,38,40,42,44,46,48,50,52,54,56,58,60,62,64,66,68,70,72,74,76,-1,78,80,82,84,86,88,90,92,94,96,98,100,102,104,106,-1,108,110,112,-1,114,116,-1,-1,118,120,122,-1,124,126,128,130,132,134,-1,136,138,140,142,144,146,148,150,152,154,156,158,160,162,164,166,168,170,172,174,176,178,180,182,-1,184,-1,186,188,190,192,194,-1,196,198,200,202,204,206,208,210,212,214,-1,-1,-1,-1,-1,-1,-1,-1,-1,-1,-1,-1,-1,-1,-1,-1,-1,-1,-1,-1,-1,-1,-1,-1,-1,-1,-1,-1,-1,-1,-1,-1,-1,-1,-1,-1,-1,-1,-1,-1,-1,-1,-1,-1,-1,-1,-1,-1,-1,-1,-1,-1,-1,-1,-1,-1,-1,-1,-1,-1,-1,-1,-1,-1,-1,-1,-1,-1,-1,-1,-1,-1,-1,-1,-1,-1,-1,-1,-1,-1,-1,-1,-1,-1,-1,-1,-1,-1,-1,-1,-1,-1,-1,-1,-1,-1,-1,-1],"split_conditions":[7.2E1,9.531018E-2,1.009E3,1.8232156E-1,2.8E1,2.8E1,7.3E1,7.1E1,2.8E1,2.8E1,9.5551145E-1,2.9E1,2.9E1,9.531018E-2,1.8870697E0,8E1,2.6E1,8.7546873E-1,3.4E1,2.8E1,2.6E1,3.2E1,7.2E1,7E1,2.7E1,4.7000363E-1,2.6741486E0,7E1,7.4E1,9.531018E-2,1.008E3,3E1,3.1E1,1.007E3,1.009E3,9.531018E-2,1.7227666E0,9.5551145E-1,1.3760381E-2,1.01E3,1.007E3,2.4E1,3.1E1,1.8232156E-1,7.1E1,2.3887627E0,9.932518E-1,1.011E3,9.1629076E-1,1.6486586E0,7.4E1,9.531018E-2,9.5551145E-1,1.5475625E0,1.3135269E-2,1.013E3,1.01E3,9.531018E-2,2.4116358E-2,1.0296195E0,3.1E1,2.6755914E-2,-0E0,1.009E3,2.6236427E-1,6.5E1,-1.2848403E-3,1.007E3,9.531018E-2,2.4E1,9.531018E-2,1.009E3,1.008E3,-2.1108699E-3,7E1,1.007E3,2.8E1,2.6E1,1.1631508E0,3.2E1,7.1E1,5.7E1,1.008E3,1.1631508E0,2.8E1,3.3E1,1.006E3,7.1E1,1.006E3,1.1314021E0,1.008E3,3.3E1,1.009E3,2.4E1,1.009E3,2.9E1,7.2E1,9.531018E-2,1.5758457E-2,7.4E1,-7.567361E-4,3E1,1.007E3,7.1E1,3E1,1.006E3,8.018911E-3,5.3062826E-1,6.9E1,7.4E1,7.1E1,3.1E1,3E1,1.007E3,7.4E1,1.3083328E0,2.6236427E-1,-1.2222178E-3,-2.3094804E-3,-2.6451843E-3,-7.6610397E-4,-0E0,1.4489383E-2,-0E0,1.2037398E-2,-8.9901517E-4,2.2115712E-3,3.7299742E-3,-1.3934082E-3,-2.4767974E-3,-1.4194056E-3,3.910253E-3,-5.8637466E-4,1.0697062E-3,5.021295E-3,-0E0,2.6112486E-4,-4.327159E-4,-1.6526463E-3,-3.656909E-4,1.754036E-2,6.9081704E-3,2.5245205E-3,-8.534542E-4,3.2139884E-3,1.6219746E-3,1.31746E-2,1.5776101E-3,-4.1619467E-4,-0E0,1.7331874E-2,3.5613405E-3,-1.6061006E-3,1.2848996E-2,-0E0,6.0086274E-3,-0E0,-1.5794892E-3,1.042492E-3,4.964064E-3,3.6474076E-4,-2.2347108E-3,-0E0,-0E0,4.0523745E-3,-1.9103076E-3,-0E0,1.8119283E-2,-0E0,1.2298976E-2,-0E0,4.1899593E-3,7.7025685E-4,1.249345E-2,-0E0,-0E0,-1.8533411E-3,9.675739E-3,-3.8265897E-4,5.651778E-3,-1.2717595E-3,1.2414524E-3,-1.029836E-3,4.184304E-3,1.3836271E-2,1.7916991E-3,-9.7458356E-4,1.6196771E-3,4.906201E-3,-0E0,1.3382606E-2,-0E0,3.1137636E-3,3.449977E-4,-1.6909591E-3,-2.2845564E-3,-0E0,-1.3208119E-3,4.601685E-3,1.3298246E-3,5.532978E-3,1.1931617E-3,-7.316338E-4,5.0492967E-3,4.9508736E-4,3.942247E-3,1.1024324E-2,-1.8055581E-4,-1.921978E-3,-0E0,2.0760978E-2,-6.432818E-4,1.860114E-3,1.0153894E-2,-0E0],"split_indices":[1,7,14,23,8,8,9,1,20,4,7,20,16,7,11,17,12,19,12,20,16,8,13,9,4,19,11,21,21,23,2,12,20,14,2,19,19,11,0,14,2,12,4,7,21,7,7,6,23,23,9,11,19,23,0,2,14,19,0,19,4,0,0,14,19,1,0,2,19,20,11,18,6,0,9,6,8,12,7,16,17,1,2,7,16,4,2,17,6,7,2,12,18,12,2,16,17,23,0,17,0,8,6,17,4,6,0,23,17,1,21,4,4,2,1,7,7,0,0,0,0,0,0,0,0,0,0,0,0,0,0,0,0,0,0,0,0,0,0,0,0,0,0,0,0,0,0,0,0,0,0,0,0,0,0,0,0,0,0,0,0,0,0,0,0,0,0,0,0,0,0,0,0,0,0,0,0,0,0,0,0,0,0,0,0,0,0,0,0,0,0,0,0,0,0,0,0,0,0,0,0,0,0,0,0,0,0,0,0,0,0,0,0,0,0],"split_type":[0,0,0,0,0,0,0,0,0,0,0,0,0,0,0,0,0,0,0,0,0,0,0,0,0,0,0,0,0,0,0,0,0,0,0,0,0,0,0,0,0,0,0,0,0,0,0,0,0,0,0,0,0,0,0,0,0,0,0,0,0,0,0,0,0,0,0,0,0,0,0,0,0,0,0,0,0,0,0,0,0,0,0,0,0,0,0,0,0,0,0,0,0,0,0,0,0,0,0,0,0,0,0,0,0,0,0,0,0,0,0,0,0,0,0,0,0,0,0,0,0,0,0,0,0,0,0,0,0,0,0,0,0,0,0,0,0,0,0,0,0,0,0,0,0,0,0,0,0,0,0,0,0,0,0,0,0,0,0,0,0,0,0,0,0,0,0,0,0,0,0,0,0,0,0,0,0,0,0,0,0,0,0,0,0,0,0,0,0,0,0,0,0,0,0,0,0,0,0,0,0,0,0,0,0,0,0,0,0,0,0,0,0,0,0],"sum_hessian":[9.101E3,6.487E3,2.614E3,4.833E3,1.654E3,1.161E3,1.453E3,4.011E3,8.22E2,7.08E2,9.46E2,6.95E2,4.66E2,9.64E2,4.89E2,3.383E3,6.28E2,1.92E2,6.3E2,6.3E2,7.8E1,7.21E2,2.25E2,5.96E2,9.9E1,2.85E2,1.81E2,6.8E2,2.84E2,4.87E2,2E0,3.371E3,1.2E1,1.41E2,4.87E2,1.65E2,2.7E1,6.29E2,1E0,2.6E2,3.7E2,2.5E1,5.3E1,5.4E2,1.81E2,1E2,1.25E2,3.8E1,5.58E2,5.1E1,4.8E1,2.64E2,2.1E1,1.8E2,1E0,1.29E2,5.51E2,2.8E2,4E0,4.28E2,5.9E1,1E0,1E0,2.082E3,1.289E3,4E0,8E0,6E0,1.35E2,2.44E2,2.43E2,7.6E1,8.9E1,2.2E1,5E0,6.23E2,6E0,2.02E2,5.8E1,5.2E1,3.18E2,3E0,2.2E1,3.9E1,1.4E1,1.85E2,3.55E2,1.73E2,8E0,9.6E1,4E0,8E0,1.17E2,1.9E1,1.9E1,4.98E2,6E1,5E1,1E0,4.3E1,5E0,1.29E2,1.35E2,1.3E1,8E0,1.79E2,1E0,1.2E2,9E0,2.38E2,3.13E2,2.08E2,7.2E1,4.25E2,3E0,4.2E1,1.7E1,4.8E2,1.602E3,1.247E3,4.2E1,1E0,3E0,2E0,4E0,1.12E2,2.3E1,7E0,2.37E2,1.58E2,8.5E1,2E1,5.6E1,2.9E1,6E1,3E0,2E0,7.2E1,5.51E2,4E0,2E0,8.7E1,1.15E2,5.1E1,7E0,4.9E1,3E0,6E1,2.58E2,1E0,2E0,1.2E1,1E1,3.7E1,2E0,7E0,7E0,1.52E2,3.3E1,2.1E1,3.34E2,1.49E2,2.4E1,3E0,5E0,1.7E1,7.9E1,2E0,2E0,7E0,1E0,4.8E1,6.9E1,8E0,1.1E1,7E0,1.2E1,4.91E2,7E0,5.1E1,9E0,2.1E1,2.9E1,4E1,3E0,7.9E1,5E1,8.7E1,4.8E1,3E0,1E1,3E0,5E0,2.2E1,1.57E2,1.13E2,7E0,7E0,2E0,1.75E2,6.3E1,1.53E2,1.6E2,9.9E1,1.09E2,3.8E1,3.4E1,1.02E2,3.23E2,2E0,1E0,3.5E1,7E0,1.1E1,6E0],"tree_param":{"num_deleted":"0","num_feature":"24","num_nodes":"215","size_leaf_vector":"1"}},{"base_weights":[9.42492E-4,-8.295653E-2,1.972363E-1,-1.0283887E-1,-5.858982E-3,3.3375177E-1,1.110766E-1,-1.0532993E-1,-1.2551267E-2,4.6528865E-2,-6.898423E-2,1.8178552E-1,4.731657E-1,5.3401005E-2,1.9137454E-1,-1.14512704E-1,-8.265669E-2,-3.4635216E-2,2.1910577E-1,2.4466027E-1,8.790157E-3,-4.0424027E-2,-1.1250744E-1,2.8524044E-1,7.2667785E-2,5.9364706E-1,2.6440212E-1,8.357276E-2,-2.9886307E-2,2.0697321E-1,-1.915062E-2,-1.05975546E-1,-1.2850137E-1,-3.3115853E-2,-9.847384E-2,4.337948E-2,-6.799115E-2,-9.1633975E-4,6.88538E-1,-3.5560247E-2,2.7402997E-1,-1.420329E-2,2.5013873E-1,-5.135332E-2,1.9595076E-1,-2.4365815E-3,1.9069336E-1,2.3213767E-1,5.8176446E-1,1.5446417E-1,1.2550522E-4,6.415234E-1,3.629647E-1,5.5072073E-2,3.702116E-1,1.1858328E-1,-0E0,6.6910833E-1,-4.1405123E-2,1.4431751E-1,2.4959351E-1,6.4052963E-3,-4.1118704E-2,-6.4264774E-2,-1.1512104E-1,-1.2915829E-1,3.0196824E-3,-6.768733E-2,1.01009786E-1,-1.0896194E-1,-7.3481075E-2,1.8000542E-1,-4.7698352E-2,-9.040091E-2,7.437548E-2,-0E0,1.8551622E-2,-8.5145107E-4,-0E0,5.1597214E-1,1.9548766E-1,2.1619493E-2,-8.685907E-2,7.9737115E-1,1.6391028E-1,-6.8221785E-2,2.3754843E-2,2.2441769E-2,4.8752107E-2,1.19670555E-2,-0E0,3.080553E-1,1.5680173E-1,4.0006003E-1,2.0872537E-2,8.488434E-2,4.3020758E-1,-4.6537086E-2,4.240114E-2,6.5336114E-1,-0E0,4.7670546E-1,1.6897404E-1,-0E0,3.881022E-1,3.4370625E-1,2.9807014E-2,-3.503629E-2,1.4539869E-1,-3.3382103E-2,4.0476266E-2,1.9947402E-2,-0E0,-6.1345045E-2,-0E0,1.6330561E-1,-0E0,2.33344E-1,7.681071E-1,-0E0,-6.5335155E-2,-2.0841968E-3,-0E0,-2.3147655E-3,3.0043188E-3,-2.5983192E-3,-0E0,-1.7846312E-3,2.8332617E-4,1.4616103E-3,2.0561254E-2,-0E0,-2.2189643E-3,-1.6774967E-3,-1.3866328E-4,-7.0164166E-4,7.859378E-3,-2.2167948E-3,1.2795469E-3,-2.2041518E-3,-0E0,-1.5361937E-3,1.0611515E-2,1.2338324E-2,-1.2249529E-4,8.402307E-3,1.8657553E-3,-8.0048275E-4,9.05574E-4,-2.0062935E-3,1.2891107E-3,2.1600964E-2,-0E0,5.724684E-3,-0E0,-4.2520737E-4,-1.7480958E-3,-5.5965822E-5,6.4297686E-3,8.77143E-3,-1.7166702E-3,7.367145E-3,2.8551861E-3,2.9325095E-4,4.398992E-3,9.765866E-3,-0E0,6.118892E-3,5.4448476E-4,1.1099212E-2,-0E0,5.2321604E-3,-1.3645136E-3,3.5397778E-3,-2.0565973E-4,1.0439185E-2,1.4708128E-2,1.17696095E-2,3.098648E-3,1.7950744E-3,2.1464957E-2,1.1661391E-2,-3.5868783E-4,4.97709E-4,1.9362468E-2,8.993745E-4,7.790308E-3,-0E0,-1.7252907E-3,3.8955729E-3,1.7862029E-3,7.2124106E-4,-1.3162206E-3,3.2100966E-3,-3.450556E-4,-0E0,-1.4164902E-3,-2.8836346E-4,2.3597865E-3,3.5168342E-3,-1.4171028E-3,-1.6858336E-3,5.46954E-4,6.2665986E-3,3.5222024E-3,1.9523744E-2,1.3926886E-3,4.68697E-3,-3.2323351E-4,-1.9724723E-3,6.858995E-4],"categories":[],"categories_nodes":[],"categories_segments":[],"categories_sizes":[],"default_left":[0,0,0,0,0,0,0,0,0,0,0,0,0,0,0,0,0,0,0,0,0,0,0,0,0,0,0,0,0,0,0,0,0,0,0,0,0,0,0,0,0,0,0,0,0,0,0,0,0,0,0,0,0,0,0,0,0,0,0,0,0,0,0,0,0,0,0,0,0,0,0,0,0,0,0,0,0,0,0,0,0,0,0,0,0,0,0,0,0,0,0,0,0,0,0,0,0,0,0,0,0,0,0,0,0,0,0,0,0,0,0,0,0,0,0,0,0,0,0,0,0,0,0,0,0,0,0,0,0,0,0,0,0,0,0,0,0,0,0,0,0,0,0,0,0,0,0,0,0,0,0,0,0,0,0,0,0,0,0,0,0,0,0,0,0,0,0,0,0,0,0,0,0,0,0,0,0,0,0,0,0,0,0,0,0,0,0,0,0,0,0,0,0,0,0,0,0,0,0,0,0,0,0,0,0,0,0,0,0,0,0],"id":5,"left_children":[1,3,5,7,9,11,13,15,17,19,21,23,25,27,29,31,33,35,37,39,41,43,45,47,49,51,53,55,57,59,61,63,65,67,69,71,73,-1,75,77,79,81,83,85,87,-1,89,91,93,95,97,99,101,103,105,107,109,111,113,115,117,-1,119,121,123,125,-1,127,129,131,133,135,137,139,141,-1,-1,-1,-1,143,145,147,149,151,153,155,157,-1,159,-1,-1,161,163,165,-1,167,169,171,173,175,-1,177,179,181,183,185,-1,187,189,191,193,-1,-1,195,197,199,201,203,205,207,209,-1,-1,-1,-1,-1,-1,-1,-1,-1,-1,-1,-1,-1,-1,-1,-1,-1,-1,-1,-1,-1,-1,-1,-1,-1,-1,-1,-1,-1,-1,-1,-1,-1,-1,-1,-1,-1,-1,-1,-1,-1,-1,-1,-1,-1,-1,-1,-1,-1,-1,-1,-1,-1,-1,-1,-1,-1,-1,-1,-1,-1,-1,-1,-1,-1,-1,-1,-1,-1,-1,-1,-1,-1,-1,-1,-1,-1,-1,-1,-1,-1,-1,-1,-1,-1,-1,-1,-1,-1,-1],"loss_changes":[1.5063187E2,9.761147E0,3.1981392E1,1.0841904E0,4.3731065E0,2.2033936E1,7.664551E0,9.2593384E-1,6.405752E-1,5.22963E0,6.7018676E-1,5.5510216E0,1.3313599E1,2.4995534E0,2.39299E0,2.9410934E-1,1.0629101E0,3.585791E-1,1.6429483E0,1.0499811E0,3.4743779E0,8.924693E-1,6.314788E-1,3.59593E0,1.4090866E0,3.2081604E0,4.284506E0,2.1044765E0,1.7732848E0,1.5301437E0,2.1372965E-1,7.456398E-1,2.3797607E-1,1.6444567E0,1.8931389E-1,5.121941E-1,3.2243875E-1,0E0,8.780427E-1,3.3925446E-3,1.560617E0,1.466363E0,2.0257027E0,4.759817E-1,1.3639579E0,0E0,6.9506335E-1,1.0102501E0,2.2164917E0,1.9210124E0,2.6819092E-1,2.226532E0,1.0159254E0,1.367723E0,2.7904224E0,2.1606674E0,2.944755E-1,9.198967E-1,2.35423E-1,7.5330925E-1,2.640871E0,0E0,7.4609205E-2,1.0198039E0,2.8518677E-1,1.2045479E-1,0E0,5.451633E-1,1.2372425E0,1.4274311E-1,1.8705654E-1,9.416321E-1,1.6447829E-1,1.4119434E-1,9.714522E-1,0E0,0E0,0E0,0E0,1.545795E0,1.5717354E0,5.351347E-1,4.008819E-1,1.1165638E0,1.0319766E0,2.1274447E-1,6.380934E-1,0E0,9.034562E-1,0E0,0E0,7.79706E-1,9.1778445E-1,8.033142E-1,0E0,1.0210354E0,1.4104841E0,3.098855E-1,6.337874E-1,2.1926575E0,0E0,9.314375E-1,1.1970752E0,5.290929E-1,1.7035204E0,1.5735664E0,0E0,1.5162674E-1,1.0609798E0,2.7841905E-1,7.693886E-1,0E0,0E0,1.3836825E-1,1.737134E-1,7.6176596E-1,7.796882E-2,1.4375381E0,9.6915245E-1,1.3951826E-1,1.5159245E-1,0E0,0E0,0E0,0E0,0E0,0E0,0E0,0E0,0E0,0E0,0E0,0E0,0E0,0E0,0E0,0E0,0E0,0E0,0E0,0E0,0E0,0E0,0E0,0E0,0E0,0E0,0E0,0E0,0E0,0E0,0E0,0E0,0E0,0E0,0E0,0E0,0E0,0E0,0E0,0E0,0E0,0E0,0E0,0E0,0E0,0E0,0E0,0E0,0E0,0E0,0E0,0E0,0E0,0E0,0E0,0E0,0E0,0E0,0E0,0E0,0E0,0E0,0E0,0E0,0E0,0E0,0E0,0E0,0E0,0E0,0E0,0E0,0E0,0E0,0E0,0E0,0E0,0E0,0E0,0E0,0E0,0E0,0E0,0E0,0E0,0E0,0E0,0E0,0E0,0E0],"parents":[2147483647,0,0,1,1,2,2,3,3,4,4,5,5,6,6,7,7,8,8,9,9,10,10,11,11,12,12,13,13,14,14,15,15,16,16,17,17,18,18,19,19,20,20,21,21,22,22,23,23,24,24,25,25,26,26,27,27,28,28,29,29,30,30,31,31,32,32,33,33,34,34,35,35,36,36,38,38,39,39,40,40,41,41,42,42,43,43,44,44,46,46,47,47,48,48,49,49,50,50,51,51,52,52,53,53,54,54,55,55,56,56,57,57,58,58,59,59,60,60,62,62,63,63,64,64,65,65,67,67,68,68,69,69,70,70,71,71,72,72,73,73,74,74,79,79,80,80,81,81,82,82,83,83,84,84,85,85,86,86,88,88,91,91,92,92,93,93,95,95,96,96,97,97,98,98,99,99,101,101,102,102,103,103,104,104,105,105,107,107,108,108,109,109,110,110,113,113,114,114,115,115,116,116,117,117,118,118,119,119,120,120],"right_children":[2,4,6,8,10,12,14,16,18,20,22,24,26,28,30,32,34,36,38,40,42,44,46,48,50,52,54,56,58,60,62,64,66,68,70,72,74,-1,76,78,80,82,84,86,88,-1,90,92,94,96,98,100,102,104,106,108,110,112,114,116,118,-1,120,122,124,126,-1,128,130,132,134,136,138,140,142,-1,-1,-1,-1,144,146,148,150,152,154,156,158,-1,160,-1,-1,162,164,166,-1,168,170,172,174,176,-1,178,180,182,184,186,-1,188,190,192,194,-1,-1,196,198,200,202,204,206,208,210,-1,-1,-1,-1,-1,-1,-1,-1,-1,-1,-1,-1,-1,-1,-1,-1,-1,-1,-1,-1,-1,-1,-1,-1,-1,-1,-1,-1,-1,-1,-1,-1,-1,-1,-1,-1,-1,-1,-1,-1,-1,-1,-1,-1,-1,-1,-1,-1,-1,-1,-1,-1,-1,-1,-1,-1,-1,-1,-1,-1,-1,-1,-1,-1,-1,-1,-1,-1,-1,-1,-1,-1,-1,-1,-1,-1,-1,-1,-1,-1,-1,-1,-1,-1,-1,-1,-1,-1,-1,-1],"split_conditions":[9.531018E-2,7.2E1,2.7E1,7.8845733E-1,2.8E1,7.2E1,5.3062826E-1,9.531018E-2,7.3E1,1.008E3,1.009E3,2.8E1,1.009E3,3.1E1,1.012E3,3E1,2.7E1,1.008E3,2.5E1,1.006E3,9.531018E-2,1.011E3,1.1939225E0,1.1314021E0,2.8E1,2.6236427E-1,2.7E1,2.9E1,1.005E3,1.8232156E-1,1.008E3,1.009E3,2.1972246E0,7.1E1,1.009E3,2.9E1,7.4E1,-9.1633975E-4,1.008E3,2.6236427E-1,1.007E3,1.011E3,7E1,9.531018E-2,1.013E3,-2.4365815E-3,1.3609766E0,1.009E3,7.1E1,5.877867E-1,9.531018E-2,8.329091E-1,2.7E1,4.054651E-1,7.5E1,2.5E1,1.8232156E-1,6.6E1,2.6236427E-1,1.012E3,1.4816046E0,6.4052963E-3,2.9E1,1.008E3,7.9E1,6.931472E-1,3.0196824E-3,9.531018E-2,1.014E3,1.004E3,1.8232156E-1,9.5551145E-1,3.1E1,3.3647224E-1,1.01E3,-0E0,1.8551622E-2,-8.5145107E-4,-0E0,3.1E1,7.3E1,2.5E1,7.4E1,1.8232156E-1,1.01E3,7.3E1,3.2E1,2.2441769E-2,3.2E1,1.19670555E-2,-0E0,7.1E1,1.01E3,1.01E3,2.0872537E-2,1.008E3,7.1E1,2.6E1,2.6236427E-1,1.8232156E-1,-0E0,4.7000363E-1,8.2E1,2.5E1,7.1E1,7E1,2.9807014E-2,1.012E3,2.9E1,2.9E1,1.007E3,1.9947402E-2,-0E0,1.007E3,9.531018E-2,1.011E3,8.7546873E-1,2.9E1,1.8232156E-1,7.8845733E-1,1.410987E0,-2.0841968E-3,-0E0,-2.3147655E-3,3.0043188E-3,-2.5983192E-3,-0E0,-1.7846312E-3,2.8332617E-4,1.4616103E-3,2.0561254E-2,-0E0,-2.2189643E-3,-1.6774967E-3,-1.3866328E-4,-7.0164166E-4,7.859378E-3,-2.2167948E-3,1.2795469E-3,-2.2041518E-3,-0E0,-1.5361937E-3,1.0611515E-2,1.2338324E-2,-1.2249529E-4,8.402307E-3,1.8657553E-3,-8.0048275E-4,9.05574E-4,-2.0062935E-3,1.2891107E-3,2.1600964E-2,-0E0,5.724684E-3,-0E0,-4.2520737E-4,-1.7480958E-3,-5.5965822E-5,6.4297686E-3,8.77143E-3,-1.7166702E-3,7.367145E-3,2.8551861E-3,2.9325095E-4,4.398992E-3,9.765866E-3,-0E0,6.118892E-3,5.4448476E-4,1.1099212E-2,-0E0,5.2321604E-3,-1.3645136E-3,3.5397778E-3,-2.0565973E-4,1.0439185E-2,1.4708128E-2,1.17696095E-2,3.098648E-3,1.7950744E-3,2.1464957E-2,1.1661391E-2,-3.5868783E-4,4.97709E-4,1.9362468E-2,8.993745E-4,7.790308E-3,-0E0,-1.7252907E-3,3.8955729E-3,1.7862029E-3,7.2124106E-4,-1.3162206E-3,3.2100966E-3,-3.450556E-4,-0E0,-1.4164902E-3,-2.8836346E-4,2.3597865E-3,3.5168342E-3,-1.4171028E-3,-1.6858336E-3,5.46954E-4,6.2665986E-3,3.5222024E-3,1.9523744E-2,1.3926886E-3,4.68697E-3,-3.2323351E-4,-1.9724723E-3,6.858995E-4],"split_indices":[3,1,8,7,8,1,3,19,5,14,2,20,14,8,14,12,12,14,20,6,7,6,7,3,16,15,4,16,14,7,2,14,15,1,18,8,9,0,2,19,2,2,9,19,10,0,7,14,17,3,7,7,20,19,5,12,3,1,3,10,15,0,8,18,17,7,0,7,18,14,7,7,8,19,22,0,0,0,0,4,1,16,17,15,2,9,4,0,4,0,0,9,18,2,0,14,9,12,7,3,0,3,1,20,17,17,0,10,8,12,10,0,0,22,19,2,3,8,19,3,3,0,0,0,0,0,0,0,0,0,0,0,0,0,0,0,0,0,0,0,0,0,0,0,0,0,0,0,0,0,0,0,0,0,0,0,0,0,0,0,0,0,0,0,0,0,0,0,0,0,0,0,0,0,0,0,0,0,0,0,0,0,0,0,0,0,0,0,0,0,0,0,0,0,0,0,0,0,0,0,0,0,0,0,0,0,0,0,0,0,0],"split_type":[0,0,0,0,0,0,0,0,0,0,0,0,0,0,0,0,0,0,0,0,0,0,0,0,0,0,0,0,0,0,0,0,0,0,0,0,0,0,0,0,0,0,0,0,0,0,0,0,0,0,0,0,0,0,0,0,0,0,0,0,0,0,0,0,0,0,0,0,0,0,0,0,0,0,0,0,0,0,0,0,0,0,0,0,0,0,0,0,0,0,0,0,0,0,0,0,0,0,0,0,0,0,0,0,0,0,0,0,0,0,0,0,0,0,0,0,0,0,0,0,0,0,0,0,0,0,0,0,0,0,0,0,0,0,0,0,0,0,0,0,0,0,0,0,0,0,0,0,0,0,0,0,0,0,0,0,0,0,0,0,0,0,0,0,0,0,0,0,0,0,0,0,0,0,0,0,0,0,0,0,0,0,0,0,0,0,0,0,0,0,0,0,0,0,0,0,0,0,0,0,0,0,0,0,0,0,0,0,0,0,0],"sum_hessian":[9.142E3,6.403E3,2.739E3,5.085E3,1.318E3,1.057E3,1.682E3,4.943E3,1.42E2,7.16E2,6.02E2,5.08E2,5.49E2,9.83E2,6.99E2,3.501E3,1.442E3,1.32E2,1E1,1.12E2,6.04E2,3.71E2,2.31E2,2.58E2,2.5E2,3.46E2,2.03E2,7.26E2,2.57E2,6.53E2,4.6E1,2.199E3,1.302E3,3.57E2,1.085E3,3.5E1,9.7E1,6E0,4E0,9E0,1.03E2,5.5E2,5.4E1,3.57E2,1.4E1,2.26E2,5E0,2.21E2,3.7E1,1.14E2,1.36E2,2.84E2,6.2E1,7E1,1.33E2,5.1E2,2.16E2,3E0,2.54E2,2.7E2,3.83E2,1E0,4.5E1,4.06E2,1.793E3,1.301E3,1E0,2.87E2,7E1,7.49E2,3.36E2,1.6E1,1.9E1,8.7E1,1E1,1E0,3E0,8E0,1E0,2.3E1,8E1,3.64E2,1.86E2,6E0,4.8E1,2.97E2,6E1,1E0,1.3E1,2E0,3E0,1.06E2,1.15E2,2.8E1,9E0,9.3E1,2.1E1,5.9E1,7.7E1,2.79E2,5E0,3.7E1,2.5E1,6E1,1E1,1.31E2,2E0,7.3E1,4.37E2,1.16E2,1E2,2E0,1E0,1.78E2,7.6E1,2.39E2,3.1E1,3.73E2,1E1,1E1,3.5E1,2.48E2,1.58E2,1.791E3,2E0,1.293E3,8E0,2.32E2,5.5E1,6.9E1,1E0,1.5E1,7.34E2,2.84E2,5.2E1,7E0,9E0,1.5E1,4E0,7E1,1.7E1,7E0,3E0,2E1,3E0,2.3E1,5.7E1,9.5E1,2.69E2,1.74E2,1.2E1,4E0,2E0,2.8E1,2E1,9.4E1,2.03E2,5.4E1,6E0,4E0,9E0,7.5E1,3.1E1,3.8E1,7.7E1,2.2E1,6E0,1.7E1,7.6E1,1.7E1,4E0,2E0,5.7E1,2.4E1,5.3E1,1.11E2,1.68E2,2.6E1,1.1E1,2.4E1,1E0,1E0,5.9E1,7E0,3E0,1.9E1,1.12E2,4.1E1,3.2E1,2.27E2,2.1E2,3.2E1,8.4E1,3.5E1,6.5E1,1.7E1,1.61E2,6.5E1,1.1E1,2.29E2,1E1,8E0,2.3E1,1.51E2,2.22E2,7E0,3E0,2E0,8E0,3E1,5E0],"tree_param":{"num_deleted":"0","num_feature":"24","num_nodes":"211","size_leaf_vector":"1"}},{"base_weights":[-2.402718E-3,-5.3801324E-2,1.2763956E-1,-8.841027E-2,4.8645157E-2,2.3942457E-1,3.5501257E-2,-1.0247977E-1,-5.0027326E-2,1.18767135E-1,1.0449445E-3,3.295011E-1,-2.8946227E-4,7.695335E-2,-4.3533456E-2,-1.0321126E-1,1.8485215E-1,5.9797823E-2,-7.807613E-2,1.7701404E-1,1.5031286E-2,-1.0513647E-1,1.8114088E-2,4.0724492E-1,1.5577513E-1,-1.4623705E-2,5.245896E-1,3.0316314E-2,1.8761255E-1,-4.8564494E-2,7.3415124E-1,-6.1850935E-2,-1.08002E-1,3.8093948E-1,-0E0,-1.7114352E-2,1.5373251E-1,-8.401123E-2,3.8355798E-2,2.1117826E-1,-0E0,-7.366172E-3,1.4232166E-1,-1.1324589E-1,-0E0,1.6711192E-2,1.5116236E-2,5.2175242E-2,4.3245542E-1,3.7292728E-1,1.1966711E-1,-2.4856763E-2,5.706009E-1,7.7123773E-1,-0E0,-9.1685705E-2,5.703689E-2,1.3979545E-1,3.5360873E-1,-5.525694E-2,1.8387705E-1,2.6352204E-2,-0E0,5.1877403E-1,-6.845929E-2,-1.1247031E-1,-7.22009E-2,8.761688E-3,-0E0,1.0047121E-2,-2.976537E-2,1.07810006E-1,6.416627E-1,-5.821387E-2,-9.598341E-2,-0E0,5.7404685E-1,2.4081893E-1,-4.4477724E-2,1.23313E-2,-3.0537952E-2,-5.5318784E-2,2.8283598E-2,7.7247196E-1,4.635441E-2,-1.1626113E-1,-0E0,-7.64835E-4,5.9025597E-2,5.349454E-2,-2.9832425E-2,2.1104266E-1,-2.5806421E-2,3.393136E-1,5.3835464E-1,1.1998266E-1,5.750931E-1,-4.441072E-3,1.7175983E-1,1.1553524E-2,-8.576128E-2,1.5615857E-2,-0E0,-0E0,1.916803E-2,-1.1337373E-1,-0E0,1.1589381E-2,9.910586E-2,2.559926E-1,5.4671187E-2,9.833545E-1,2.8919294E-1,-8.14346E-2,-1.28623E-2,2.962952E-1,-0E0,-0E0,1.5904933E-2,-2.2731402E-3,-8.1630173E-4,-2.3947074E-3,-1.6236191E-3,1.7405365E-3,-1.6494188E-3,-0E0,-1.7752775E-3,1.5034049E-3,1.301987E-2,2.1607488E-2,5.5830306E-3,-1.2908186E-3,8.130166E-3,-1.9328429E-3,-0E0,1.35064125E-2,-5.5183657E-4,1.7249329E-2,-0E0,6.062669E-3,2.307225E-3,8.421317E-4,-1.4402786E-3,-9.3285006E-4,1.1110223E-3,2.9824514E-4,-1.4204854E-3,9.2837035E-5,7.7658985E-3,-0E0,1.7571682E-2,4.5875194E-3,-4.018303E-4,-0E0,-2.3846237E-3,3.2807188E-3,-0E0,3.0608582E-3,3.76092E-4,7.309526E-4,-1.1026141E-3,1.42084025E-2,4.5550513E-4,-1.5664061E-3,2.8257124E-4,8.848363E-3,2.578458E-3,1.0283595E-2,2.1438768E-2,4.4898777E-3,-0E0,1.072265E-3,1.5665177E-2,-1.0481512E-3,5.229516E-3,3.166705E-3,1.620011E-2,7.4918076E-5,7.708904E-3,-1.9775988E-3,1.2917331E-2,-2.4920371E-3,-0E0,-2.1703476E-3,4.4622356E-3,-5.0931735E-6,9.808912E-3,1.4710126E-3,1.2870665E-2,4.452071E-3,1.784423E-2,3.3405235E-3,-7.2672556E-5,3.9333897E-3,2.7467372E-2,2.3186803E-3,1.0216142E-2,-1.964438E-3,9.5644995E-4,-1.6990695E-3,6.64654E-4,8.898019E-3,-0E0],"categories":[],"categories_nodes":[],"categories_segments":[],"categories_sizes":[],"default_left":[0,0,0,0,0,0,0,0,0,0,0,0,0,0,0,0,0,0,0,0,0,0,0,0,0,0,0,0,0,0,0,0,0,0,0,0,0,0,0,0,0,0,0,0,0,0,0,0,0,0,0,0,0,0,0,0,0,0,0,0,0,0,0,0,0,0,0,0,0,0,0,0,0,0,0,0,0,0,0,0,0,0,0,0,0,0,0,0,0,0,0,0,0,0,0,0,0,0,0,0,0,0,0,0,0,0,0,0,0,0,0,0,0,0,0,0,0,0,0,0,0,0,0,0,0,0,0,0,0,0,0,0,0,0,0,0,0,0,0,0,0,0,0,0,0,0,0,0,0,0,0,0,0,0,0,0,0,0,0,0,0,0,0,0,0,0,0,0,0,0,0,0,0,0,0,0,0,0,0,0,0,0,0,0,0,0,0,0,0,0,0,0,0,0,0,0,0,0,0,0,0,0,0],"id":6,"left_children":[1,3,5,7,9,11,13,15,17,19,21,23,25,27,29,31,33,35,37,39,41,43,45,47,49,51,53,55,57,59,61,63,65,67,-1,69,71,73,75,77,79,81,83,85,87,-1,89,91,93,95,97,99,101,103,-1,105,107,109,111,113,115,-1,-1,117,119,121,123,-1,-1,-1,125,127,129,131,133,135,137,139,141,-1,143,145,147,149,151,153,-1,-1,155,157,159,161,163,165,167,169,171,173,175,177,179,-1,-1,-1,-1,181,183,185,187,189,191,193,195,197,199,201,-1,-1,-1,-1,-1,-1,-1,-1,-1,-1,-1,-1,-1,-1,-1,-1,-1,-1,-1,-1,-1,-1,-1,-1,-1,-1,-1,-1,-1,-1,-1,-1,-1,-1,-1,-1,-1,-1,-1,-1,-1,-1,-1,-1,-1,-1,-1,-1,-1,-1,-1,-1,-1,-1,-1,-1,-1,-1,-1,-1,-1,-1,-1,-1,-1,-1,-1,-1,-1,-1,-1,-1,-1,-1,-1,-1,-1,-1,-1,-1,-1,-1,-1,-1,-1,-1,-1],"loss_changes":[6.0867706E1,2.3186985E1,2.6416016E1,2.5605736E0,5.435755E0,2.5266052E1,4.659058E0,7.183304E-1,4.082308E0,3.8996239E0,1.7435867E0,1.1119705E1,2.1301177E0,4.7058144E0,1.5667572E0,6.170349E-1,3.967396E-1,1.987788E0,7.545166E-1,2.6334362E0,7.565138E-1,1.1922979E-1,1.6599174E0,4.9606476E0,1.8053155E0,1.587703E0,1.2074854E0,2.1384966E0,1.899476E0,6.8979275E-1,1.2567E0,1.2564062E0,4.1207123E-1,1.8695831E-2,0E0,7.142385E-1,2.335529E0,2.3189211E-1,1.0834738E0,2.7898636E0,1.0105317E0,3.6047357E-1,1.9613978E0,7.194793E-2,2.3721468E-2,0E0,1.4815117E0,5.970854E-1,4.8208466E0,1.4333167E0,1.5677884E0,7.150612E-1,6.685971E-1,8.6195874E-1,0E0,1.7947328E-1,9.8703575E-1,1.9692235E0,1.5946231E0,4.7448528E-1,2.6960745E-1,0E0,0E0,6.391005E-1,3.9336324E-1,5.3401184E-1,6.006392E-1,0E0,0E0,0E0,2.4888802E-1,1.6247351E0,6.8030334E-1,8.256732E-1,4.835558E-2,7.172039E-1,7.06267E-1,2.2710667E0,1.0110903E-1,0E0,8.6265706E-2,1.3061425E-1,7.431287E-1,1.647687E-2,5.386633E-1,7.1463585E-2,0E0,0E0,5.159138E-2,1.520161E0,6.593489E-1,1.0825679E0,8.6126246E-2,6.0307884E0,2.1626434E0,3.276441E-1,1.568821E0,7.3777646E-1,8.611698E-1,3.4911418E-1,9.0539646E-1,0E0,0E0,0E0,0E0,1.6151786E-1,6.02974E-1,1.7679805E0,3.4786391E0,1.2232695E0,9.1723144E-1,4.6061373E-1,1.7496352E0,6.427084E-1,6.503426E-1,4.3022138E-1,0E0,0E0,0E0,0E0,0E0,0E0,0E0,0E0,0E0,0E0,0E0,0E0,0E0,0E0,0E0,0E0,0E0,0E0,0E0,0E0,0E0,0E0,0E0,0E0,0E0,0E0,0E0,0E0,0E0,0E0,0E0,0E0,0E0,0E0,0E0,0E0,0E0,0E0,0E0,0E0,0E0,0E0,0E0,0E0,0E0,0E0,0E0,0E0,0E0,0E0,0E0,0E0,0E0,0E0,0E0,0E0,0E0,0E0,0E0,0E0,0E0,0E0,0E0,0E0,0E0,0E0,0E0,0E0,0E0,0E0,0E0,0E0,0E0,0E0,0E0,0E0,0E0,0E0,0E0,0E0,0E0,0E0,0E0,0E0,0E0,0E0,0E0],"parents":[2147483647,0,0,1,1,2,2,3,3,4,4,5,5,6,6,7,7,8,8,9,9,10,10,11,11,12,12,13,13,14,14,15,15,16,16,17,17,18,18,19,19,20,20,21,21,22,22,23,23,24,24,25,25,26,26,27,27,28,28,29,29,30,30,31,31,32,32,33,33,35,35,36,36,37,37,38,38,39,39,40,40,41,41,42,42,43,43,44,44,46,46,47,47,48,48,49,49,50,50,51,51,52,52,53,53,55,55,56,56,57,57,58,58,59,59,60,60,63,63,64,64,65,65,66,66,70,70,71,71,72,72,73,73,74,74,75,75,76,76,77,77,78,78,80,80,81,81,82,82,83,83,84,84,85,85,88,88,89,89,90,90,91,91,92,92,93,93,94,94,95,95,96,96,97,97,98,98,99,99,100,100,105,105,106,106,107,107,108,108,109,109,110,110,111,111,112,112,113,113,114,114,115,115],"right_children":[2,4,6,8,10,12,14,16,18,20,22,24,26,28,30,32,34,36,38,40,42,44,46,48,50,52,54,56,58,60,62,64,66,68,-1,70,72,74,76,78,80,82,84,86,88,-1,90,92,94,96,98,100,102,104,-1,106,108,110,112,114,116,-1,-1,118,120,122,124,-1,-1,-1,126,128,130,132,134,136,138,140,142,-1,144,146,148,150,152,154,-1,-1,156,158,160,162,164,166,168,170,172,174,176,178,180,-1,-1,-1,-1,182,184,186,188,190,192,194,196,198,200,202,-1,-1,-1,-1,-1,-1,-1,-1,-1,-1,-1,-1,-1,-1,-1,-1,-1,-1,-1,-1,-1,-1,-1,-1,-1,-1,-1,-1,-1,-1,-1,-1,-1,-1,-1,-1,-1,-1,-1,-1,-1,-1,-1,-1,-1,-1,-1,-1,-1,-1,-1,-1,-1,-1,-1,-1,-1,-1,-1,-1,-1,-1,-1,-1,-1,-1,-1,-1,-1,-1,-1,-1,-1,-1,-1,-1,-1,-1,-1,-1,-1,-1,-1,-1,-1,-1,-1],"split_conditions":[7.2E1,9.531018E-2,1.009E3,9.531018E-2,2.8E1,2.8E1,7.3E1,8.2E1,2.8E1,1.01E3,6.4E1,7.2E1,1.5475625E0,9.531018E-2,1.8870697E0,1.007E3,6.7E1,2.7E1,7.4E1,3E1,5.877867E-1,1.011E3,6.1E1,7E1,1.007E3,3.5E1,8.4E1,7E1,9.531018E-2,9.5551145E-1,2.9E1,2.5E1,7.1E1,1.013E3,-0E0,1.004E3,1.2809339E0,1.007E3,9.5551145E-1,3.2E1,1.005E3,9.531018E-2,7.8845733E-1,3.6E1,2.7E1,1.6711192E-2,1.008E3,1.009E3,1.009E3,1.006E3,9.531018E-2,1.009E3,3.6E1,1.004E3,-0E0,1.013E3,2.8E1,7.3E1,7E1,2.7E1,1.01E3,2.6352204E-2,-0E0,1.006E3,6.5E1,3.2E1,2.4E1,8.761688E-3,-0E0,1.0047121E-2,2.7E1,7.2E1,1.704748E0,1.009E3,3.4E1,2.7E1,1.009E3,7.1E1,6.3E1,1.23313E-2,1.4350846E0,5.9E1,1.012E3,2.5E1,9.531018E-2,2.6E1,-0E0,-7.64835E-4,1.012E3,2.6E1,7.1E1,2.4E1,2.8E1,1.008E3,1.0296195E0,1.006E3,7.3E1,1.009E3,9.2E1,1.01E3,2.4336133E0,1.5615857E-2,-0E0,-0E0,1.916803E-2,5.3062826E-1,6.9E1,3.2E1,5.3062826E-1,7.4E1,1.01E3,7.3E1,7.3E1,1.2527629E0,3.1E1,2.6236427E-1,-0E0,-0E0,1.5904933E-2,-2.2731402E-3,-8.1630173E-4,-2.3947074E-3,-1.6236191E-3,1.7405365E-3,-1.6494188E-3,-0E0,-1.7752775E-3,1.5034049E-3,1.301987E-2,2.1607488E-2,5.5830306E-3,-1.2908186E-3,8.130166E-3,-1.9328429E-3,-0E0,1.35064125E-2,-5.5183657E-4,1.7249329E-2,-0E0,6.062669E-3,2.307225E-3,8.421317E-4,-1.4402786E-3,-9.3285006E-4,1.1110223E-3,2.9824514E-4,-1.4204854E-3,9.2837035E-5,7.7658985E-3,-0E0,1.7571682E-2,4.5875194E-3,-4.018303E-4,-0E0,-2.3846237E-3,3.2807188E-3,-0E0,3.0608582E-3,3.76092E-4,7.309526E-4,-1.1026141E-3,1.42084025E-2,4.5550513E-4,-1.5664061E-3,2.8257124E-4,8.848363E-3,2.578458E-3,1.0283595E-2,2.1438768E-2,4.4898777E-3,-0E0,1.072265E-3,1.5665177E-2,-1.0481512E-3,5.229516E-3,3.166705E-3,1.620011E-2,7.4918076E-5,7.708904E-3,-1.9775988E-3,1.2917331E-2,-2.4920371E-3,-0E0,-2.1703476E-3,4.4622356E-3,-5.0931735E-6,9.808912E-3,1.4710126E-3,1.2870665E-2,4.452071E-3,1.784423E-2,3.3405235E-3,-7.2672556E-5,3.9333897E-3,2.7467372E-2,2.3186803E-3,1.0216142E-2,-1.964438E-3,9.5644995E-4,-1.6990695E-3,6.64654E-4,8.898019E-3,-0E0],"split_indices":[1,7,14,23,12,12,9,21,20,14,21,9,23,7,11,14,9,0,13,20,19,6,17,9,10,4,5,21,19,23,0,12,1,6,0,10,23,22,11,4,14,11,19,0,0,0,10,10,6,22,7,22,4,6,0,22,4,5,9,20,10,0,0,6,1,0,12,0,0,0,12,21,23,18,0,12,6,9,1,0,7,21,6,0,11,4,0,0,6,0,13,12,4,14,19,6,1,6,1,18,11,0,0,0,0,23,13,0,23,21,22,1,5,7,4,11,0,0,0,0,0,0,0,0,0,0,0,0,0,0,0,0,0,0,0,0,0,0,0,0,0,0,0,0,0,0,0,0,0,0,0,0,0,0,0,0,0,0,0,0,0,0,0,0,0,0,0,0,0,0,0,0,0,0,0,0,0,0,0,0,0,0,0,0,0,0,0,0,0,0,0,0,0,0,0,0,0,0,0,0,0,0,0],"split_type":[0,0,0,0,0,0,0,0,0,0,0,0,0,0,0,0,0,0,0,0,0,0,0,0,0,0,0,0,0,0,0,0,0,0,0,0,0,0,0,0,0,0,0,0,0,0,0,0,0,0,0,0,0,0,0,0,0,0,0,0,0,0,0,0,0,0,0,0,0,0,0,0,0,0,0,0,0,0,0,0,0,0,0,0,0,0,0,0,0,0,0,0,0,0,0,0,0,0,0,0,0,0,0,0,0,0,0,0,0,0,0,0,0,0,0,0,0,0,0,0,0,0,0,0,0,0,0,0,0,0,0,0,0,0,0,0,0,0,0,0,0,0,0,0,0,0,0,0,0,0,0,0,0,0,0,0,0,0,0,0,0,0,0,0,0,0,0,0,0,0,0,0,0,0,0,0,0,0,0,0,0,0,0,0,0,0,0,0,0,0,0,0,0,0,0,0,0,0,0,0,0,0,0],"sum_hessian":[9.111E3,6.533E3,2.578E3,4.887E3,1.646E3,1.162E3,1.416E3,3.566E3,1.321E3,6.61E2,9.85E2,8.46E2,3.16E2,9.33E2,4.83E2,3.559E3,7E0,2.65E2,1.056E3,4.2E2,2.41E2,1.32E2,8.53E2,5.82E2,2.64E2,3.09E2,7E0,6.6E2,2.73E2,4.81E2,2E0,3.81E2,3.178E3,4E0,3E0,1.43E2,1.22E2,1.009E3,4.7E1,3.54E2,6.6E1,2.02E2,3.9E1,1.23E2,9E0,2E0,8.51E2,4E1,5.42E2,3.5E1,2.29E2,3.05E2,4E0,5E0,2E0,1.15E2,5.45E2,2.15E2,5.8E1,4.7E2,1.1E1,1E0,1E0,3E0,3.78E2,2.812E3,3.66E2,3E0,1E0,2E0,1.41E2,1.13E2,9E0,3.34E2,6.75E2,4.4E1,3E0,3.19E2,3.5E1,2E0,6.4E1,9.2E1,1.1E2,4E0,3.5E1,1.22E2,1E0,5E0,4E0,4.65E2,3.86E2,1.5E1,2.5E1,2.92E2,2.5E2,1.7E1,1.8E1,6.5E1,1.64E2,1.86E2,1.19E2,3E0,1E0,1E0,4E0,8.9E1,2.6E1,2.68E2,2.77E2,8.8E1,1.27E2,4E0,5.4E1,2.83E2,1.87E2,7E0,4E0,1E0,2E0,1.36E2,2.42E2,2.268E3,5.44E2,1.9E1,3.47E2,9.4E1,4.7E1,1.08E2,5E0,3E0,6E0,3.31E2,3E0,6.71E2,4E0,1E0,4.3E1,2E0,1E0,2.1E2,1.09E2,4E0,3.1E1,5.9E1,5E0,1.1E1,8.1E1,1.05E2,5E0,1E0,3E0,1.1E1,2.4E1,1E0,1.21E2,2E0,2E0,1.16E2,3.49E2,1.01E2,2.85E2,3E0,1.2E1,1.6E1,9E0,1.94E2,9.8E1,2.41E2,9E0,1.1E1,6E0,6E0,1.2E1,5.7E1,8E0,1.62E2,2E0,1.84E2,2E0,1.18E2,1E0,8.4E1,5E0,1.9E1,7E0,2.61E2,7E0,2.66E2,1.1E1,8.5E1,3E0,4.6E1,8.1E1,2E0,2E0,3.2E1,2.2E1,2.54E2,2.9E1,7.7E1,1.1E2,5E0,2E0],"tree_param":{"num_deleted":"0","num_feature":"24","num_nodes":"203","size_leaf_vector":"1"}},{"base_weights":[-3.2124522E-6,-5.2983243E-2,1.3168404E-1,-8.679437E-2,4.536059E-2,2.4581902E-1,3.7560787E-2,-9.769852E-2,-3.0997034E-2,1.0683721E-1,-0E0,3.8613027E-1,3.996896E-2,1.0857145E-1,-6.2022526E-3,-1.04465924E-1,-5.879998E-2,8.0819964E-2,-6.9074854E-2,1.5169883E-1,-1.2296839E-2,-2.9962664E-2,6.735468E-2,4.3232572E-1,1.0645317E-1,1.254885E-1,-2.3703735E-2,1.6772786E-1,-5.871271E-2,-8.979263E-3,2.6000842E-2,-9.1781065E-2,-1.2062853E-1,-6.2179465E-2,1.1564596E-2,-0E0,1.9607054E-1,-7.168823E-2,1.3336715E-2,1.3308108E-1,4.7597784E-1,1.2134E-2,-2.30691E-2,-1.5866917E-2,-1.13753006E-1,2.4093568E-1,3.469023E-2,7.920516E-2,4.5260245E-1,-0E0,2.0422329E-1,5.7464726E-2,2.0834015E-1,-2.9153408E-2,1.27451E-2,9.694593E-2,3.0277634E-1,-8.6196244E-2,4.9470495E-2,-3.8228728E-2,5.3267725E-2,-3.050691E-2,-1.04891434E-1,-1.21295445E-1,-0E0,3.33654E-1,-6.523185E-2,-1.3966677E-2,2.552299E-1,5.1882637E-1,8.9221336E-2,-7.575157E-2,1.8797079E-1,1.0206204E-1,3.1093928E-1,3.0793956E-1,1.99735E-2,-6.0045063E-2,8.685308E-2,-3.39957E-3,-9.280616E-2,-1.1953131E-1,-0E0,1.084655E-1,4.9425957E-1,2.145097E-2,6.3611573E-1,2.6939097E-1,-6.5533675E-2,-8.690787E-3,4.6695194E-1,-4.3893553E-2,1.383426E-1,3.0721673E-1,5.9838615E-2,6.91501E-3,2.139597E-1,3.1251222E-1,1.204393E-1,6.7218067E-3,-9.4199196E-2,6.2736005E-2,3.7118638E-1,1.3947818E-1,4.866759E-1,2.797473E-2,-1.04054436E-1,3.498496E-1,-6.926995E-2,-4.222662E-2,2.5153253E-2,7.2877413E-1,4.0227827E-2,-1.8280895E-3,7.750629E-4,-2.2353674E-3,-1.0243522E-3,-2.2165373E-3,-2.620481E-3,5.2033234E-3,-4.4355332E-4,1.8084513E-2,-0E0,2.9317369E-3,-1.4019816E-3,-1.1300755E-3,1.2335823E-3,9.135853E-3,-0E0,1.7296398E-2,-5.1502656E-4,2.959099E-4,7.16482E-3,-1.2116295E-3,-2.2807983E-3,-7.7049737E-4,1.697334E-2,2.6552326E-3,-2.4348534E-4,1.0951027E-2,2.3313097E-3,8.647556E-3,-4.921393E-5,-1.7445077E-3,5.4949184E-4,5.3272555E-3,-4.2471648E-4,-1.0957718E-3,2.6345294E-4,-2.000956E-3,-0E0,-2.4606527E-3,-0E0,-4.74071E-4,3.3923185E-3,1.28597105E-2,-0E0,2.2018928E-4,9.273531E-3,-0E0,1.9666916E-2,1.2704064E-2,-0E0,-0E0,-1.7971715E-3,5.6442004E-3,-1.3764038E-3,9.566025E-3,-1.8160648E-3,-1.7158156E-3,-0E0,7.790657E-3,-0E0,8.246802E-3,1.8082174E-3,-0E0,8.925731E-3,4.074371E-3,-2.4228031E-4,-1.4914792E-3,7.3554707E-3,8.364075E-3,-0E0,1.8572182E-3,1.3876349E-2,3.4118202E-3,-6.136526E-5,-2.1932232E-3,-0E0,1.0837457E-3,2.1924658E-2,1.17198346E-4,1.378461E-2,1.1721476E-3,8.863791E-3,1.0812773E-2,-8.125252E-4,1.7800347E-3,-0E0,-1.4740338E-4,-2.3893698E-3,1.2661134E-2,-4.6229532E-5,-1.7832203E-3,-0E0,-2.5601045E-3,-5.699919E-4,1.9048303E-2,-0E0,2.2757042E-3,-1.0449433E-3],"categories":[],"categories_nodes":[],"categories_segments":[],"categories_sizes":[],"default_left":[0,0,0,0,0,0,0,0,0,0,0,0,0,0,0,0,0,0,0,0,0,0,0,0,0,0,0,0,0,0,0,0,0,0,0,0,0,0,0,0,0,0,0,0,0,0,0,0,0,0,0,0,0,0,0,0,0,0,0,0,0,0,0,0,0,0,0,0,0,0,0,0,0,0,0,0,0,0,0,0,0,0,0,0,0,0,0,0,0,0,0,0,0,0,0,0,0,0,0,0,0,0,0,0,0,0,0,0,0,0,0,0,0,0,0,0,0,0,0,0,0,0,0,0,0,0,0,0,0,0,0,0,0,0,0,0,0,0,0,0,0,0,0,0,0,0,0,0,0,0,0,0,0,0,0,0,0,0,0,0,0,0,0,0,0,0,0,0,0,0,0,0,0,0,0,0,0,0,0,0,0,0,0,0,0,0,0,0,0,0,0,0,0,0,0,0,0,0,0,0,0,0,0,0,0,0,0,0,0,0,0],"id":7,"left_children":[1,3,5,7,9,11,13,15,17,19,21,23,25,27,29,31,33,35,37,39,41,43,45,47,49,51,53,55,57,59,-1,61,63,65,-1,67,69,71,-1,73,75,-1,77,79,81,83,85,87,89,91,93,95,97,99,-1,101,103,105,107,109,111,113,115,117,119,121,123,125,127,129,131,133,135,137,139,141,-1,143,145,147,149,151,-1,153,155,157,159,161,163,165,167,169,171,173,175,177,179,181,183,185,187,189,191,193,195,197,199,201,203,205,-1,207,209,-1,-1,-1,-1,-1,-1,-1,-1,-1,-1,-1,-1,-1,-1,-1,-1,-1,-1,-1,-1,-1,-1,-1,-1,-1,-1,-1,-1,-1,-1,-1,-1,-1,-1,-1,-1,-1,-1,-1,-1,-1,-1,-1,-1,-1,-1,-1,-1,-1,-1,-1,-1,-1,-1,-1,-1,-1,-1,-1,-1,-1,-1,-1,-1,-1,-1,-1,-1,-1,-1,-1,-1,-1,-1,-1,-1,-1,-1,-1,-1,-1,-1,-1,-1,-1,-1,-1,-1,-1,-1,-1,-1,-1,-1,-1,-1,-1,-1],"loss_changes":[6.3679718E1,2.1687479E1,2.7972858E1,2.886509E0,4.675577E0,3.387571E1,4.5187573E0,9.8181915E-1,3.4095037E0,3.8625908E0,1.91446E0,8.757919E0,2.668827E0,5.5269337E0,2.5724158E0,5.9342575E-1,1.0785608E0,1.9004059E0,8.831372E-1,2.7941637E0,9.9210393E-1,7.191203E-1,1.505122E0,4.0086746E0,1.0393993E0,1.0361927E0,6.8678576E-1,3.7094278E0,4.4418406E-1,1.6039E0,0E0,1.4943771E0,1.5269089E-1,6.1430097E-1,0E0,3.8022774E-1,2.5524287E0,5.8458877E-1,0E0,2.49475E0,1.520505E0,0E0,7.5942224E-1,5.0281596E-1,9.3417406E-2,1.1315992E0,1.635095E0,1.0604466E0,3.9743729E0,3.1148258E-1,5.87991E-1,8.2624984E-1,5.933964E-1,6.776092E-1,0E0,2.3279204E0,3.8122005E0,2.7906454E-1,1.0619191E0,2.5661933E0,2.0452092E0,1.5064247E0,5.049305E-1,2.33078E-2,1.0423482E-1,8.3679855E-1,5.9320784E-1,3.6115205E-1,3.7202564E-1,4.104867E0,1.1022515E0,2.5396252E-1,1.5437548E0,1.5428119E0,2.8784075E0,1.0459425E0,0E0,3.7719077E-1,9.8882556E-1,4.4740966E-1,4.398787E-2,4.4888616E-2,0E0,3.214734E-1,1.0430701E0,8.844661E-1,5.9652805E-1,1.4252107E0,2.1480799E-2,1.916289E-1,3.6938858E0,9.335216E-2,5.953138E-1,3.795383E-1,6.0937476E-1,4.4344682E-1,1.3363954E0,1.2244301E0,4.04621E-1,3.5755464E-1,1.0347599E-1,1.5552648E0,2.9618487E0,1.5904987E0,2.0678625E0,5.7548806E-2,9.336662E-2,1.1638478E0,1.5400395E-2,6.3406825E-1,0E0,7.848289E-1,1.8941481E0,0E0,0E0,0E0,0E0,0E0,0E0,0E0,0E0,0E0,0E0,0E0,0E0,0E0,0E0,0E0,0E0,0E0,0E0,0E0,0E0,0E0,0E0,0E0,0E0,0E0,0E0,0E0,0E0,0E0,0E0,0E0,0E0,0E0,0E0,0E0,0E0,0E0,0E0,0E0,0E0,0E0,0E0,0E0,0E0,0E0,0E0,0E0,0E0,0E0,0E0,0E0,0E0,0E0,0E0,0E0,0E0,0E0,0E0,0E0,0E0,0E0,0E0,0E0,0E0,0E0,0E0,0E0,0E0,0E0,0E0,0E0,0E0,0E0,0E0,0E0,0E0,0E0,0E0,0E0,0E0,0E0,0E0,0E0,0E0,0E0,0E0,0E0,0E0,0E0,0E0,0E0,0E0,0E0,0E0,0E0,0E0,0E0,0E0],"parents":[2147483647,0,0,1,1,2,2,3,3,4,4,5,5,6,6,7,7,8,8,9,9,10,10,11,11,12,12,13,13,14,14,15,15,16,16,17,17,18,18,19,19,20,20,21,21,22,22,23,23,24,24,25,25,26,26,27,27,28,28,29,29,31,31,32,32,33,33,35,35,36,36,37,37,39,39,40,40,42,42,43,43,44,44,45,45,46,46,47,47,48,48,49,49,50,50,51,51,52,52,53,53,55,55,56,56,57,57,58,58,59,59,60,60,61,61,62,62,63,63,64,64,65,65,66,66,67,67,68,68,69,69,70,70,71,71,72,72,73,73,74,74,75,75,77,77,78,78,79,79,80,80,81,81,83,83,84,84,85,85,86,86,87,87,88,88,89,89,90,90,91,91,92,92,93,93,94,94,95,95,96,96,97,97,98,98,99,99,100,100,101,101,102,102,103,103,104,104,105,105,106,106,107,107,108,108,109,109,111,111,112,112],"right_children":[2,4,6,8,10,12,14,16,18,20,22,24,26,28,30,32,34,36,38,40,42,44,46,48,50,52,54,56,58,60,-1,62,64,66,-1,68,70,72,-1,74,76,-1,78,80,82,84,86,88,90,92,94,96,98,100,-1,102,104,106,108,110,112,114,116,118,120,122,124,126,128,130,132,134,136,138,140,142,-1,144,146,148,150,152,-1,154,156,158,160,162,164,166,168,170,172,174,176,178,180,182,184,186,188,190,192,194,196,198,200,202,204,206,-1,208,210,-1,-1,-1,-1,-1,-1,-1,-1,-1,-1,-1,-1,-1,-1,-1,-1,-1,-1,-1,-1,-1,-1,-1,-1,-1,-1,-1,-1,-1,-1,-1,-1,-1,-1,-1,-1,-1,-1,-1,-1,-1,-1,-1,-1,-1,-1,-1,-1,-1,-1,-1,-1,-1,-1,-1,-1,-1,-1,-1,-1,-1,-1,-1,-1,-1,-1,-1,-1,-1,-1,-1,-1,-1,-1,-1,-1,-1,-1,-1,-1,-1,-1,-1,-1,-1,-1,-1,-1,-1,-1,-1,-1,-1,-1,-1,-1,-1,-1],"split_conditions":[7.2E1,9.531018E-2,1.009E3,1.8232156E-1,2.8E1,2.8E1,1.01E3,9.531018E-2,2.8E1,3E1,8.329091E-1,2.9E1,2.8E1,2.8E1,1.8870697E0,2.9E1,8E1,2.7E1,3.6E1,1.3862944E0,1.005E3,3.3E1,2.6E1,2.4E1,2.7E1,9.531018E-2,2.6741486E0,1.01E3,9.531018E-2,9.531018E-2,2.6000842E-2,1.009E3,3.5E1,1.004E3,1.1564596E-2,3.1E1,1.009E3,9.5551145E-1,1.3336715E-2,2.8E1,7.4193734E-1,1.2134E-2,2.7E1,7.4E1,7.8845733E-1,2.5E1,3.4E1,1.011E3,2.7E1,9.531018E-2,2.8E1,9.531018E-2,2.6236427E-1,3.1E1,1.27451E-2,4.7000363E-1,2.9E1,1.007E3,1.007E3,1.5040774E0,1.008E3,2.7E1,7.1E1,1.01E3,6.6E1,2.6E1,2.5E1,9.932518E-1,3.2E1,2.8E1,1.011E3,1.01E3,2.8E1,1.01E3,1.01E3,2.7E1,1.99735E-2,9.5551145E-1,7.2E1,2.5E1,1.9021075E0,1.013E3,-0E0,2.6E1,1.009E3,2.442347E0,1.008E3,2.4E1,1.009E3,7E1,3.4E1,1.009E3,3.3647224E-1,7.4E1,4.054651E-1,1.007E3,9.531018E-2,1.008E3,9.2E1,7.2E1,3.3647224E-1,3.5E1,1.009E3,9.531018E-2,3.4E1,1.009E3,2.9E1,2.8E1,2.8E1,6.9E1,2.5153253E-2,1.609438E0,3.1E1,-1.8280895E-3,7.750629E-4,-2.2353674E-3,-1.0243522E-3,-2.2165373E-3,-2.620481E-3,5.2033234E-3,-4.4355332E-4,1.8084513E-2,-0E0,2.9317369E-3,-1.4019816E-3,-1.1300755E-3,1.2335823E-3,9.135853E-3,-0E0,1.7296398E-2,-5.1502656E-4,2.959099E-4,7.16482E-3,-1.2116295E-3,-2.2807983E-3,-7.7049737E-4,1.697334E-2,2.6552326E-3,-2.4348534E-4,1.0951027E-2,2.3313097E-3,8.647556E-3,-4.921393E-5,-1.7445077E-3,5.4949184E-4,5.3272555E-3,-4.2471648E-4,-1.0957718E-3,2.6345294E-4,-2.000956E-3,-0E0,-2.4606527E-3,-0E0,-4.74071E-4,3.3923185E-3,1.28597105E-2,-0E0,2.2018928E-4,9.273531E-3,-0E0,1.9666916E-2,1.2704064E-2,-0E0,-0E0,-1.7971715E-3,5.6442004E-3,-1.3764038E-3,9.566025E-3,-1.8160648E-3,-1.7158156E-3,-0E0,7.790657E-3,-0E0,8.246802E-3,1.8082174E-3,-0E0,8.925731E-3,4.074371E-3,-2.4228031E-4,-1.4914792E-3,7.3554707E-3,8.364075E-3,-0E0,1.8572182E-3,1.3876349E-2,3.4118202E-3,-6.136526E-5,-2.1932232E-3,-0E0,1.0837457E-3,2.1924658E-2,1.17198346E-4,1.378461E-2,1.1721476E-3,8.863791E-3,1.0812773E-2,-8.125252E-4,1.7800347E-3,-0E0,-1.4740338E-4,-2.3893698E-3,1.2661134E-2,-4.6229532E-5,-1.7832203E-3,-0E0,-2.5601045E-3,-5.699919E-4,1.9048303E-2,-0E0,2.2757042E-3,-1.0449433E-3],"split_indices":[1,7,14,23,8,8,14,11,20,20,7,20,12,12,11,12,17,0,12,7,14,8,0,8,4,11,11,6,19,7,0,14,0,14,0,12,14,11,0,4,19,0,4,13,7,20,16,6,0,7,12,23,7,16,0,19,4,22,2,23,10,0,1,6,1,0,12,23,12,8,22,6,8,14,6,20,0,7,13,20,11,10,0,4,2,7,2,12,2,17,0,2,7,1,23,14,7,6,1,13,11,4,10,15,0,6,12,20,20,13,0,7,8,0,0,0,0,0,0,0,0,0,0,0,0,0,0,0,0,0,0,0,0,0,0,0,0,0,0,0,0,0,0,0,0,0,0,0,0,0,0,0,0,0,0,0,0,0,0,0,0,0,0,0,0,0,0,0,0,0,0,0,0,0,0,0,0,0,0,0,0,0,0,0,0,0,0,0,0,0,0,0,0,0,0,0,0,0,0,0,0,0,0,0,0,0,0,0,0,0,0],"split_type":[0,0,0,0,0,0,0,0,0,0,0,0,0,0,0,0,0,0,0,0,0,0,0,0,0,0,0,0,0,0,0,0,0,0,0,0,0,0,0,0,0,0,0,0,0,0,0,0,0,0,0,0,0,0,0,0,0,0,0,0,0,0,0,0,0,0,0,0,0,0,0,0,0,0,0,0,0,0,0,0,0,0,0,0,0,0,0,0,0,0,0,0,0,0,0,0,0,0,0,0,0,0,0,0,0,0,0,0,0,0,0,0,0,0,0,0,0,0,0,0,0,0,0,0,0,0,0,0,0,0,0,0,0,0,0,0,0,0,0,0,0,0,0,0,0,0,0,0,0,0,0,0,0,0,0,0,0,0,0,0,0,0,0,0,0,0,0,0,0,0,0,0,0,0,0,0,0,0,0,0,0,0,0,0,0,0,0,0,0,0,0,0,0,0,0,0,0,0,0,0,0,0,0,0,0,0,0,0,0,0,0],"sum_hessian":[9.132E3,6.515E3,2.617E3,4.852E3,1.663E3,1.18E3,1.437E3,4.051E3,8.01E2,7.09E2,9.54E2,7E2,4.8E2,5.52E2,8.85E2,3.439E3,6.12E2,2E2,6.01E2,5.18E2,1.91E2,6.64E2,2.9E2,5.99E2,1.01E2,2.08E2,2.72E2,4.1E2,1.42E2,8.84E2,1E0,1.946E3,1.493E3,6.1E2,2E0,1.17E2,8.3E1,6E2,1E0,4.92E2,2.6E1,2E0,1.89E2,5.74E2,9E1,4.3E1,2.47E2,3.4E1,5.65E2,4.9E1,5.2E1,1.18E2,9E1,2.71E2,1E0,2.72E2,1.38E2,1.17E2,2.5E1,6.07E2,2.77E2,3.5E2,1.596E3,1.487E3,6E0,3E0,6.07E2,1.12E2,5E0,1.9E1,6.4E1,5.93E2,7E0,4.22E2,7E1,2.1E1,5E0,1.45E2,4.4E1,5E2,7.4E1,8.8E1,2E0,3E1,1.3E1,2.43E2,4E0,1.6E1,1.8E1,1.6E1,5.49E2,3.7E1,1.2E1,2.8E1,2.4E1,9.2E1,2.6E1,3.8E1,5.2E1,1.7E2,1.01E2,2.44E2,2.8E1,7.5E1,6.3E1,1.2E1,1.05E2,8E0,1.7E1,6.06E2,1E0,4E0,2.73E2,1.9E2,1.6E2,1.406E3,1.9E2,7.44E2,7.43E2,1E0,5E0,1E0,2E0,1.1E1,5.96E2,7.6E1,3.6E1,3E0,2E0,1.2E1,7E0,5.2E1,1.2E1,4.35E2,1.58E2,5E0,2E0,3.36E2,8.6E1,3E1,4E1,1.6E1,5E0,1.15E2,3E1,1.8E1,2.6E1,1.29E2,3.71E2,6.8E1,6E0,8.6E1,2E0,7E0,2.3E1,1E1,3E0,2.39E2,4E0,2E0,2E0,6E0,1E1,6E0,1.2E1,1E0,1.5E1,5.39E2,1E1,2.2E1,1.5E1,5E0,7E0,1.7E1,1.1E1,2.1E1,3E0,1E1,8.2E1,8E0,1.8E1,2.8E1,1E1,5.1E1,1E0,1.2E1,1.58E2,8.3E1,1.8E1,2.43E2,1E0,1.4E1,1.4E1,6.1E1,1.4E1,5.8E1,5E0,8E0,4E0,1.9E1,8.6E1,5E0,3E0,1.2E1,5E0,7.8E1,5.28E2,3E0,1E0,1.55E2,1.18E2],"tree_param":{"num_deleted":"0","num_feature":"24","num_nodes":"211","size_leaf_vector":"1"}},{"base_weights":[-1.2745047E-3,-7.9539895E-2,1.8559246E-1,-9.831597E-2,-7.1314555E-3,3.0159917E-1,1.141668E-1,-1.0430905E-1,-5.4355856E-2,5.394692E-2,-7.8574695E-2,1.5557542E-1,4.3388966E-1,6.2636994E-2,1.7804639E-1,-1.1054359E-1,-7.09194E-2,-6.6835955E-2,-0E0,1.2404181E-1,-2.3907702E-2,-0E0,-8.696687E-2,1.2203772E-1,4.1903257E-1,4.7917256E-1,1.290486E-1,1.277176E-1,8.667013E-3,2.1707168E-1,7.149999E-2,-1.1478985E-1,-8.4154256E-2,3.779921E-1,-7.375271E-2,2.1692056E-3,-7.4914336E-2,-4.0121075E-2,2.6789263E-1,6.4673424E-2,2.1627022E-1,6.3440073E-3,-1.0791131E-1,-3.603508E-2,1.5209351E-1,-7.0519716E-2,-2.5384119E-3,1.8440321E-1,6.800612E-2,5.945114E-1,2.811153E-1,4.9555692E-1,1.7002644E-2,9.7384885E-2,2.4817877E-2,8.128888E-2,2.9966778E-1,-1.4105313E-2,1.846494E-1,1.6995361E-1,2.756111E-1,1.3039172E-1,-9.604205E-3,-1.19411275E-1,-8.973149E-2,-2.2268876E-2,-9.6844696E-2,-0E0,1.1738819E-2,-9.004451E-2,-2.8015727E-2,2.045359E-1,-4.792125E-2,-8.813902E-2,-4.756935E-2,-0E0,-9.024161E-2,7.338272E-2,2.1293353E-2,5.1211867E-2,2.8117618E-1,3.6573574E-1,1.6089465E-1,-8.86449E-2,6.360026E-2,-1.1181739E-1,-0E0,-1.0719033E-1,5.319716E-3,-0E0,1.3391669E-2,-7.978633E-2,-0E0,5.9387714E-2,2.5603455E-1,3.375673E-2,2.1044295E-1,8.542767E-2,8.028474E-1,3.8489813E-1,-0E0,5.3055817E-1,2.5386354E-1,-0E0,5.130084E-3,1.9802542E-1,-3.6857747E-2,1.192709E-1,1.5012747E-2,1.09213725E-1,5.990497E-1,-3.808231E-2,1.03313714E-1,-5.5709932E-2,2.6660487E-1,1.8486154E-1,-1.742144E-2,2.5009024E-1,5.764609E-1,1.5411815E-3,1.8523294E-1,-3.808233E-2,1.2439475E-1,-0E0,-2.3903097E-3,-2.4247873E-3,-1.1127654E-3,-1.3205116E-3,3.121551E-3,-1.9935113E-3,9.24669E-4,-0E0,-1.8345504E-3,1.2932194E-3,-1.466631E-3,5.678542E-3,-0E0,-1.3866809E-3,1.143191E-3,-1.8362516E-3,-0E0,6.0503893E-3,-1.1621022E-3,-1.2747924E-3,2.888915E-3,-2.3488055E-3,1.0122327E-4,-1.7923054E-5,6.6630226E-3,1.370816E-3,-1.8148731E-3,1.5303216E-2,-0E0,2.9470485E-3,1.3906033E-2,2.5823682E-3,1.1551412E-2,-2.0450433E-3,1.3121545E-3,-9.792678E-4,2.6444765E-3,-2.3199772E-3,-0E0,-0E0,-2.264849E-3,-1.9641797E-4,7.5371754E-3,5.710334E-3,-1.3473381E-3,-1.0185612E-3,-2.0525856E-3,-1.7254725E-3,7.946983E-3,3.6825167E-3,-3.6682768E-4,7.323798E-3,1.5511593E-3,1.1383678E-3,-8.277649E-4,9.444779E-3,1.7468453E-3,-0E0,7.616789E-3,-0E0,1.8098757E-2,1.0114607E-2,-0E0,2.1537691E-3,-4.2271684E-4,1.3115137E-3,1.08532775E-2,1.176466E-3,6.7843054E-3,-9.773014E-4,9.6992915E-4,4.534178E-3,-2.2240682E-4,-1.179122E-3,9.5127696E-5,1.6908158E-4,2.9234749E-3,-7.993806E-6,7.530077E-3,1.3916558E-3,1.4392411E-2,2.2791807E-2,9.237357E-3,-1.0836045E-4,-1.3039545E-3,1.426542E-3,1.5949365E-2,-1.7473836E-3,-0E0,6.4539706E-4,7.841857E-3,6.1829537E-3,2.949104E-3,-1.3276066E-3,2.9671723E-3,5.527528E-3,1.5841421E-3,-0E0,1.3461779E-2,5.7997406E-3,-9.932468E-4,2.9926784E-3,1.3490905E-2,-1.8660657E-3,1.0292023E-4,4.272544E-3,-0E0],"categories":[],"categories_nodes":[],